-4.167578474054705988e-03,-5.626682722632948093e-04,-2.136196095668453990e-02,1.640270808404988706e-02,-1.793435585194863222e-02,-8.417473656562040815e-03,5.028814171580428191e-03,-1.245288086607231580e-02,-1.057952218862338867e-02,-9.090076149268494152e-03,5.514540445464243684e-03,2.292208012814957521e-02,4.153939299840346175e-04,-1.117925445113516873e-02,5.390583205807888099e-03,-5.961596998064670402e-03,-1.913049652115147688e-04,1.175001219500291030e-02,-7.478709492938624866e-03,9.025250973325124344e-05,-8.781078932403419551e-03,-1.564341703846236628e-03,2.565704520012956555e-03,-9.887790487696217212e-03,-3.388219660291963507e-03,-2.361840308526012931e-03,-6.376550124843012590e-03,-1.187612286385284280e-02,-1.421217227304126876e-02,-1.534951956769491435e-03,-2.690569602160134983e-03,2.231366788886604557e-02,-2.434767576521044280e-02,1.127265048166489151e-03,3.704445366632342328e-03,1.359633862672596227e-02,5.018572067813133371e-03,-8.442137038298618348e-03,9.761471596093479387e-08,5.423525721490291343e-03,-3.135081969934088841e-03,7.710117380694114959e-03,-1.868090654563763636e-02,1.731184665980467843e-02,1.467678010573412843e-02,-3.356773385238474763e-03,6.113407795737173592e-03,4.797059186818837420e-04,-8.291352890147787175e-03,8.771021840833141767e-04,1.000365886550695117e-02,-3.810925175153499506e-03,-3.756694230789936733e-03,-7.447076289398097890e-04,4.334963300765708183e-03,1.278379230271868214e-02,-6.346793051793623089e-03,5.083962426834317920e-03,2.161160062636820287e-03,-1.858612386123497523e-02,-4.193164821526888277e-03,-1.323288984367433641e-03,-3.957023969360569946e-04,3.260034333869806129e-03,-2.040323048728715297e-02,4.625552314169690486e-04,-6.776755773280415153e-03,-1.439439026738618087e-02,5.242964300103486464e-03,7.352795760652025385e-03,-6.532502677920356930e-03,8.424562815713401362e-03,-3.815164817650861743e-03,6.648900914614486700e-04,-1.098738946996056544e-02,1.584487056395676371e-02,-2.659449456383488480e-02,-9.145262289065814393e-04,6.951196050469914470e-03,-2.033466546122613544e-02,-1.894692647123808220e-03,-7.721866535295716146e-04,8.247030054369816621e-03,1.248212920597034127e-02,-4.038922693379395044e-03,-1.384518666535864903e-02,1.367235423927124459e-02,1.217885633056290350e-02,-4.620053481533804851e-03,3.508884940877463054e-03,3.818662341266969556e-03,5.662754414424561386e-03,2.042079789141119667e-03,1.406696241661370417e-02,-1.737959504384567824e-02,1.040823953390728959e-02,3.804719702150004615e-03,-2.171352687448793728e-03,1.173531498494953529e-02,-2.343603190999962033e-02,1.161521490740772926e-02,3.860780476035945326e-03,-1.133133273676982522e-02,4.330925546566909146e-03,-3.040864388013155787e-03,2.585294868064549542e-02,1.835332722864824878e-02,4.406898724151096097e-03,-7.192538414266772852e-03,-5.834145945790076247e-03,-3.250496283817860994e-03,-5.602345062377970739e-03,-9.022460680705017902e-03,-5.909722754694454565e-03,-2.761794922507377920e-03,-5.168838937325868216e-03,-6.985899499363887322e-03,-9.288919245238192249e-03,2.550438235879659912e-02,-1.473173247799885663e-02,-1.021414730522066452e-02,4.323957009796062199e-03,-3.235800700765239721e-03,4.238247078658806573e-03,7.991799950350153559e-03,1.262613663324820175e-02,7.519648492148806387e-03,-9.937609831185908321e-03
1.109143281361647977e-02,-1.764917728275755548e-02,-1.144212970301206706e-03,-4.981741939217585249e-03,-1.060799036330432009e-02,5.916665207276790121e-03,-1.832565737795813568e-03,1.019854729369237302e-02,-1.482465477822671011e-02,8.463118918420798123e-03,4.979401483668207534e-03,1.265041753065062301e-03,-1.418810551148534313e-02,-2.517741183698240636e-03,-1.546674611264416306e-02,-2.082651935744949528e-02,3.279745401111399533e-02,9.708613200402732221e-03,1.792592852398284045e-02,-4.290133185098448515e-03,6.961979796114306507e-03,6.974162722769294831e-03,6.015158136671997988e-03,3.659490714469374259e-05,-2.282475581940342658e-03,-2.069612262665450689e-02,6.101440864066574009e-03,4.234969004428727236e-03,1.117886733450841781e-02,-2.742420888635259315e-03,1.741812188472234221e-02,-4.475008761926457627e-03,-1.255427218345858340e-02,9.381636712741442743e-03,-4.683462595582318921e-03,-1.254720307112854732e-02,1.248236463858445368e-03,7.565021430525523116e-03,2.414396288416923667e-03,4.974256489247372466e-03,4.108692623805201144e-02,8.211208773119116691e-03,1.531760316316956201e-02,-1.985845773792645208e-02,3.650535164408406918e-03,7.740820334046989541e-03,-3.644790916126585366e-03,-8.759794776653947318e-03,3.965201586867086840e-03,-3.146174356559310568e-03,-5.937555828826070019e-03,1.149500567717982348e-02,1.335566168340721928e-02,3.026293361780989927e-03,-4.542278547161103172e-03,5.143707174654486153e-03,8.294584306133938323e-03,6.306219672771202524e-03,-1.453364349656788811e-02,-3.380177773562278304e-03,3.591333317938045187e-03,6.222204144679328690e-03,9.607819448432280973e-03,7.583703471667696885e-03,-1.134318483030618413e-02,-7.074208875637867135e-03,-1.221429165095768571e-02,1.804476641579725801e-02,1.804098069115463426e-03,5.531642741578120769e-03,1.033029065927621414e-02,-3.290024347007062741e-03,-1.151002944141148523e-02,-4.265224708552696302e-03,-1.481471911773017810e-03,1.501436915256577909e-02,8.695981975449448842e-03,-1.087090574842441634e-02,6.642214133956300497e-03,7.348846677409518260e-03,-1.061365743930838164e-02,-1.085168239189844867e-03,-1.850403973791476392e-02,3.304880639989201882e-03,-3.156932103027736396e-03,-1.350002102665544441e-02,-6.981709975828928084e-03,2.399511982728864002e-03,-5.529494395632221677e-03,2.995268131801583252e-03,5.526636956041990068e-03,-8.404430124914968187e-03,-3.122706696586437670e-03,2.144678089111037161e-02,1.211055815783286570e-03,-8.468287519418934636e-03,6.046244900291209085e-04,-1.338588879868523110e-02,1.132746075933348251e-02,3.703048427472401243e-03,1.085806404022096779e-02,9.021793954405899971e-03,3.902964498107620774e-03,9.755094122285650968e-03,1.915736466077780668e-03,-6.622090117942488856e-03,-1.023514984798030297e-02,-4.481748233443686932e-03,-2.505458132074395161e-02,1.825994457134669235e-02,-1.714067411096032931e-02,-7.663956399736892872e-04,-1.317567269754037554e-02,-2.025593591834587079e-02,-8.224537503313031741e-04,-3.046665848496570364e-03,-1.597241301213864510e-03,5.489465598226188868e-03,-6.183754850876789673e-03,3.787944657069746823e-03,5.132514443093329735e-03,-3.348441254577185899e-03,-2.835195163633107921e-03,5.384242627906190605e-03,5.725094652111058745e-04,1.590884866502195391e-03,-2.374402684066253752e-02,5.851993528067137539e-04
3.765459110340410500e-03,-1.354797643031821182e-03,3.359083951093597229e-03,1.904375909180253124e-02,8.536443342265025679e-04,6.653342779222267030e-03,-8.499955027150660203e-03,-8.523417966884178770e-03,-4.799851115326509571e-03,-1.019649099475929480e-02,-7.601138413295659157e-05,-9.338306614168933803e-03,-1.749968437347599725e-03,-1.437143432230779741e-02,-1.652200291241580701e-02,-6.756617890008304386e-03,-1.067067123783323190e-02,-6.529311451382788234e-03,-6.120947501678102552e-03,-3.512624610927729193e-03,1.045477987638505392e-02,1.369016024400968382e-02,7.253532593570585080e-03,-3.594744591450300605e-03,1.496951789522485941e-02,-1.531111107592440269e-02,-2.023363939007854009e-02,2.679725764786314562e-03,-2.206445409661721572e-05,-1.392918827686258874e-03,3.256546931249138920e-04,-1.640560224804841691e-02,-1.156699170518141542e-02,1.234034681364575003e-02,1.028184899156143854e-02,-7.218797261099032907e-03,1.933156966349077951e-02,-1.070796325637173550e-02,-5.713816078832426731e-03,2.924320673299355289e-03,-1.194999894924883566e-02,-4.879305441918647956e-03,-1.730711652254748271e-03,-3.953464011668083450e-03,8.708407646082091946e-03,5.928067967811247348e-03,-1.099297309128424195e-02,-6.815306444640257047e-03,1.800666849352130323e-03,-6.693104399651723675e-04,-7.877495403193005008e-03,4.247536722752912747e-03,8.198851165343834166e-03,-6.311186825850962148e-03,7.890596485823134915e-03,-1.621673802981330945e-02,-1.610499258510962942e-02,4.999397639700474925e-03,-8.345152073854781444e-03,-9.969596870741779734e-03,-2.633880770504882455e-03,-6.773604917430739794e-03,3.270670380187368394e-03,-1.455359444978248859e-02,-3.715191243558080888e-03,3.160965969545883464e-02,1.099510128207582945e-03,-1.913523218297085576e-02,5.998204294582221499e-03,5.493844654591697151e-03,1.383781034869402231e-02,1.483492434014859742e-03,-6.535414440345463892e-03,1.408833983962474654e-02,7.120612274258530938e-03,-1.800716040785921637e-02,7.475989417792677783e-03,-2.328970010487770026e-03,1.110645280314124898e-02,-3.733388129364675900e-03,7.861460698232878436e-03,1.941686956582282329e-03,5.862040977207660930e-03,-2.038729177207964803e-04,-4.144085975292956248e-03,6.731341235202175288e-04,6.317989237843664452e-03,4.175927305262639236e-03,1.615176268511637689e-02,4.256062110933309106e-03,6.353637577374614785e-03,2.102229267452569023e-02,6.612641683450269951e-04,5.355583505835698546e-03,-6.031407921579915593e-03,4.195762919699332657e-04,1.641914637471946978e-02,3.116977066622208126e-03,1.451169899781516379e-02,-1.064927880078713439e-02,-1.400845454811561197e-02,3.075255266972611382e-03,-1.369638672626268330e-02,2.670337244799694462e-02,1.248450298019977006e-02,-1.245726553054350531e-02,-1.671687743503800019e-03,-5.766109302850346528e-03,4.160217490677626043e-03,-5.784726264190014284e-04,9.318873578923119599e-03,1.468332132719649304e-02,-2.213209427312920561e-03,-1.173155621442783896e-02,5.626690781293578608e-03,-1.645150572934555655e-03,1.144855376000608778e-02,-1.521176868008163995e-03,8.297890458851082604e-03,3.360659516498583702e-03,-1.890440514657522070e-03,-4.493286007163243938e-03,7.135244477011201160e-03,2.529734874213447268e-02,8.376157939660211146e-03,-1.316824032518440707e-03,7.075928660409391661e-03,1.140538779273587901e-03
-1.280895177942670445e-02,3.098462773847513157e-03,1.548290693962678030e-02,-3.158280431723689639e-03,-1.125903780697406001e-02,4.884966659384202756e-03,1.830946656984628121e-02,9.401759927377288661e-03,1.018717046893108033e-02,2.302378288542350146e-02,1.621092977673105687e-02,7.126832734794980549e-03,-2.087036291125146138e-03,1.376179913049609170e-03,-1.033521683006750902e-03,8.483505668983570489e-03,-8.831255611139024464e-03,1.545386826471848753e-02,1.458400731438213270e-03,-4.001060564771583526e-03,8.152060414373763636e-03,-2.074922365162768303e-02,-8.344373905441147821e-03,-6.577184471075346074e-03,8.205643322308261989e-03,-4.891570012606250711e-03,1.424967034052005734e-02,-4.468578967707439314e-03,5.211094309765637068e-03,-7.081943801830010640e-03,1.155530589628884185e-02,-2.545304593445046979e-03,5.189249241623829396e-03,-4.929949114545433345e-03,-1.086548152884008606e-02,-2.309174972810980851e-03,1.098010038758161916e-02,-1.017878050321955816e-02,-1.529391355496217964e-02,-3.079877367482590760e-03,7.807543560226766141e-03,-1.055839638565813504e-02,-5.438833813698300268e-03,1.843017393983586386e-03,-3.306758434875775501e-03,2.872082021600808575e-03,1.189528136904333122e-02,2.120154785712008113e-04,-6.540968033907540490e-04,7.661159035350953786e-03,-6.163508462204959036e-04,-9.528971521266587849e-03,-1.014463063520163778e-02,-1.115263963037621542e-02,1.912600678490775780e-02,-4.526320313206409177e-04,5.769097178061823906e-03,7.178056951262263771e-03,-9.389989977388749423e-03,6.287758071996502572e-03,-5.644934320615776872e-03,-2.087807462288724519e-02,-2.150501316750479553e-03,-1.075028563934741013e-02,-3.379721493644322495e-03,3.432127321965482147e-03,2.282539639547712454e-02,-4.957788482144945795e-03,-1.639628323395947570e-03,3.716221612603649253e-03,1.865215199860129026e-03,-1.584292241884400262e-03,-1.082929557197094897e-02,-9.566255200649338361e-03,-1.833767350565314444e-03,-1.159806896276607997e-02,-6.577683624489187759e-03,-1.251448406314327813e-02,1.124482860692474148e-02,-1.497839805507618534e-02,1.902017223300536686e-02,-5.803830380547186051e-03,-1.054915674349906837e-02,-1.182757204314821391e-02,7.794800543734979083e-03,1.026597950565044833e-02,-8.486660011006626203e-03,3.315396481068902997e-03,-1.495913526478984514e-03,-2.424406001317040271e-03,1.511971753169305110e-03,7.650694809624692359e-03,-1.916630519009121514e-02,-2.227341292297462666e-02,2.066898973815000599e-03,-7.087635595823141375e-04,6.847599689489094511e-03,-1.707539050551093104e-02,-9.865696649288421827e-03,1.543536339103569743e-02,-1.310270528947815420e-02,3.634339718795870366e-03,-7.948724445629353624e-03,-4.052862668192302661e-03,-1.377757931496095302e-02,1.186048675686366023e-02,-1.903821142942931435e-02,-1.198140378317077981e-02,-9.100656426225537873e-03,1.176454192683196176e-02,2.992106696226707382e-03,6.792671780240066258e-03,-1.766067999044949324e-04,2.360409229142486180e-03,4.940358709352568600e-03,1.546277645867643810e-02,2.468575084668076132e-03,-1.468775799287281962e-02,1.147099942411941229e-02,9.555698451187417779e-04,-1.107438726275637199e-02,-1.762861412530986049e-03,-9.827556665328718646e-03,2.086682727497768744e-02,-3.446236706818767235e-03,-2.002079233146755732e-02,3.032344329087319212e-03,-8.298748447104051587e-03
1.288769406861876507e-02,1.349254621709400142e-03,-1.778600641324842163e-02,-5.007914895154542100e-03,-1.088161568801267361e-02,-7.578555532194674454e-03,-6.437449001568133246e-03,-2.008784527447412399e-02,1.962628940816596185e-03,-8.758963700149516307e-03,-8.936092090801043414e-03,7.519023551703334605e-03,1.896932243552256966e-02,-6.290791507985063306e-03,1.812085527128532228e-02,-2.056265740737039244e-02,5.627048871153755849e-03,-5.820707574542218106e-03,-7.400297487408615330e-04,-9.864963639746409524e-03,-5.947224989190690383e-03,-3.148118427113135755e-03,-3.469405317942981896e-03,4.114435163383715899e-03,2.326390901121182589e-02,-6.340531276364555317e-03,-1.544099623581142834e-03,-1.749288803812281204e-02,-2.519579296368879007e-02,1.391162427419381439e-02,-1.329346442504521046e-02,-7.455964142526198130e-03,2.126084980942677708e-04,9.109175148647430040e-03,3.152760818398396905e-03,1.866208205263013981e-02,-1.824976232756788958e-03,-1.828266339513909614e-02,1.389557172605652676e-03,1.194501646650527769e-03,-8.188992001165686443e-03,-3.326392648474486846e-03,-5.863879554769582496e-03,1.734516344405048760e-02,-6.127515576665696143e-03,-1.393442017001075839e-02,2.794337565448723037e-03,-1.822231268440837118e-02,4.270174575554753875e-03,4.069877491120994090e-03,-8.443082406155315300e-03,-5.598201129278841670e-03,-6.005204054093214380e-03,1.614873237063258263e-02,3.949532203796535593e-03,-1.203813469444723824e-02,-1.247472431611339715e-02,-7.754624962855334851e-04,-1.333975135087009985e-04,-7.683232495933241431e-03,2.912340100006445207e-03,-1.973309481247265476e-03,1.076829649530186388e-02,4.374102318607926872e-03,-9.319786632608736054e-04,1.356314160560715505e-03,-8.827088215741824007e-03,8.847441942013678159e-03,3.832044634600648668e-03,-4.169941488753235725e-03,1.177965497553318643e-03,-5.366853088375118409e-03,2.487184575331647871e-02,-4.513610543506509261e-03,5.188361269114732943e-03,3.644480051463250183e-03,-7.983487290498046673e-03,5.657797131419039875e-05,-3.209347078323880349e-03,2.495135497342965310e-03,2.563083915772300294e-03,7.676250825051286752e-03,7.830200873402384104e-03,-4.070630468138124181e-03,-5.248916671201976115e-03,-5.898086834155772534e-03,-8.625310861266463278e-03,-1.742872904242517840e-02,6.036714606026271149e-03,-7.961345202199652952e-04,-2.112726914290075173e-03,-1.657734744433227506e-02,-1.501040089807534339e-02,-2.515439456144192079e-02,-1.029610312610995063e-03,6.692290292403060142e-03,5.943091570409794223e-03,-7.810733738576350295e-04,-1.078739488385590042e-02,-8.981629456878433124e-05,2.359334323581991957e-05,7.057525382505124185e-03,7.658674588387286673e-03,-2.662367379961805194e-03,-3.468536600121503960e-04,6.961937524370047023e-03,4.571885208182008449e-03,-1.707015511171897440e-03,-2.168618498903272448e-02,-6.651801660841696190e-03,8.387129855080627944e-03,1.498279500434066512e-03,9.531774002958466607e-03,-3.452419649889470338e-03,8.027061830980409965e-04,7.935245958607176769e-03,6.878241589209073241e-03,3.916828643202379182e-03,1.088858465941406999e-02,1.335311751831315223e-02,1.390346010109009059e-02,-1.651679599791429365e-02,-4.863185806843218009e-03,-3.285684699965064730e-03,-3.646150027984321803e-03,-1.637614383646660704e-02,1.301120422554393613e-02,-1.001305153132893595e-02
9.949926532119926243e-04,-2.404226052826723831e-02,-5.070738022511005194e-03,-2.580494262210347636e-03,-9.358689143269845537e-03,7.354104614614677057e-03,2.380484460431411819e-02,-8.755813300584485565e-03,-8.652099642166614923e-03,1.751818161471123750e-02,5.620411375901479718e-03,-3.160940278343947821e-03,-1.279556883850517177e-02,7.326500134138722378e-03,2.131586779458501200e-03,1.552513433674160628e-02,-8.709521134003226500e-03,-1.735613864527535714e-03,-3.079353892608146202e-03,-2.168312645262238537e-03,1.057634570430106974e-02,8.423693449991302359e-03,-6.404189096269210721e-03,-9.232328944024648099e-04,-2.308130081112537511e-03,8.891223178884419612e-03,-1.762460665250549074e-03,-1.117961850633716718e-02,-3.453082554813343818e-03,-4.777713869099144703e-04,9.172204776794755030e-03,1.275826900818811775e-02,1.290767961843709670e-02,3.641086184818152511e-03,-5.179343241535730100e-03,5.812862400493361802e-03,-1.909245646552951538e-03,-6.252535181118733763e-03,2.892525357002618831e-03,4.002974868488783783e-03,8.635321006557289056e-03,-9.048818800969717774e-03,-1.673635985455854819e-02,4.991843575476198960e-03,-9.713322060557458282e-03,9.901526821366652548e-03,-1.108351666908559581e-02,-5.900906004813742320e-03,-1.818252456768103265e-02,2.036649938694028161e-02,-4.708067671068984911e-03,-9.596947070523430831e-04,-5.401460132005208269e-03,-2.545112109810990144e-03,8.136763946582407925e-03,8.813105729843527308e-04,-2.893584563667723651e-04,1.172682560564162167e-02,-1.370423982914571216e-02,1.113529790318003657e-02,1.576890178140493912e-02,-1.406699584913614388e-02,2.529459259222099042e-03,-1.305433426930124700e-02,-2.129869204804334115e-02,-8.671255046975082786e-03,5.053648958131306927e-03,7.386518360931771353e-03,-3.866257808877124249e-03,-8.845777032933491851e-03,-4.573088284107333472e-03,-7.356405228435047676e-03,-6.492051595618835054e-03,-2.428253457866956164e-02,-2.571249692243188830e-03,-1.369782960883466271e-03,2.162462412122149319e-02,6.575512468949224441e-03,-1.602625588329841325e-03,5.302648275988940552e-04,3.083562615931800116e-03,-7.222880550643944603e-03,-2.103558342593229297e-02,-7.513748417424552170e-03,-2.481433354510527607e-03,9.357178712811850844e-04,-7.396070759525862591e-03,-9.457517119913265435e-03,-2.877037096277263329e-03,3.006005585484988361e-04,5.472618035108126749e-03,-2.663178683874312200e-03,4.141037479343464417e-03,-1.022988219179458980e-02,7.895225604104244566e-03,-8.074795743806894395e-04,-1.387169413327562703e-02,-2.766663633760728293e-03,8.282248031145420094e-04,-1.087394796735686141e-02,7.020135249078566196e-03,-3.561359306364889239e-03,4.319889809259436740e-03,-1.017862729059567165e-02,2.877471723561230831e-03,7.044508850090327665e-03,-4.628658763683369919e-03,-2.144527502542870404e-03,-5.929667108814840396e-03,3.116039835298370971e-03,1.003437026682128249e-04,4.788046089477662921e-03,-8.030559203746405429e-04,-1.292223811181632612e-02,-1.333403987794519463e-02,-4.698406767537678837e-03,4.402067962813666427e-03,2.242663471323221719e-02,8.488214486643334139e-03,-6.332611907514373688e-03,-2.045866679591336335e-02,4.944938657688551474e-03,-1.952912461394720492e-05,-1.231664490693114983e-02,8.756889301774544929e-03,-1.077564184391817989e-04,-4.303355536795749371e-03,-1.950277062730066194e-02
9.491217282740721170e-03,5.090698848373309158e-04,-2.660210641477899103e-03,-9.789306506980982592e-03,-3.838098461775682653e-03,1.221850260801501421e-02,5.072266040303184155e-03,1.989835294505253038e-02,1.048388658412121970e-02,3.327625231241244756e-03,8.843589988951195899e-03,1.488861888272269935e-03,-1.462678345660559966e-02,-6.168444703349245523e-03,3.213357957800812206e-03,-9.464468643059094008e-03,-5.301394082656446863e-03,-1.259207015363383517e-02,1.677544064041899471e-02,-1.331161728361028064e-02,-1.052874108968709053e-02,-8.989854910729287371e-03,9.611043126175777829e-03,1.116515990242777923e-02,-5.651193836365182507e-03,5.651217345119038428e-03,-9.033609101596184326e-03,-7.642311036066489849e-05,2.603699667852351490e-02,9.359161499586616390e-03,-5.086667263591092107e-04,-1.334412283822151470e-02,-3.080027315580258912e-03,-1.328915142806736706e-02,-2.192966702707473473e-02,5.994656154289271580e-03,5.762751140739184180e-03,1.939284252713822411e-03,9.935055944790388213e-03,-1.677565382290562360e-02,1.392130115100132827e-02,-1.088751677383309122e-02,3.742897252795832682e-03,4.514339549025637478e-03,1.074361412438417512e-02,1.996110777607511960e-02,3.454493700536566143e-03,-3.828030995971646363e-03,-1.113301312288822280e-02,2.580030246049355019e-03,-8.484144574350586943e-03,-1.358454045112636802e-02,-2.028407375188598372e-03,6.711467630763592873e-03,-3.099831748776172950e-03,-1.053332011173956605e-02,1.416414533308351644e-03,-1.244103939848811673e-02,-1.518372626587674232e-02,1.458970971156005325e-02,2.428742910183001678e-03,1.980219954649827321e-02,-1.474627956466429378e-02,1.036917820641368275e-02,-1.768558887825065788e-03,2.679644234850006579e-02,-2.154241511388091477e-03,-4.444547714069910054e-03,4.238209606295059023e-03,1.889609950674139664e-03,-4.591349283340287642e-03,9.117478653157222793e-03,6.901809236186843589e-03,8.856915029709866438e-03,4.004188476372214783e-03,-7.096541894024758351e-03,-7.002780873628642634e-03,5.929927932633268124e-03,-9.390573666975149739e-03,1.698044509181044492e-02,3.249471822108280952e-04,-7.941779636336767506e-03,1.037564906459500017e-02,-2.019333856880698396e-04,1.197179835435116697e-02,2.117871777612983456e-03,1.768297431745159340e-02,-3.834851831001172186e-03,-2.184177564251296028e-02,-1.516204760982008473e-02,-1.633883631399555419e-02,5.898943038706894702e-03,1.809144985113021048e-02,-1.950379091272407082e-03,-1.334358579110127285e-02,6.829213706163152903e-03,4.537017730776355187e-03,-3.811646195208850084e-03,4.079483626704205959e-03,6.410206412873420076e-05,-1.150217671137870185e-02,6.856177463289291237e-03,-5.047683741190548898e-03,-9.496888805197256297e-03,-2.363233910209901981e-03,1.568005002409382856e-02,1.962369646323447805e-02,1.400136834357269822e-02,-4.950024225737852807e-03,-1.027169075618123741e-02,3.439427240421271108e-03,-1.620033550605458686e-03,1.390325268017128220e-03,-1.130404090338315258e-02,-8.862191251508664755e-03,-1.075892273863699421e-02,7.727037398279535188e-03,1.062319313689808441e-02,-6.826236006876765065e-03,5.826138312017708348e-03,6.415400191927079186e-03,-7.399318698030295238e-03,9.876068981459672973e-05,8.134336738755576501e-03,-1.014662683071771571e-02,1.246281732308157815e-02,-2.061702519020429825e-03,5.936759463430177266e-04
-2.443491099723452912e-03,-1.481771547063709220e-02,3.390374800399403258e-03,-6.827494162580527307e-05,-4.101367417226663668e-03,-2.199421665067476800e-03,4.173092232865911223e-03,-1.474170841741132216e-03,-5.302427526239428084e-03,8.043039884739026923e-04,7.541609727420259777e-03,3.592528245511326219e-04,-7.961813948338929831e-03,8.308785343568844337e-03,-2.964085712030862206e-03,5.853600987059864869e-03,-1.459644109400860942e-03,-9.442982757017118201e-03,-1.275112553882760784e-02,-9.005003138910339100e-03,-2.341409991297306419e-03,-2.252685281752235535e-02,3.830085798670763639e-03,1.099608626147803754e-02,-2.421620155632102887e-03,-1.109508000880799795e-02,-1.666977127880694617e-02,2.253178022099839965e-03,4.119756892351083243e-03,5.758565058515076242e-04,6.963611506758581038e-03,-6.724204209366767965e-03,-2.525458822395314998e-03,2.757510901775245965e-03,-2.260315634018828478e-03,4.872002399683156640e-03,4.955883953461740453e-03,-2.718211263264425775e-03,-9.639652133297857417e-03,-7.243774094634233308e-03,1.095542259255836461e-02,-1.204167968908614016e-02,5.973095330143844434e-04,-9.963251548243026723e-03,2.307115280692177001e-02,-6.345411501215028269e-03,6.337108090100409923e-03,-9.684997585825510374e-03,3.191901246645405255e-02,-1.336226865919231364e-02,3.564358186661671039e-03,-1.253064696893083432e-02,8.192068337097612243e-03,-1.255812215176684704e-02,-4.435114624929644041e-03,-1.595134398858723615e-02,-3.977057560857358808e-03,6.286841107976548340e-06,1.741224556973974130e-02,-2.303032819505382647e-02,5.449118010407394755e-03,4.193095104817933178e-04,-6.089141957968918772e-03,-2.121941382262674224e-03,3.906985174773878501e-03,-3.752029825330489973e-04,-4.405142774631795794e-04,-7.806163907248542429e-03,-4.010268944427705304e-03,4.839824636164124366e-03,-9.224436286691494249e-03,-5.189746852082141246e-03,7.342828161515076515e-04,3.259685529533513839e-03,3.859980755119818505e-03,-2.019887443790892214e-03,-2.034451229782968315e-02,7.614850785178312390e-03,1.001471330051861147e-02,1.194510162936652208e-02,3.394597716251989208e-03,8.433930074515679290e-03,-2.971747840684916490e-03,-1.114311471294797927e-02,-1.753307787585599341e-03,-2.496925913709022171e-03,9.916602889207575683e-03,7.929907179932502853e-03,-5.226550900242120379e-03,-4.290122633501381073e-03,-5.286473940042335723e-04,6.299267544879088351e-04,1.404529746383568686e-02,-5.015124848500528663e-03,1.272244625755640339e-02,-1.401853127154377779e-02,-6.932255980090162688e-03,1.647875171361035812e-02,3.732269807426581622e-03,8.193179303476481662e-04,5.687255935861036671e-03,-2.344826681245928100e-03,3.511023762508967585e-04,1.967852699696976976e-03,1.977499136791198344e-03,3.368361362314051862e-03,-5.976572586264364620e-03,3.379366099620421254e-03,-7.300281177056470658e-03,5.600220584972860453e-03,-1.881453897482698997e-03,2.259610766238013581e-03,2.555419678588695832e-03,-7.585115225390326975e-03,-5.537965268617788331e-03,-1.641290231320955556e-03,4.248010428031258855e-03,9.135054835995078809e-03,-7.424105148695633134e-04,-6.988224523750898899e-03,2.181957725659193319e-03,-4.193042798157118429e-04,7.290590474474037755e-03,1.178595476380810657e-02,1.915678882122330215e-02,-1.660404840782050973e-02,-4.929852568511962525e-03,-9.608245650973350161e-04
7.536579293753192625e-03,6.496361781879872455e-03,3.593418000341157248e-04,7.416140465388659786e-03,-5.686951372765738401e-03,-3.845333345388756915e-03,2.777218169066037346e-03,-1.080675274210254194e-02,1.538735993927203838e-02,-8.079649866116945037e-03,-1.143800830896801561e-02,2.966951356680644445e-03,-1.920747727100344596e-02,-4.472837178981524386e-03,-1.853062109836571851e-03,1.253567254235396847e-02,3.009431188556573739e-02,1.516470922636853000e-03,-1.298238354467521997e-02,2.410372069264069342e-03,6.429542438251072481e-03,-9.317137468665751682e-03,3.263307502618374885e-03,1.552334615113472663e-02,4.712998932992130963e-03,-7.941500574453586037e-03,-5.686120029765695354e-03,-1.643542811389614791e-02,-4.469042705050400334e-03,-5.902246024719147617e-03,1.363825289741841564e-02,-1.552757832827715220e-02,-1.580069522687661474e-02,1.742836805564795203e-03,5.710335188840953702e-03,-5.609986006931457110e-03,1.751407223417780551e-03,6.463503243614719326e-03,7.168814293888305100e-03,3.482806084386236463e-03,5.209562683099942110e-03,-1.551460252526560592e-02,7.783658777042087515e-03,1.226833062037335428e-03,-8.369324548151991713e-03,-4.074564233668153540e-03,-3.060691197309398353e-03,-5.591331870280085575e-03,-1.797365958711876150e-03,-4.037484228471368598e-03,-1.460153974462838865e-02,2.120782820890724368e-02,3.615065166711152900e-03,2.181731186753018900e-02,-2.927093780334355695e-03,1.584935975631472649e-02,-1.469431876488151364e-03,1.539413387561216172e-02,8.998890940029004998e-03,7.402516839885996298e-03,-1.932039702854016503e-03,2.019977883363496124e-03,1.311306084309850351e-02,-2.000076695810400901e-02,-6.981645831332934649e-03,-1.256572818413832955e-02,-9.266079955422619474e-03,6.003103941040154740e-03,8.178505918529546670e-03,-2.093718438658945594e-03,1.113416227179384217e-02,-7.432973334218372433e-03,-6.044583415956847165e-03,1.158171434003054572e-03,3.927231631058914103e-03,-1.375385295061497390e-03,-1.071334216499041612e-02,5.587127202999242308e-03,1.689881275226349372e-02,-3.789877882091446850e-03,2.050511889665099599e-04,-1.110492558895385083e-02,-8.720589985642384766e-05,-9.155590629051245030e-03,1.670486884890667358e-03,1.541287882440839883e-02,5.178361568743583727e-03,-7.253153530750016016e-03,7.988103091840111775e-03,-1.721529516597879172e-02,1.200238852215147582e-02,2.964903844193803040e-03,-1.064403056508254723e-02,-3.282444927605922443e-03,-9.108697746931265771e-03,1.982163334436295998e-02,5.611641980874247822e-03,-1.011074750084156593e-02,-6.771006703271639261e-03,1.482274359056160026e-03,-5.780891487590650822e-03,2.236902849466473105e-03,3.665931977064946189e-03,-1.454459816884294369e-02,5.998484606539068210e-03,1.656869236378256602e-02,3.063363038002545492e-03,6.079534369773959002e-03,-5.227418529090509421e-03,-5.179123826899710917e-03,2.916135039969489778e-03,-8.871972678804492321e-03,-1.616535403349743730e-02,8.121538529019011951e-03,-6.562988432859330479e-03,2.037184730407734772e-03,1.005974098500913129e-03,3.941610453454233269e-03,5.830536763685568655e-03,5.115273252763908804e-03,-3.028474121346412268e-03,7.999706684814757510e-03,-3.703693820621220805e-03,3.415220105856911405e-03,-6.309632677088037461e-03,6.960731156306942165e-04,-8.600960913932835170e-03,1.371320471991004791e-02
3.117159643596098713e-03,-7.410513723690458771e-03,-1.794632567261103193e-02,-7.348058747212511677e-03,1.284566053533696926e-02,-6.545758651759813265e-03,9.603222079687327717e-03,-2.322485320299149184e-03,-3.468233347647820507e-03,-1.065816290207880802e-02,2.645786741203250483e-03,1.004944150493783210e-02,7.522701654178004863e-03,4.967969781631212910e-03,-1.057505130802470147e-02,7.043388412221010834e-04,-1.164526799498705883e-02,-8.760992440237211701e-03,3.345956986031069051e-03,-1.094166546835806386e-02,4.451268815050718301e-03,-3.522658994369557307e-03,1.386990112418569343e-02,-2.059043873500599094e-03,4.364716598079160237e-03,9.435375655473877618e-03,5.191055570821175025e-03,5.719241557150861813e-03,-1.787706035213935951e-02,8.203710362909346146e-03,-1.677021410377343633e-02,-7.490261638174769768e-03,-2.514378710997789215e-02,-4.151419697731788087e-03,-7.521332561837655757e-03,-3.245178909872563182e-03,-1.064510651678409262e-02,-2.558278227446522321e-03,-8.138258149486453374e-03,-2.822963004891343355e-03,7.282368331537582978e-03,-2.255939498457608383e-02,-1.406289072448084010e-03,-2.460877615550553007e-03,-1.635406433277316121e-02,-5.283529868133336402e-03,1.320966314357683094e-02,2.680117840883157031e-03,-6.558069632703147391e-03,6.356478884472018670e-03,2.644836040625872693e-03,-1.372074329185566342e-02,-4.577465927722373061e-03,-1.346206497966625799e-03,-7.672839496727195925e-04,2.518290463107146233e-03,-8.151416467552526730e-04,-3.989352168050060241e-04,-6.186938175159893000e-03,-4.545375030259944660e-03,-6.041318688756461969e-03,4.201629398418319297e-03,-2.025113823061865017e-03,-6.675082529730677443e-03,6.648573576048594745e-03,2.335437988523373504e-02,-2.211804259662531434e-03,1.187036418257300836e-02,-6.000982103995200663e-03,1.521567933348276632e-03,8.511838935027901329e-03,1.069322366795045533e-02,2.079376651236560652e-02,-5.124936334423107337e-03,5.384387755844741641e-04,1.330417578216601393e-02,1.279320505499781380e-02,-8.602168990603795487e-03,-1.418150871757735410e-04,9.983585209007867986e-03,1.218200420414967781e-02,-9.461686365396964823e-03,3.546706170530898594e-03,-2.216668325546834739e-02,1.013292871774316983e-02,1.757730823416282784e-02,-1.092666303612954692e-02,-2.182566565817696015e-03,-1.414578655763171905e-02,-4.584281857416574318e-03,5.429692440458064838e-03,5.850760439251593420e-03,4.052894562380804713e-03,-1.388168475346905628e-02,-8.412910231158969576e-03,1.865595498426184107e-02,2.313171165888778559e-03,-4.242508577490844944e-03,2.529241159081826052e-03,-5.786864172433068762e-03,1.654482697084460555e-03,-7.625585835505574277e-03,-6.724641467847848088e-03,-1.562627547294410946e-02,1.751496784849057575e-02,7.193346780121523572e-03,6.245540455224453565e-03,8.694210135895347885e-03,-1.234738463259282696e-03,-1.079583926502745810e-02,5.130650666733377330e-03,6.907420810383344684e-03,5.383936143118050154e-03,-3.891187913193624396e-03,-1.507075882211693189e-02,7.940094514719284527e-03,4.121461066519251787e-03,-5.674652003068350993e-04,-2.314190376842721348e-03,-1.262244841360575217e-03,-5.583164334164079055e-03,-1.467581422506006490e-02,-1.036489802177309417e-03,-4.285946531299668870e-03,3.215059284045003376e-03,-3.067098110738141186e-03,2.873168880922343914e-03,-1.201365837089056303e-02
4.539145844076185321e-03,2.068710881146116481e-02,-9.595827005433091826e-04,6.309715619528569533e-03,8.775118977236104692e-03,3.577469273589399187e-03,2.451419847320430220e-03,-1.553948349859446930e-02,-8.120165317339592473e-03,1.546338721947931524e-02,2.080030202854571755e-03,2.147595194729167659e-03,1.942955642923559906e-02,-1.706041063693210236e-02,1.055691565002621519e-02,6.550321305353255276e-03,-1.939629694966997497e-02,-6.276422872829440051e-03,4.291775716763235847e-03,-6.971483560059717893e-03,-7.592253416328627151e-03,6.104377612548615370e-03,-1.833573064522578703e-03,1.943358864583827122e-03,-1.570686006592748006e-03,1.384190175456867554e-03,3.072205894758770709e-03,2.213149573399743678e-02,4.092616610451587159e-03,-6.961141225146246815e-03,3.859793193243399832e-03,2.639192977172961311e-03,3.310680058247743307e-02,-1.416867416085496392e-02,6.966166609277528801e-03,2.646115127694300545e-03,1.534355460882222758e-02,-1.015692948758368901e-02,-1.226603048500885841e-02,3.563018155448221397e-03,8.416144443462650684e-03,4.442855624792826745e-03,6.367121527991919175e-03,-4.127848638792231718e-04,1.007235613904196303e-02,1.326603824314162919e-03,-4.998587790630314338e-03,1.471232302928768450e-02,-8.585360773188875985e-03,-1.598904901973276921e-02,-3.915838087264394973e-03,-1.344730127208596882e-03,-6.182993958949277316e-04,-2.966720094677628532e-03,3.777591698021911821e-03,-3.367716402342027082e-03,-8.661256069067167773e-03,1.400522477665143428e-02,-1.717262462083752987e-03,1.095427764546797605e-02,1.762184429398146136e-03,4.875778093681058453e-03,1.543876597254766753e-02,-1.852759330264444268e-02,1.128326738862537107e-02,6.699714702279542305e-04,8.743281644668291289e-03,-4.466666766104559344e-03,1.017655291922074011e-04,-1.513900758966204652e-03,-1.099412124489864556e-02,-6.168653545336215058e-04,1.810531661423241470e-02,1.273555790050989733e-02,1.404987871597744402e-02,-2.231006689547616276e-03,-1.731882010335036122e-03,-4.395851857580637678e-03,-2.053447105525728344e-02,-2.380148799264840409e-03,-7.441938625676129335e-03,8.750106534750496171e-03,9.328418955880726782e-03,4.397763816548951564e-03,-8.888065437171266750e-03,-5.906779524359779578e-03,1.344860476233612073e-02,3.276310795968568560e-03,1.010205183797097117e-02,-4.427352374938638147e-03,9.690051889409821706e-03,-3.206911770941735587e-03,-4.806853755889943340e-03,2.746999568249692495e-03,-7.193488191516558307e-03,-1.145355433765489483e-02,1.364327890246920007e-02,6.977738758177617732e-03,-4.687564728012438495e-03,-1.727162237704334483e-04,1.134875769596897441e-02,-5.089245371622010128e-03,-2.414968693539693359e-02,2.267273904266910167e-02,-1.468958023841187427e-02,-4.559447523660215343e-03,-2.191907982802990262e-02,-2.200021988551380259e-02,3.275437242416134875e-03,-1.311168094699821825e-02,6.330827101716542983e-03,-1.591265651859938117e-03,-1.660708804974079036e-03,6.153042125339240782e-03,6.519162877771204033e-03,1.359294367922594601e-02,-1.382588414850551700e-02,-7.463189898492898419e-03,6.727652589278551934e-03,7.667442943927491733e-03,-5.367438693462066833e-03,-1.232539143183550463e-02,2.887410564692375356e-05,-2.996761604762725184e-02,-1.678709744049512731e-02,1.121886598823065503e-02,-1.291149046661542975e-02,2.040917753735561543e-02
1.141072445581912433e-03,2.672480909042766056e-03,2.695427364219117952e-02,8.978396819896863543e-03,-3.197458420487430709e-03,-5.571145970042049728e-03,-6.458328905850751339e-03,-2.066901899582242186e-02,3.669680979623962062e-03,2.071408342287196043e-04,-6.928982670024281046e-03,8.694001766984644011e-03,-6.104496082250213639e-03,-1.770912134904024590e-02,-1.118160958952438624e-02,-7.047705088012013288e-04,2.936577705080809387e-03,1.843956647000712795e-02,-4.265708038378801872e-03,4.885403874629819926e-03,9.851679904432314103e-03,5.681603186557863255e-03,2.622053859838584938e-03,-1.168307856130446770e-02,-4.273509357793124110e-03,2.131246487834625308e-02,1.401541719441677094e-03,-7.139352192301932042e-04,-1.200077114868792864e-02,2.145271208528983821e-03,1.689428671876146842e-02,-6.319624765009827436e-03,-9.575590833417593761e-03,-1.034764409753279567e-03,-5.374937198952092418e-03,-7.007813354350887064e-03,2.115465177199709126e-02,7.267873243347864644e-03,-1.476744081460065403e-02,-1.218521202443727768e-03,8.581994279389127192e-03,-3.622559877193491044e-03,7.459047874847915365e-03,-1.199818146060458932e-02,4.554298609847236105e-03,-1.148945279680479688e-03,4.973849443987508889e-03,-1.260660328527833879e-03,-7.260322718107799396e-03,3.268172000933489574e-03,3.921728442887170707e-03,5.787609930063825417e-03,-1.432872735110969978e-02,-5.681156311061009122e-03,-2.943232437104846295e-03,-3.518269779648862047e-03,-4.371325650560525279e-03,1.767152112702768041e-04,1.286020756777508586e-02,1.647944633416590504e-02,1.091708630216938272e-02,4.741608531265325589e-03,-3.326870107456544878e-02,-7.220667003612804558e-03,4.667920243948707471e-03,-9.869604662956988489e-03,1.049925732650230231e-02,-7.335198140979545117e-03,8.754734320813405265e-04,-5.048424869909438027e-03,1.957829935629885540e-03,-1.507040255103598257e-02,-3.753932031921456986e-03,-9.231358979997108041e-03,-1.164811325886756267e-02,-1.702445681264011176e-02,9.092829373790172615e-03,-1.182105365806281408e-02,6.414681291744371919e-03,-2.190380774153697762e-03,3.766471104401355584e-03,-1.029182554987810279e-03,-1.400295521931217832e-03,-1.352677522042199793e-02,2.551138120939901513e-02,9.440898470276862242e-03,8.875887934002105531e-03,-2.311148322320078982e-02,-7.850461305244338037e-03,-8.346646751361354311e-03,7.664890187437151028e-04,-7.947238303775586848e-03,5.140290983076822688e-03,-1.226202825490564055e-04,6.816039715865458357e-03,1.006493218922728701e-02,-9.420346118619211256e-03,-7.334250664653087400e-03,-1.035249709357607267e-02,7.085275332028773652e-03,-2.186178796445399208e-03,-5.557801447058142476e-03,-1.390487168905245319e-02,2.360184113142425530e-03,-1.415233736460253574e-03,-1.185572817608236673e-04,-4.796142548275826416e-03,-1.562007611138381720e-02,1.129848410963462876e-02,-1.177585687630813708e-03,1.318332028441092114e-03,-8.595581736818899005e-03,1.209220750817961536e-02,-9.437258828246980133e-03,-5.876793462024393518e-03,-1.002616545711774824e-02,-1.222778908039116007e-02,6.459432047885942801e-03,-5.829301056127937641e-03,-1.151447686112506454e-02,-2.842616539178867852e-03,-4.123552363859213539e-03,-8.723644703972060349e-04,-6.980669395636351915e-03,1.150662470456918210e-03,-1.769096544630871515e-02,-1.029072084616726793e-02,5.879295951455560700e-03
7.154576049824900447e-03,-1.892635233518123739e-02,2.523082246772736202e-03,-1.573092273676839764e-03,1.024996136184613132e-02,-1.164260186619194178e-02,2.645227553666602144e-03,7.258623263177081328e-03,-1.474563666027191300e-02,-7.711032411311423765e-03,8.205599751828530908e-03,-3.378536925278026199e-03,7.778651530672539040e-03,5.570279183586542915e-04,-1.478163490211964470e-02,-2.111159926847773835e-05,2.810481518633767533e-03,-6.590164036983174253e-03,9.171239278462597899e-03,-1.413960547641003943e-02,-1.565522624422006036e-03,-4.221781468973166696e-03,-9.115196178246695938e-03,-1.550036032620098238e-02,-2.120773336090957945e-02,-1.321612041865104052e-02,-2.788853677793850551e-03,-6.758485051730068853e-03,-2.526682067187498333e-03,-3.284246210687021862e-03,-5.623108097584534129e-03,1.179135825137497384e-03,7.386377969874373915e-03,-1.587295576479941933e-02,1.532001161162044930e-03,-1.733669321862532642e-02,2.083059310259525662e-02,-1.019133130682264680e-02,-4.841303411530430319e-03,7.653969495379637535e-03,3.183207337797094513e-03,8.324431655559804549e-03,1.314474927410242723e-02,-3.909983245839343362e-03,1.869798613623055439e-02,-7.293826363055097052e-03,-3.734208743036909056e-03,7.856587794645186404e-03,-2.413138341736327172e-02,-7.127046039164141276e-03,-2.987258432131629105e-03,7.380170766446099428e-03,-7.817992230365201911e-03,7.690273959022607062e-03,-1.112589054867236908e-02,8.974599734817971866e-03,6.873360549029547753e-03,-5.743125958378433003e-03,-3.512009548505446322e-03,-2.582670818157812784e-03,-4.496731483918322420e-03,-6.388247795057341687e-03,1.282365153841301744e-02,3.491576272822004279e-03,3.805488600210807804e-03,-1.602314243335623001e-02,-9.725292005031594030e-04,1.020011656084406429e-02,5.788055045426294086e-04,-5.867679005854531914e-03,-1.620195106540358405e-03,7.345189188944968410e-03,-2.349302409700029706e-03,-2.169850303806108993e-02,-8.261013573945827707e-03,7.942432725440273095e-04,-1.616175601888731814e-02,-6.482199198548609098e-04,3.992663236860985281e-03,2.146890366870420758e-02,1.386576670310187345e-02,3.207754132797408213e-03,-1.828355381561928145e-02,2.262723839330584973e-03,-1.507732377806579940e-02,-1.109932975598040134e-02,1.042805041373224585e-02,-8.421046445027195390e-03,6.068399112654835476e-03,1.330749244748539789e-03,8.650573861560133943e-03,-2.439799882689683373e-03,-2.093757072790705231e-03,1.473343647120258643e-02,6.432562778856690255e-03,3.144437342194759000e-03,-3.154737290361876267e-04,5.218069706284418630e-03,-1.463946421000038908e-03,5.733429085084808079e-03,-1.247497242616342136e-03,-1.729950212567514176e-02,-1.689387759500298597e-02,-6.939470371707050222e-03,1.971356586622515297e-02,1.358822007307176893e-02,-4.124186611837808887e-03,-8.204986696390059384e-03,-5.156217279751632715e-03,-2.375643932857573939e-03,1.194370790478079675e-02,-5.877576212107440794e-03,-1.504833960119386638e-02,-5.264659224499768260e-03,-1.227086222777902698e-02,1.488180592888767133e-02,-1.669738388926881624e-03,7.909309473257273215e-04,-6.567238193428915011e-04,-1.960490416169095168e-02,2.243671540790051662e-03,4.722598008931187981e-03,-4.262001350496605334e-03,3.393480843916682130e-03,-3.632245181488532627e-03,-1.208382756290028032e-03,7.818907330549651827e-03,-4.188408718328556594e-03
4.924855003539733295e-03,7.127987089431422028e-04,-9.271484782550704551e-05,-5.166283932207258248e-03,-7.250137622370369898e-03,-6.171960493082104867e-05,1.183386617227804270e-02,3.747565704699509694e-03,1.199908673729960761e-02,1.995095562016490861e-04,-1.576147581961121272e-02,1.180488135016807480e-02,-5.354525598450708647e-04,1.104275941043664049e-02,7.565580930299501197e-03,8.490184738110997248e-03,4.563058707917697597e-03,-2.953755549319091178e-02,8.375028909877476821e-03,2.904071696787565403e-03,7.614484031257602765e-03,9.022563907993439922e-03,3.318439377124836852e-03,6.629511195583497572e-03,-1.445675070300295705e-02,1.085334742317222313e-03,7.186772841208693974e-03,6.600005135614801441e-03,-8.750527993011221126e-03,-1.832358468768948909e-02,-5.997452328296793735e-03,4.651067274983723774e-04,2.748664205233324748e-03,1.635451673194219385e-02,1.239563812469448613e-02,-7.395463507425820669e-03,6.313191638631964267e-03,-4.109089835232744743e-03,7.932018472522254712e-03,-6.717748908653099760e-03,1.295597549318106521e-02,-5.528066779357410955e-03,-3.583724771832252996e-03,-9.200805910869497284e-03,8.166671297679959154e-03,6.582241046574615218e-04,4.276410383578448104e-03,7.451406218303777661e-03,-8.385124432042234330e-03,1.658152631250706457e-02,7.713477414802735396e-03,2.341568736602126118e-03,2.027092331455067459e-05,-2.542334125658012468e-03,-5.284758960162087502e-03,9.225123204394060708e-03,1.955723154441100457e-03,-1.822508239430638266e-04,-5.529905128097971356e-03,1.724402020460948787e-03,2.041297520388550557e-02,4.637542682698725383e-03,-1.979875270122981312e-02,-2.299471470158150760e-02,7.138348560810322749e-03,-1.369921920076707690e-02,2.900083220709500503e-03,6.242756806497424746e-03,6.959934052009417692e-03,1.986075079306858643e-02,-3.949328303788099057e-03,2.290348737434229776e-03,-5.924538899305490346e-03,-1.289933415675657315e-02,-7.684698404211073690e-03,1.458999466732806283e-02,1.469479051946883177e-02,-8.039877698800181743e-03,8.144972376414035681e-03,-1.636833202333073771e-03,9.054183652067983312e-03,-8.748579739212775444e-03,3.251211053455814372e-03,1.542581306094326652e-03,-8.619030767263027165e-03,-5.459057400997855379e-03,-4.831599400528999513e-03,3.115820320066651399e-04,1.683743841340059819e-02,1.614658950185133071e-02,1.624625627593814792e-02,6.257234597404121371e-03,9.923589852495763239e-03,-9.626985348190959801e-03,8.616922327309526220e-04,1.140722097486524672e-02,3.889837336810547923e-03,-6.269270273881417943e-03,5.168956740966380858e-03,2.506243198320681070e-03,2.174299843725405711e-03,-5.036246822749436587e-03,7.073605400310748262e-03,-1.242741445575821146e-03,-7.302430081456785273e-03,2.935944458552448627e-04,6.114363749740032473e-03,1.391156156666778498e-02,1.186971462011448923e-02,-1.720904987492113611e-02,1.099974514715843128e-02,6.126774913655502579e-03,5.173757728114553207e-03,1.433878293754361002e-02,1.734058544386189032e-02,7.148573383644334263e-03,-5.614307498601653042e-04,-4.812960413967444333e-03,2.854414379799829603e-03,4.600088965349934111e-03,-6.165868189113164061e-03,1.807652965328253314e-02,1.619806689283443887e-02,9.532628819797685921e-03,1.993966296842994423e-02,9.833202317009447427e-03,-2.730227457759754148e-03,9.904917239451754493e-03
2.114702985741713503e-02,-1.411077430902134885e-03,-1.182878395473364180e-02,1.064310884178302531e-02,-1.622344232644539613e-02,-9.276791698587647308e-03,4.455391978697364856e-03,-3.239234479319593255e-03,1.804312096409801947e-02,9.639631454873349341e-04,7.201440605907986035e-03,1.195715706841815260e-02,1.333293779443097890e-03,5.982170032268327095e-03,-1.729980568817707579e-02,2.111304121485037266e-02,1.670130982341255788e-03,-1.880909406687447660e-03,-5.583869755155961186e-03,2.720898789132207302e-03,-5.377433879826417490e-03,2.632267647166763522e-03,-6.035120407742820998e-03,-1.393252182557349131e-02,-7.351391282651401071e-03,-7.956810808045762171e-03,4.020792719753201946e-03,1.483423087062661324e-03,-4.950256549464159168e-03,3.375147133185462008e-03,-6.174507104886462448e-03,-3.437988246120590599e-04,-2.791451125311983361e-03,4.177023406860504683e-03,-8.721049422838725654e-03,-1.464549418119204510e-03,-3.088032588239982218e-04,-1.091572043343166758e-02,5.152758336580002055e-04,-4.292691757455589742e-04,9.207037064848605165e-03,-1.101211477993490478e-02,-1.453980807327012043e-02,-1.611942488438987062e-02,2.137219341700014302e-03,-5.333421021093551033e-03,-9.887780554718384601e-03,2.363914468587996042e-03,8.569822222543800605e-03,1.878471714671937215e-02,1.234981912894539575e-02,-6.449557346942084296e-03,1.446450457401155486e-02,-7.453330803682456721e-03,4.182664107878548976e-03,7.710179933494973326e-03,-1.468821891281689267e-02,1.329240551865069897e-03,9.728560854422149597e-04,2.178748510352689072e-02,-6.037002254979723613e-03,7.553370678349402914e-03,-1.732128572024942484e-03,8.409491004979613134e-04,-9.289489458270887984e-03,9.800308385879186873e-03,1.245237175776710628e-02,1.187413749007249809e-02,-1.699491768411691764e-02,-1.853288865088256396e-02,-7.348654733880948019e-04,1.127393918897941043e-02,8.027636900891059121e-03,-2.571925840872741308e-03,-6.884510708320924419e-03,1.675608296603016065e-02,1.418627752481705327e-02,-7.302003834918544510e-03,-6.445267278110940277e-04,-9.365429061659635065e-04,2.075227329707021728e-02,7.062456161057029634e-03,1.123272295142761779e-02,-8.743640966633188863e-03,2.776809637570159736e-03,-1.050503036265467349e-03,1.500007647173644786e-03,4.087998942797493526e-03,-6.997780868904458686e-04,-1.054239633785357400e-02,1.162660406749338980e-02,-9.380593536935061955e-03,-7.894150106843699638e-03,-1.835685725251711906e-02,3.526127375381901772e-03,1.256230990020653455e-03,-6.574168963717283952e-03,-8.679914774692425172e-03,1.684226889857822450e-03,-2.952388237498023218e-03,-1.025428668458554932e-02,4.530530755810564802e-03,9.058446563649329847e-03,3.659411467042361817e-03,8.469122180423198018e-03,2.444318322433071573e-03,1.546263523213117254e-02,9.097835730208302107e-03,-3.307946222355768323e-03,1.101841029790573065e-02,3.659589834482303121e-03,-5.025018078206890636e-03,-6.634187459539974373e-03,-2.828870722619013928e-03,-1.944605779980170326e-02,-7.495105312683328184e-03,-4.831225489987349929e-03,-1.533080252503344308e-02,-8.614432555807731429e-03,-9.800781676502260190e-03,-1.529383092221329142e-02,-1.347610758632970850e-03,2.091608264966229088e-03,3.446508320008463341e-03,1.138761058416332128e-02,-1.725362519367235883e-03,-4.757621933904036642e-03,5.114477161224931169e-05
1.247594932350162313e-02,1.586802221179933747e-02,-5.542106208413962939e-03,4.027438375738606399e-03,-1.511775810423236907e-03,5.753254857955392675e-03,-2.431169190588579332e-02,-4.197910957914158595e-03,-1.866306014400729435e-02,-3.136547096243239019e-02,3.796281851602372696e-03,-9.189602855071261900e-03,1.286028352333202368e-02,7.882924011192128308e-03,1.262143040931181827e-02,8.239942115373212819e-03,-4.593545672163018914e-03,3.772807592491062706e-03,-1.507499527216914041e-02,-1.203563609968116149e-02,5.000229613119414745e-03,1.787898250700523106e-02,2.186157583670990650e-03,-1.124955621645625653e-02,-7.130824689512471658e-04,6.064588760560981479e-03,1.029574039068573491e-02,1.565631729957079644e-03,1.734762684843795325e-02,1.088770633258031445e-02,4.090766064869274035e-03,-3.428127042633284053e-03,2.415256779380844931e-02,-4.279433403304046431e-03,-2.998337452003345133e-03,-9.071831801201446152e-03,2.615043360621870528e-03,-1.742384685681476475e-02,5.501380162343950074e-03,-1.625223498920257831e-02,6.513936526541641570e-03,-1.458137748662453360e-02,-1.303005078988824991e-02,-7.922711865153536301e-03,1.527102593317841922e-03,-2.703083358180528428e-03,-1.042158732795685910e-02,-2.265238257290055294e-03,5.346819563222973519e-03,-1.845194564294981229e-02,1.237278971993011241e-02,-5.916747073046554244e-04,-2.699605524525161213e-02,1.217775415630642901e-03,-2.347889463142967693e-03,-4.903823798721254797e-03,-3.755203719280110226e-03,-4.559007725513483829e-03,7.357206968150061671e-03,1.732255097439618693e-03,5.987276102207600599e-03,-2.356335329499561083e-03,1.285845839224111949e-02,-1.671111593957777357e-03,5.866493975300479669e-03,-1.688598493344608794e-03,-1.474066472546154772e-03,8.930303125722807711e-03,8.452918159978792603e-03,6.355604763569161183e-04,1.325009074582250354e-03,-3.459924212349104952e-03,6.545867855963978001e-03,3.661359141430558552e-03,8.619611480074375331e-03,2.240291502887270178e-03,1.060529637375412482e-04,8.685132222180660944e-03,-1.218527639986870421e-03,7.562215649647351275e-03,1.039921035498849074e-02,1.480849049249090103e-02,2.059254572166358509e-03,3.114358782865486210e-03,9.404528004806799596e-03,1.756416253160447260e-03,6.067012784369126173e-03,2.052196421565402867e-03,2.093669794550067655e-04,-6.397207550073490470e-03,2.272571288045195908e-03,6.530454138210415108e-03,3.394738038002372959e-03,-1.550260911677629793e-03,3.371388590047616138e-03,1.580544617132591950e-02,9.394811506203532524e-04,-5.197810473397354927e-03,1.759853010741830107e-02,-3.645088689176065495e-03,1.600010307111728036e-02,6.727621234626331853e-03,-1.198422600634698777e-02,-3.601378707729675777e-04,-7.208161561784814887e-04,-8.293439011215343430e-04,-1.046964613654863523e-03,8.100935448602632552e-03,5.165256039053720341e-03,1.524982274569788507e-02,-4.192714312489078722e-04,1.025473010161874433e-03,8.465337771922059121e-03,1.126353337859266899e-03,-2.139515326421121289e-03,5.264218016253862167e-03,-7.711618724972740639e-03,-9.076015739932634038e-03,-2.594971631094514924e-03,7.307109497601691622e-03,1.020135187589562079e-02,-7.779077048882135012e-03,-3.369176270928261798e-03,5.242322619939247287e-03,4.393949777268165921e-03,-6.172017250584507266e-03,1.045542088621558008e-02,-1.059318356423695744e-03
7.072124557135242399e-04,-4.649583069655971630e-03,1.249255785868318147e-02,1.206811074593179892e-02,-6.908564487425248018e-04,1.369907414548771941e-02,1.153888640633325691e-02,8.322504435618043039e-03,1.293975735633125538e-03,9.988640384294861577e-03,-4.880817215358618059e-03,-3.410487121891186621e-03,-1.057470241664204081e-03,7.079826240633836643e-03,1.394689924871851672e-02,-1.682158879791837910e-02,2.143916637487371264e-04,-6.190830315942412454e-03,5.829451247478423422e-03,-1.211358544381947906e-02,1.829619843159318443e-02,-4.436200433470193286e-03,1.481768805299106539e-02,-1.128919460916270011e-02,5.880527122197774445e-03,1.692043528191444421e-02,1.344567225676591461e-02,-1.023720039632125198e-02,-1.064192715572548006e-02,-1.454371608822594385e-02,5.234771681567552438e-03,-1.396659844373089945e-02,1.878754952654692473e-02,8.655035792460324950e-03,1.516868035677691913e-02,-4.031206370175203710e-03,-1.159375278879581569e-03,1.008171366902452844e-03,-1.304144210263244626e-02,-1.302717110470467780e-02,2.062619350112590740e-03,-3.289758041012909046e-03,-8.748619876115617026e-05,-1.111665106999287604e-02,6.412577066870195179e-03,1.376306660505988849e-02,4.242820931526666145e-03,-4.453179221295266652e-03,8.472450567418129269e-03,8.493220919755092510e-03,2.879183791563242039e-03,-8.782484297956586611e-03,-1.891001929933873796e-02,1.841681860587241273e-02,4.991830749378770894e-03,-3.347492234112045811e-03,-6.742686968003342753e-03,-2.308139906196096311e-02,1.058262142645301392e-02,-6.561174453962810614e-04,3.039708780894958412e-03,-1.014365263353253846e-03,-6.447816076727873932e-04,5.288564500290300445e-03,-1.293096970983121340e-02,-6.434262061032554499e-03,5.370098417621622412e-03,1.143934037172135258e-02,4.010544283529252595e-03,5.065937120234399217e-03,-8.653134150546411968e-03,-6.407201669966155859e-03,2.815197111220189494e-03,1.407402296916761882e-03,-1.729433697488328434e-03,7.623064760046013519e-05,-1.584099675775678395e-02,-1.554796632905123578e-02,6.435590726243098358e-03,3.033590862521998339e-04,-7.797647276049968039e-03,3.001735065213527454e-03,3.491876932373554759e-02,-6.090396042476499405e-03,3.941650444547587645e-03,-4.292914144838100602e-04,-5.553133749296754879e-03,-7.547031785990202662e-03,1.101647965935215710e-02,-5.204257011192521196e-03,-1.744326625359928634e-02,1.767299682929109397e-02,-6.360438574731733068e-03,7.612641183232343213e-03,2.814329139034355606e-03,-3.228517531735928918e-03,1.724990722366995244e-02,-9.323341460937668856e-03,2.964832245292227213e-03,4.509377142746514439e-03,-1.473013627033580367e-02,-8.305014340935890083e-03,8.252150962703163478e-03,2.033335443318388253e-02,6.725228617680593934e-03,-2.333543400252435784e-02,1.111227534420416302e-02,-1.644503271372106668e-02,-9.012799579570560105e-03,-3.411016055943263264e-04,1.799223418750269671e-03,-1.573492549531987309e-03,-2.725763168562325960e-03,2.386156975201542130e-02,-1.467107023282228535e-02,2.793732039081705046e-03,1.055255327624643989e-02,6.992220195515567657e-03,-1.649375415275845455e-02,1.383211110740485000e-02,1.327412074115905290e-02,-8.406100806872420991e-03,-6.791718936557800471e-03,1.365129345857499579e-02,1.804127587828894923e-03,-1.013976812570165607e-02,4.925818795484299302e-03,-8.364202117107135889e-03
-1.058988333352546898e-02,-2.131635103344861615e-02,3.682817415694436460e-03,-8.282957118443162042e-03,-9.914888438684559338e-03,-4.952102329253799465e-03,7.711926988883050123e-03,-1.147769520027982571e-03,8.954735239894113380e-03,-1.310708557974663490e-03,1.127468751853366417e-02,1.677682600435300569e-02,-1.087188199486148493e-04,-7.184258478087501452e-04,-1.672089929509620876e-02,-5.494418140715733381e-03,1.714183809580416620e-02,7.143196701109434492e-03,-1.645415791371514919e-02,-1.032284905690827523e-02,-6.517718733535462876e-03,3.164943964786299927e-04,6.416729945793144462e-04,-5.328332294124573732e-04,3.882783230541194969e-03,-1.739642187288117047e-04,-6.172073755801386896e-03,2.135885598322616406e-03,-2.676026746805580669e-02,-9.621574161123021968e-03,-1.687253260115846934e-03,6.077470390616394880e-03,5.714511982993210511e-03,1.277992734879765564e-02,1.165427389065191131e-02,2.020272650178805800e-03,1.396752397249029481e-03,5.409147883562765054e-03,-5.214456462963479311e-03,-4.615045542858247848e-03,2.003742185828376755e-03,-1.110986859382506742e-02,1.765815652388909611e-03,2.491150853730816645e-03,1.433578509547188060e-02,-1.258666044613713716e-02,-6.201687431862615112e-03,1.202307399081910949e-02,-6.128534243352776884e-03,2.882408607384770883e-03,-7.411117163873594434e-03,1.288477234936456425e-02,-1.357076243857597599e-02,-5.510233400249998741e-03,-8.271417452292898972e-03,1.200560366989930627e-02,8.028126689102448726e-04,-1.813998100035963887e-02,1.636687373677564103e-02,-1.543768338015905073e-02,1.904261760571334620e-03,8.685418462324231287e-03,-5.909130582197540463e-03,-7.608194223043005487e-03,-1.365282874432205071e-02,-1.671546487311676224e-02,2.519570400210500993e-02,1.019038297910234911e-02,1.220943328500621698e-02,-1.797524444614470931e-02,-6.069889569510168378e-03,-1.445693273248032859e-02,7.150881719136149492e-03,1.775172146937447834e-02,-6.950125040015292868e-03,-8.003025135857528768e-03,1.351257865688044145e-02,-1.201219745995661323e-02,6.085755734644681010e-03,-5.684049783284878844e-03,7.244676689554119774e-03,-5.387387461719194554e-03,-1.620075517289728401e-02,1.586989939841997434e-03,-1.552278412178919459e-02,4.284356262262823886e-03,1.899948927351095829e-02,1.281464159569095478e-02,-1.418252707502508717e-02,-1.665908732861056535e-02,-2.629726554826243914e-02,-1.078356458737062158e-02,-1.557563438729946646e-02,-1.019860527940765274e-02,1.948588131104906848e-02,3.576715344903783327e-03,9.904644537647583347e-04,-7.182185797461270414e-03,1.157200084584613991e-03,5.039596951476248837e-03,1.383807210373628159e-03,8.713890843784231899e-03,9.496362397797259922e-03,-6.863149261311315280e-03,-1.087232881589277750e-02,1.318315207939117599e-02,-1.437884544912734243e-02,3.581955114909381871e-03,2.826154193975166217e-03,1.660978570614388833e-02,-7.396126432697752023e-03,-1.478159559889614082e-02,1.524872076554924238e-02,-8.838136097984462466e-03,-2.364899250077985918e-02,-1.330854246434545057e-02,-5.132040683942822772e-04,1.232890609347241095e-02,4.998387738924119778e-03,-1.058358152802990441e-03,-8.209228720230889523e-03,4.747301969442513023e-04,6.427799283063335457e-03,-7.994290713620842356e-03,2.288414117918446608e-03,1.739550347252086931e-02,-1.816107142498142374e-03,-2.776859214004014607e-03
-2.465492158660220062e-03,2.111958573366469038e-03,-6.470339445345587963e-03,8.899826362898783511e-03,4.499699852377459647e-03,7.237632594593142003e-03,-4.041191290268601223e-03,8.599634830819756839e-03,1.656308618660394874e-02,-2.076748242927777509e-03,-2.993059895356822708e-03,-5.630356708077441288e-04,-6.643036590367503748e-03,-2.871048692619712194e-03,1.170568252120184755e-02,3.005344804267401446e-03,-3.282029410572217393e-03,-4.322273818306215064e-03,-9.117246209966366199e-03,8.651619106523667641e-03,-8.761924563341278935e-03,1.655840803919453037e-04,7.046875519305873447e-04,-1.702955723158841236e-02,-2.740708463491871739e-03,4.084052450659575104e-03,-2.228426037498991430e-02,-1.357808278901010898e-02,-1.409114747180545185e-04,-3.497873880694724047e-03,3.267686672218159723e-03,1.084065923531732194e-02,-5.810387447803971612e-04,2.691537127523249261e-03,2.019625218373900279e-03,-2.236046531395550693e-02,-4.950008843955295071e-03,-2.669230686602266228e-03,8.609156764710895055e-03,-5.495690680522964493e-03,4.919366589971183555e-03,5.411059853754735492e-03,-1.323964037290384366e-02,-1.790701596089699921e-02,1.082497079297625210e-02,-8.428557324050097235e-03,1.004046942109182612e-02,5.458317421518084182e-04,6.650943843849740390e-03,-1.962604676302364543e-02,2.112714965135659845e-02,-2.807457106605722869e-02,-1.396775228728774562e-02,2.641188832437912047e-03,1.092516928211457149e-02,6.646015804780754099e-03,8.565535342767875704e-03,-1.105822822420114183e-02,3.715794901506154144e-03,1.344012386110713178e-02,-1.642127200952295599e-02,-1.153127011969055753e-02,2.013162607170463411e-03,1.398565859700187132e-02,7.228732781145771197e-03,-1.071723611366787697e-02,-5.673344421667272583e-03,-3.663499063650793586e-03,-1.546034724332226440e-02,2.040694737780113233e-02,-4.960206102366949976e-03,-6.131668118319032364e-03,-1.744968192185286301e-02,1.840741322868119298e-03,-7.954522140454678598e-04,1.240629619296457035e-02,8.625737778042015871e-03,-1.239074013975646326e-03,5.854764400083469975e-03,1.933681538775417277e-02,-7.322524941845360777e-03,-3.920500081588561801e-03,7.512151844515308277e-03,-5.947453010361162563e-03,4.753172586958060233e-03,-1.083593015656045440e-02,8.228397668612474555e-03,7.047717761242355827e-03,-5.854342913275612480e-03,-1.269940902942674754e-02,3.255273466050538373e-03,4.573687169336308322e-04,-1.366246257256037606e-02,1.020269240739287049e-02,-7.310625695880890521e-03,1.496711955896418665e-02,1.343316499274114020e-02,2.566371468834091792e-03,7.346150345718113067e-03,-1.433265099976879266e-02,1.783122563008237682e-04,5.686418054374049909e-03,-1.263974988974689642e-02,-1.459029353118253443e-02,1.590659885518190889e-02,4.026280723918794838e-03,1.424913337280990337e-02,1.001981201978189955e-02,-2.819268490635940330e-02,-1.122861241045370294e-02,-1.523209323075916475e-03,5.565354708309155256e-04,1.378749429193739870e-03,-6.750630208644234354e-03,-8.856219986121784734e-04,-1.015108689505118088e-02,1.286138252954233813e-02,-9.708001505006844459e-03,-5.777680072662703427e-03,8.917284897483080189e-03,-5.625891584207707435e-03,1.765442075796920269e-03,-9.055265601175291681e-03,-3.689372074291529641e-04,4.094552652345265047e-03,-1.529801767402114154e-02,-1.678562452744149225e-02,-1.167330018546317016e-02
8.260155634540104416e-03,5.470731992272473768e-03,8.330185890439177621e-03,1.491389715904426795e-02,-4.016881890485335567e-03,-7.274709324788166710e-03,-1.175105514816843959e-03,2.418469808969995073e-03,1.098886891676858699e-02,1.330498535581410872e-03,5.696497277120844520e-03,-5.929545920976907192e-03,-1.592815494379679064e-02,1.882159772756061139e-02,1.607995736786262510e-03,-3.587342124881808762e-03,1.410189732831647856e-03,2.266571328574092797e-02,-4.586678365365929634e-03,-4.366287535332805808e-03,-7.258412092266158799e-03,-3.923469818724058776e-03,-1.983369517666212431e-02,1.287228191206626904e-02,2.589471140674464464e-04,-8.778690531307350997e-03,1.119426261044543895e-02,-3.682070417595849354e-03,1.478652276656271594e-02,-1.804199172801552401e-03,-4.256840767069290155e-04,3.102928648556720070e-03,5.893946648926685558e-03,-6.239403946435107505e-03,-6.033007309242769366e-03,2.132158762898866793e-03,-1.903925984735008528e-02,-2.864217329210248103e-02,-7.237347671642609028e-04,1.502950707590777714e-03,1.158245720867280386e-02,-1.064670793989960134e-03,1.141277163099972507e-02,1.394766390482725729e-02,1.221528057436800044e-03,-6.141728768583077334e-03,-9.466734142319903345e-03,-1.788557378054971524e-03,-1.416029527655189753e-02,2.362244364915693905e-03,8.046552950871584814e-03,-5.975948002900147160e-03,9.819263226872069691e-03,-8.605127577915861609e-03,6.305943749427953991e-04,2.255014496013455199e-03,-1.944080949898540842e-02,-2.703921002059723674e-03,9.278093552958006918e-03,1.169731618159042946e-02,1.276049925749743116e-02,-7.075112004182842161e-03,1.523976175734857458e-03,-1.583754273173336447e-02,7.118095044948154204e-03,1.858749806481159775e-04,8.975791234216387929e-03,-1.305178200592415315e-02,1.348703746167088588e-02,6.662120511894518851e-04,-1.341871124417721994e-02,7.657847225105870320e-03,2.182817943874972022e-02,2.895692508068227304e-03,2.736830357920217328e-03,-1.601569928670265597e-02,-2.120203263863771302e-03,9.964341046879847050e-03,2.733072020966828119e-03,-1.550005025602081135e-03,-7.087546199919933163e-03,1.929300985995767437e-02,-5.481323649187914981e-03,-1.664938526572078831e-02,2.284988140300208900e-03,-3.141861105184894348e-03,-4.063282458811452030e-03,-7.936752739354620972e-03,-8.717060759317390647e-03,-1.143605207367486519e-02,1.027019104067787396e-02,-1.011681771504254791e-02,-9.176593513931286666e-03,1.995727124557589594e-03,6.956902623279684859e-03,3.431808970573106861e-03,-3.106419404444234200e-03,-6.717098954487838065e-03,6.791137013179848747e-04,-4.892931732652332569e-03,-2.464316089047988850e-03,9.169269560869046376e-03,-7.821924273496886444e-04,8.431923207779910487e-03,-5.955411091629939611e-03,-3.268666178075603241e-03,1.164409931506989312e-04,3.374574422006986190e-03,-1.135477594607109397e-02,-9.868106497534981716e-03,1.818890390660921411e-02,2.776955382068907983e-03,-5.440839327613041128e-03,-1.641117795426056195e-02,-6.036441806884102965e-03,1.015725722796624944e-02,1.332233515205800967e-02,-1.177991726210087138e-02,2.603512741749090960e-04,6.426235427412147969e-03,7.157758316980908711e-03,1.808370452432861257e-03,1.229662020143678410e-04,4.133453450642514231e-03,-5.542335040312045165e-03,3.232381803313816825e-03,7.363483999746305367e-03,-3.391425525985817830e-03
1.315692517596792413e-02,9.798327808734503749e-03,-5.214947234730290919e-03,-4.923264190130846076e-03,2.250206934450478622e-03,3.947266834157780666e-03,4.673983991521469573e-03,2.082135290463337125e-03,-1.431422019274905359e-03,2.249754622760982356e-02,1.922029008222022467e-02,5.179388610943663762e-03,5.544635588972742987e-03,6.857692546624696329e-03,1.151283721168734099e-02,4.175181253220235610e-03,1.221768606898585192e-02,-1.833062953744799689e-02,-6.709879812381991729e-03,-6.617690111232074623e-03,-1.587760198511412729e-02,-4.020231019272754378e-03,-5.942426700007686149e-03,-9.165361655755190073e-03,-1.063088382983887713e-02,5.320875268382116094e-03,-8.781220547167073107e-03,5.129400923526158430e-03,-8.614497816291014423e-03,1.182897739157067613e-03,-1.372716401167223786e-02,-1.786611326576758099e-02,3.976915007371127284e-03,-7.825159458963344694e-04,2.249686847919833005e-02,6.189179310940574885e-03,4.635597098509367311e-03,3.098540430295976689e-03,-4.275948142709191588e-03,6.498818161761086253e-03,-3.572822056429485020e-03,5.797223054639624208e-03,-5.464622958400619859e-03,1.270064752318258647e-02,1.333951442130166783e-03,-1.698849449941119624e-03,5.104676091802775283e-03,-4.285087906881051949e-03,-1.739104153508050365e-02,-1.577410339649757548e-03,9.267032823255498195e-03,-7.110680659727037188e-03,8.778912282698064437e-03,8.439050308133293210e-03,5.771799381554340407e-03,-1.706390141347105191e-02,2.750532363534241229e-02,1.461142002220364167e-02,1.457113287471441731e-03,-7.778551760857760344e-03,-1.028394583528854586e-02,-1.582107268071277981e-02,-3.290741889996625247e-03,1.108478034173980900e-02,-1.264452449166800739e-02,-1.826009900606791799e-03,7.627593155346672378e-03,1.009725631612728991e-02,3.098128740610074476e-03,-7.453749745780412217e-03,1.934325831619620323e-02,5.951890307437391996e-03,5.760552817715023678e-03,9.841506475086119615e-03,-6.896441559540503891e-03,-1.107254849246166323e-02,-1.050960207891901352e-02,1.518496814629846647e-02,4.625718776232036998e-03,-1.347492969652808702e-02,-1.160021042288931527e-02,4.599171482826270706e-04,-1.282699533043731889e-02,-1.802791604255481574e-03,2.387743941462178946e-03,2.493724347061449138e-03,1.052240935978778630e-02,1.710695386825999281e-02,9.628915069135123668e-04,2.364194857460150644e-03,1.617709936851757097e-02,3.944954895098912173e-03,2.486103841172744230e-03,8.942290077230765494e-03,1.998464492306281388e-03,-7.368262760498545203e-04,1.103019235710228294e-02,-4.113014825270848961e-03,-1.823876643334731507e-03,2.499281691499790486e-03,9.901922234769284376e-03,-1.496468696273282883e-02,1.374756099573606893e-02,9.344915671402633656e-03,-1.027414950208553959e-02,9.236627033967553455e-03,-5.540485322594344841e-03,1.237031013592301831e-02,-8.745695818142726580e-05,4.164412162777743689e-03,-1.293694694979208477e-02,-3.296532965150994303e-04,-3.641832500324822166e-03,6.997120169547390786e-03,-5.575391815296707604e-03,5.101668388363907181e-03,2.430563792410365964e-02,-2.927943236678177291e-04,1.107147542870456219e-02,-4.115649484637185287e-03,8.669965030693274274e-03,-1.135161039007770087e-02,1.320991137472602751e-02,-4.383027652359801005e-03,-7.757698714369299330e-03,-7.248837079003280642e-03,-5.734948985757880834e-03,6.303317291398410731e-03
2.460136380068034256e-03,9.687186665904887195e-03,6.372434318338968638e-03,-5.297085346339093677e-03,-2.672849959338595253e-03,1.144104092278688464e-02,1.627567533098606481e-02,1.228880610378792204e-02,1.013927563637339983e-02,-8.570508114681482312e-03,-2.037370096302168129e-02,1.292013814963530530e-02,-5.075737306101190489e-04,-9.044650381930521496e-03,-6.304188383399100728e-04,7.664422436195962758e-03,-1.988935419119119887e-03,-8.592605143676186955e-03,-2.152884890952383359e-03,8.804182615280306545e-03,8.228476360866120165e-03,-2.229281485006607763e-02,7.317303117852118517e-03,4.470948908539491883e-04,1.142965732628498619e-02,-2.155937243650681706e-02,-1.410931749639697573e-03,-5.649212884338387052e-03,-2.604492591184397361e-03,-1.093147242097478218e-02,-4.210229429327560710e-03,-1.041845578619892548e-02,5.570369353421652549e-03,3.089850004004947651e-02,9.813114995750021451e-04,-4.127902229743135240e-03,3.576968309232483878e-02,1.860074261931474475e-04,-2.396286194807933749e-03,9.760894339125433458e-03,-9.532690405152392452e-03,-1.495585472265827370e-03,-1.433287580828264234e-02,6.014344104682568630e-03,-7.523155438411440951e-03,-7.551028356321576838e-03,-6.216759985433504415e-03,1.010020727751190402e-02,-4.327161093287717336e-03,-1.974784730405546203e-03,6.344091101365193636e-03,1.425246339296600863e-02,-2.398822165371617895e-02,9.127873337838928597e-03,1.049249195453865607e-02,1.117942346867834696e-02,6.010093192573934436e-03,-8.196800660743755462e-03,4.535502794385630476e-03,2.374418134329332047e-03,2.659616198971143878e-03,-2.076261625618836502e-03,-2.777432190996367845e-03,-2.260228710125803189e-02,3.277542213861824993e-03,9.152287635247981223e-03,1.209409503398346103e-02,1.717033905927101492e-02,1.339339678714197672e-02,-2.493416720300847215e-03,7.856407765151169134e-03,-3.757793012213270917e-03,1.335516732945889878e-02,-2.839608014713646076e-03,1.704880663422165057e-02,-1.117973514749180663e-02,4.807524231713711238e-03,3.943166240028217473e-03,-4.924943590052211287e-03,-5.442299529494557843e-03,-5.479768947829576423e-03,1.319531365134860891e-02,-3.884931495568646771e-03,-9.939738205573134949e-03,-9.428048163867511211e-03,9.476835705838281346e-03,-4.070113659423480433e-03,2.361548356974848412e-02,2.412863705416908380e-02,6.333017963018252629e-03,-1.955985877371317020e-03,1.397800418126702270e-02,-4.761298116497637671e-03,1.324710720251795829e-02,7.939963846391834626e-03,2.465865108111366024e-03,-4.993892071825776872e-03,5.003575042865646486e-03,7.625204303595610683e-04,4.054781608537642509e-03,-3.623857775559582127e-04,1.732386961089424707e-02,-1.479873297584168718e-02,-1.304131778162647380e-02,6.699088617958521771e-03,1.972197309050966428e-03,-1.376026092095865294e-02,6.077918185203374200e-03,5.208286555851004019e-04,-2.756578737123819081e-02,1.711770479236593770e-02,-3.433309986383622191e-03,-5.009521328612357230e-03,-5.856374517392958466e-03,-1.630865516693929748e-02,-8.540844052876271630e-03,9.003624233353846665e-03,-7.498140381111294793e-03,8.575039336752550770e-04,-2.016968758278225859e-02,2.712446934356771509e-03,-3.822159850217785818e-03,-5.341306813937862139e-08,-2.216095785499055514e-03,-2.601627993391022672e-03,-3.701216081908960311e-03,1.175429841820392098e-02,1.219655455276443673e-02
-3.028474820717237410e-03,4.290377561909848245e-03,-8.110491827695791300e-03,-8.939477743294694384e-03,-4.806103545297782560e-03,1.101078872647865033e-02,-2.824843337889909947e-02,-9.018130398900264452e-03,3.680429212467759784e-03,4.602833288553848969e-03,-7.330930974961868875e-04,-9.995466269139658202e-03,3.380528122967326257e-03,8.372903279916949978e-03,1.074795210315212905e-02,3.575971537509294289e-03,-3.609710856390017843e-03,4.508235347222374310e-03,1.024925309310267124e-02,-2.428334383363512901e-04,1.689319676050620865e-04,-1.380930030651477541e-02,1.317103339155432928e-02,1.511752639932345012e-04,-2.173737326844411497e-02,4.425928453511306614e-03,1.539073440173561319e-02,-2.513563609546702951e-02,1.658663517260258388e-02,-7.043567356950283928e-04,6.668256171288633460e-03,-1.186843317245243022e-02,3.797928514713256286e-03,-1.239145403991217306e-03,3.662227625374514430e-03,-1.345047898148605224e-02,-1.009197101691297269e-02,-1.653200796906716813e-02,1.948639492135065265e-02,6.663831873714706755e-03,-3.536243786037580623e-03,-5.820673811530817756e-04,-1.085562348201967592e-02,-4.990100884694890181e-03,2.519182880411617326e-03,-1.888887457523992855e-02,-1.967313028288394938e-02,-1.454567111629549367e-02,-1.006530109365719010e-02,1.176541688928284431e-02,-4.302754372711165964e-04,-3.540418065784119942e-03,8.884640606688179801e-03,5.475146035085457288e-03,2.871702705914443935e-03,1.696352645727500046e-03,2.544539312917613004e-03,-1.977484119367026172e-02,1.243304170438232562e-02,7.682476746763093785e-03,1.126589403179953028e-02,1.105211767448972815e-02,3.300168065609709964e-03,7.463279637477623386e-03,-7.604681776113898263e-03,1.351307323813281079e-02,1.146282160133395463e-02,2.228868286809418831e-03,-3.888044440114853638e-03,3.079916195720060201e-03,-1.909634440276822970e-02,-3.996214919866211517e-03,2.847507128346102312e-02,-1.160863934223507624e-03,-5.976558361591928145e-03,2.549539413100495298e-04,-7.935469643638190171e-03,-1.448415725388728370e-02,5.501194642997625679e-03,-1.792760933324772862e-02,2.329833584997498264e-03,-2.309051460706286387e-03,-2.054969132786729335e-03,2.263470062612574479e-03,-3.375671361427169670e-03,1.673670499878683951e-02,9.380252529427265972e-05,2.185422177855874531e-02,-2.326338851988463564e-03,-1.344670051202094064e-03,-4.179354237709241755e-03,-1.882534533899302143e-02,-1.799264995441805792e-02,2.210423792692274916e-02,3.831635207798588134e-03,-3.698481812989486920e-03,1.979679705532865971e-02,1.135212937097248784e-02,1.461569411979343411e-02,-1.658169364537409726e-03,-2.290248750953007180e-03,1.243150039309590983e-02,-1.113357878796421979e-02,-1.999030488836479533e-02,5.739801776138780953e-03,1.803684484983824428e-03,-6.939597936775257882e-04,-5.864056683349379989e-03,8.156551140682791537e-03,-1.400261908265789529e-02,-8.425304627496412249e-03,1.225991791001873653e-03,-7.018630673832400996e-03,-6.842559182628244353e-04,-1.466055885275263301e-02,-8.922348303464605959e-03,7.283178201980810944e-03,-5.885695816155436452e-03,1.348645191217031671e-02,1.302072217463410599e-02,-1.046153421688167037e-02,-9.531056662514747480e-03,2.733662787169416439e-03,1.599342350729595014e-03,2.177383766653355566e-03,6.282640417030574062e-03,-1.094806130232106253e-02,1.685402988181529046e-02
-3.102020096680033808e-03,-8.749061669325118584e-03,-9.780860456457478314e-03,1.586883997715108491e-02,2.546576373339994037e-02,7.850331807367544670e-03,6.603819976288651840e-03,-5.315877568486278553e-04,-1.108322828064379172e-02,-1.301740569577383103e-03,-2.047102510528660962e-02,-3.232849148230039667e-03,2.225346241413758697e-02,-9.017497110031209157e-03,2.414092964676314498e-02,-4.096540076196956807e-03,-1.412812481174024852e-02,5.133885906617766462e-03,1.951592526415284233e-03,1.124059738670728573e-02,5.280288604919406402e-03,-1.675547780885621590e-02,-2.805759822808741831e-03,4.889495857404619304e-03,-3.763340919999441214e-03,1.643619614016740907e-02,1.771016753334620289e-02,-6.297218013260968972e-03,-4.227153915261838094e-04,-6.703631824178110134e-03,1.240919043457276542e-02,1.237076399960700644e-02,-1.934318245713145812e-02,-1.147641922305724441e-02,9.421505449259391998e-03,-1.545765926597044218e-02,2.682846465131298510e-03,4.546582228786441582e-03,-5.915486017238466912e-03,1.948468257163922870e-02,1.052395170586635856e-02,-3.143530795268653297e-03,9.778945749983546445e-03,-4.205244846098185781e-03,7.057308620593180995e-03,9.557526467966925843e-03,-4.966334741138715621e-05,-1.811330159713826077e-02,-2.100191692044622166e-02,5.011716015843254053e-03,2.640632712439198310e-03,5.137617770888909703e-03,-2.057819373239787395e-03,-1.993034744579363915e-02,-1.552347472452990547e-02,-1.181050263241162487e-03,1.441248869339835717e-02,-7.366303520445166390e-03,2.035754084117256946e-02,-2.616926911525812444e-02,-2.006425371383334377e-02,-9.327502330358264718e-03,5.100457903342383616e-03,-1.392066542445787730e-02,-1.322964713626879028e-02,-1.830398253986710230e-02,-1.587928942230444011e-03,4.430394264167926942e-03,1.181368726986765927e-02,-1.325426131163418529e-02,-1.791759345744447368e-03,-1.111805720570780733e-02,1.661668438081179144e-02,-9.781024051338635741e-03,8.984863519475342133e-03,2.673024514806700714e-03,-2.173911575481728489e-02,4.136863960615893426e-03,8.457478023733078915e-03,-1.517543966666317322e-02,7.277584114713853136e-03,-4.564693054692295707e-03,9.173255865548117505e-03,5.791709915952917599e-03,-9.315066409320376523e-03,2.842844090699991541e-03,-1.170452113875512746e-03,2.407162071547547851e-03,-9.008202345500735536e-03,1.166719137238150794e-02,4.902424593023131964e-04,2.751791861065792846e-03,-1.495842342575869066e-02,2.600923532577493168e-03,-1.916253829383140865e-03,-1.495806293983637479e-02,2.907099972029098065e-03,1.304049145553926167e-03,9.463164085123248331e-03,6.412217706547856250e-03,1.535843918885440931e-02,-7.233004038684901979e-03,2.069684124667455286e-02,1.834376704754074258e-02,1.023658252418736987e-02,6.442491791125964061e-03,-9.398896691139640644e-03,5.487571236237143244e-04,-1.657208207506222566e-02,-4.266577770369401647e-03,9.017451005492570920e-04,6.228911851321823102e-03,1.791103649223622224e-02,-2.176514914190336505e-02,-2.088710784322032887e-02,-6.647498498132959309e-03,-4.435813076973664677e-03,-1.427431759994676926e-02,-2.492167489402169391e-04,-6.238481081508197692e-04,8.133361186057388656e-03,-5.886485700958441793e-03,1.015398647261479912e-03,4.133362309604077245e-02,-3.004963934316089158e-03,1.524182958501110047e-02,8.030678776462218602e-03,-2.063066754307596104e-02
-9.200543638740982244e-03,-1.359306297241951941e-02,8.496996041076690376e-03,-4.256348532488783178e-03,-3.694358335953668113e-03,-2.034201978417091942e-03,1.439713306685445546e-02,-3.228173645855946829e-03,-6.766149010861095825e-03,6.415451944897526508e-03,-5.385856308892918685e-03,4.838860434569723906e-04,7.178765545382340130e-03,7.561519301876535107e-03,4.447362937211022174e-03,-1.432291278051192607e-02,-2.393281970770307424e-02,-3.913225327562009628e-04,1.760438398116875511e-02,-3.518427452554706569e-03,-1.293823710488743728e-03,6.632431644875166551e-03,-1.485947930015166273e-03,1.632138696865370261e-02,1.187201794931626135e-02,-2.101043165575221944e-02,1.863549213804920101e-03,5.155841705409203689e-03,-2.146179094110457070e-03,7.567597273118024416e-03,-7.596233997183550121e-03,1.607983552460273387e-03,-3.866471079914866188e-03,-3.814806693040716408e-03,1.338164515332651572e-02,5.861981652502159558e-03,4.884675182494259936e-03,8.188967795970407762e-03,1.785133308176992811e-02,-5.207977872489352386e-03,1.273413731087187119e-02,1.921868535313019100e-02,2.104480524163255487e-03,6.690910797386172282e-03,1.596064021515723741e-02,-1.140380880111938272e-03,6.999921973132840029e-03,-6.194374132594108323e-03,1.490404082913728868e-02,1.261915224651708779e-02,-5.473602763728736657e-03,-7.503496510773436691e-03,1.658605291052001572e-03,-5.200200390456313423e-03,-1.134238687109785822e-02,-7.718958592741195258e-03,1.928697269713014993e-03,-5.988026725316123594e-03,-1.315668997509866420e-02,-1.311052712779889502e-02,1.267882347417071016e-02,-5.681801531712302004e-03,1.129413799882497162e-03,-3.683580196964126967e-03,6.018451305592677648e-04,-3.105775291617566321e-03,1.486188946791490439e-02,-2.604772809417362292e-02,1.140323754555251645e-02,-8.685547068760341230e-03,6.276590034069680531e-03,4.784625208114016829e-04,1.739133848539973354e-02,3.689359710511192544e-03,9.518325608123287627e-04,-3.437538073446481934e-03,-7.784617505368367565e-03,-9.652990780749982208e-03,-3.638362961358183184e-03,-1.267034883332237606e-02,-7.056562179880160844e-03,-8.701517376991924416e-03,-9.861608119528858171e-03,-7.672321587437689813e-03,-2.045199598475453372e-03,-8.503491278091319244e-03,2.937932055365050522e-03,3.515269397951411526e-03,-1.623059683779184970e-02,-1.696457620757056174e-03,-9.701406085398486118e-03,-9.867687040686192249e-03,1.917481120861160016e-03,-3.736195497919126383e-03,-4.133201198397660689e-03,2.056747982883968488e-03,7.954800990270027156e-03,1.062957109421999377e-02,-1.056024254277244945e-02,3.328032044823812929e-03,-1.216211064835587274e-02,-3.334569697447057474e-02,-1.936326433195002458e-02,-2.798640897889323464e-03,7.914239869545723616e-03,4.702680026732579573e-03,6.521425881756695402e-03,6.147658838909156841e-03,-2.419165667432911226e-02,-6.966163680504594558e-03,-9.729627876894571953e-03,-1.362852706666347951e-03,1.041828503298466296e-02,1.142593573610460947e-02,1.737824473835450009e-02,-8.432268144908988596e-04,-6.978812374504357249e-03,5.623605643614717348e-03,1.364281048308486725e-03,1.656789299741668470e-02,-9.526096417232855426e-03,2.097770376544695961e-02,1.614307971767855315e-02,9.989074595899469222e-03,-8.820364861409565882e-03,-5.742834658902746213e-03,-1.554774782605796921e-02,1.140983023176322247e-02
8.276464697305523088e-03,-8.116038567777992055e-03,1.455943862576159452e-02,5.549268679098393400e-03,2.005494496290400296e-03,2.688407183673755755e-04,1.116465336879802865e-02,-4.058184450613635218e-03,-5.073249264561791039e-03,1.360224954632303918e-02,-1.639898593118433931e-02,-4.483182742057139313e-03,4.982396323272001879e-04,1.867415986185642224e-02,8.092656527997650964e-03,-7.456422978851045234e-03,1.616207867122708766e-02,-1.106265983505463207e-02,-8.094648803162422931e-04,-1.253712651322123374e-02,7.834343909728855304e-03,1.943331331975462709e-03,-1.574108268837598121e-02,-7.684094293068286473e-03,-2.229324049971425845e-03,1.245547678898359378e-02,1.299815347027266470e-02,5.359447756875150917e-04,1.471933010209696205e-02,-9.403199349962605008e-03,-9.104444675659734490e-03,-3.804974539829458508e-03,-7.593797586843220940e-03,-5.247433397276034250e-03,-4.254376834379086474e-03,1.020613609683113272e-02,-9.633890972579904621e-03,4.674048515325940432e-04,5.540578272124091486e-03,1.325338484497495632e-02,9.970797909580155979e-03,7.297529464071254163e-03,6.841935402942140969e-03,-5.042725826637083509e-04,-1.968455565013572852e-03,-2.921115669550058361e-03,2.510915058671743874e-02,-1.193370161807340638e-02,2.457042717187358106e-03,-2.961935644913673421e-03,2.601450551672763404e-03,1.806997729670824920e-02,-8.941254150013394977e-03,-3.277531282973311644e-02,-1.535874615829768003e-02,5.655457471989718378e-04,-1.009664117779828299e-02,-2.730331604372128202e-03,-1.027404630959254106e-02,1.365172828447092784e-02,-1.426600187136468738e-02,-3.275281761232714563e-03,2.165270043790599314e-02,1.971689063348796254e-03,-5.772875726806673234e-03,1.522514829294306128e-02,-1.285664652194862256e-02,7.784646466760909538e-03,-7.799430849202006882e-03,-3.304145765506115722e-04,2.262341545998099342e-03,-8.091722229546571832e-03,-1.333699504995159400e-02,-5.523990978787076019e-03,1.862448240759671456e-02,-1.355503397724110506e-02,3.046587872033069359e-03,7.762794102677469119e-04,1.442498799407568831e-02,-1.639725760033424948e-02,-6.734393021051525083e-03,-8.440114806012106313e-03,-2.436652797731543585e-02,-1.240241420487721291e-02,4.606258064706026355e-03,3.262703853072804281e-03,-2.304933728836077757e-03,-1.625874286205867408e-02,3.264550723071900709e-03,8.803335961845178831e-03,-4.362816818430150304e-03,5.905976715606672291e-03,-3.916813433663388945e-03,2.158291765493709335e-03,-5.936467982894447215e-03,-1.130716239515863579e-02,-7.736571415446365924e-03,5.004001988596636086e-03,-8.359741825563385409e-03,2.044180379200048053e-02,-1.100690825874171656e-03,-9.375942079702870996e-03,-6.068744913537556414e-03,-3.871545098081594170e-03,-1.455223076989169487e-02,-5.440317994127240016e-04,-2.013480463683340205e-03,-8.425906831447321083e-03,1.272363566204959273e-02,-4.151116134257530274e-03,-1.006169271966558793e-04,-6.308875921880079465e-03,6.643796920395689774e-03,-1.294998318925104364e-02,-5.394065963557442139e-03,8.181825119367868229e-03,5.262992301806298893e-03,1.787787742338928232e-02,-2.855754902604422038e-03,2.336744056664233175e-04,-3.192598278910275026e-04,-2.333912597442313556e-03,-2.352095222355981511e-03,-8.710825552578998349e-03,1.042956183896392303e-02,-4.731920792189866359e-03,1.947311041050241859e-02,3.963780832430053788e-03
-9.624987333527906461e-03,-2.501906490273276325e-03,-1.041399447048525675e-04,-1.687167526341740208e-03,-9.972000069626577035e-03,1.384313205833856072e-02,-5.874156679708679484e-04,1.172202959318533258e-03,-9.549964031844033682e-03,-5.371701969297399716e-03,6.351673789846872323e-03,8.245113797670551234e-03,-1.425359440707609415e-04,6.997343663582174071e-03,4.934839525105877943e-03,-1.931231164559618629e-02,-1.385163696730250336e-03,-8.278297461128266213e-03,9.214689030465407840e-03,7.006052296824002469e-03,-1.705304776874609629e-02,8.244529742196908539e-03,-2.924434220168295982e-03,5.047947222594253470e-03,1.282279913890062295e-02,1.326512198682617237e-02,7.167197551211880110e-03,2.090233068359113183e-02,4.532293847070321610e-03,2.609086283924903597e-03,-2.007131285377405580e-02,-1.734777842967415856e-02,-7.538959019202661621e-03,5.153411994429765199e-03,4.033293822080869818e-03,-7.732647483212223317e-03,-4.533054158743431497e-03,2.828333929025944864e-03,9.165758584126486742e-04,1.439676720515196441e-02,1.562019163751696138e-02,-1.149018209100814486e-03,4.117340770135677168e-03,1.000310852618136424e-02,-3.775807842791851447e-03,1.702681880644549284e-02,1.993916200120812721e-02,3.209905995552088560e-03,-7.236344991261578485e-03,1.038443880196432932e-02,-3.465215751514340130e-03,-3.534618758456578146e-03,2.652744083556449802e-03,1.270302902159040070e-02,1.465047034380216910e-04,2.355541229174540688e-02,-1.591787726402281097e-02,-1.487582894626942286e-02,-1.085733317172877209e-02,-4.311155716901934193e-03,7.638952762095477071e-03,-8.068216757792165406e-03,4.146701174759159433e-03,-8.272431193160692531e-03,-2.838731523968367546e-02,9.041045249159105181e-04,-6.176564073661655607e-03,-1.717155839014577155e-03,1.995982796417759744e-03,3.799013526047479404e-03,-5.806281220548411941e-03,-7.898748930832099474e-03,-6.446598902008153498e-03,-6.068215896639870058e-03,3.162000453440731024e-03,-3.561708541897461600e-03,-5.857569978541174276e-03,-2.050408487992573178e-02,-1.666930293149748027e-02,7.172459259879066136e-03,-6.378479475577718966e-03,6.583347472388941359e-04,7.635141100202681892e-03,-1.746831672433462462e-02,-2.305983859114193145e-03,-2.325703649275872101e-02,-8.573481450085073362e-04,5.929546684579483327e-03,2.053261383633925644e-02,-3.246328874442255298e-03,-1.211350775114126803e-02,3.237802450338325786e-03,-4.263560826975403527e-04,1.362597550450378101e-02,-1.023945218715292252e-03,4.985224615117024929e-03,-2.340306821689795008e-02,-3.035958757230167952e-03,1.123214694588659489e-02,4.106479046948175934e-03,3.069388626552585573e-03,2.212364015834440776e-04,1.587908597971219443e-02,-1.724102196916425800e-03,7.800520458865695464e-03,-6.341279712221283699e-03,1.214094499537012734e-02,5.375862589335863445e-03,-2.176834968255091877e-03,1.745268437400901082e-02,9.664989914895061318e-03,2.828264214171398103e-03,6.330227800426161885e-03,7.905399654897626166e-04,-6.884857041435142079e-03,1.912378181395890664e-03,1.445982019919779538e-02,-8.616304640077314045e-03,-4.060379472909124432e-03,6.403738112217879919e-03,-1.222132566150055735e-02,-5.730130692172171088e-03,-1.707016058605974676e-03,9.327538583534857389e-03,-6.780298615922256480e-03,-1.087385734009858017e-02,-3.346000718062308848e-03,1.155352872515722114e-02
-7.388601894158559544e-03,-1.041597473983371137e-02,1.431385292635106114e-03,-9.274750543640579393e-04,6.397450303410187437e-03,-4.363097052831610965e-04,2.518965934750511549e-03,1.030796234839803649e-02,-1.074739373115433071e-02,1.142212123911938784e-02,-9.950906605390006168e-03,-1.908070844478241179e-04,2.518011479651780654e-02,1.025366912769107471e-02,-8.108830679416098933e-03,-1.297751999766281463e-03,-3.303827165183910453e-03,6.697604139528359583e-03,1.262240685647125077e-02,1.204993310563358356e-03,-2.722353008753710182e-02,2.421262487665596687e-03,7.290550337504446074e-03,-5.835254728000714187e-03,5.316030960025303412e-03,-7.264972051565786980e-03,6.282231225286059005e-03,-3.320119828639488818e-02,-1.804178667295749591e-02,-1.231279020926284891e-02,-4.111093379585955242e-03,-1.070887933722281535e-03,2.554337366582908834e-03,4.297154552450398006e-03,-1.452831383800636846e-02,-1.510102575109094694e-02,-2.213629480776227801e-03,-3.589552074356024136e-03,1.229200665363521178e-03,-1.659470560317966373e-02,-8.473902555023574146e-03,-1.300025959476684527e-02,6.750110662237789050e-03,-9.291914085072930981e-05,2.879316366885369995e-03,4.039410481375311363e-03,1.449282668458565584e-02,-1.384142846775463995e-02,-1.636438528581356244e-02,5.571430133341952542e-04,-6.893962561116238766e-04,-3.911478675548117796e-03,-2.030484693665041487e-02,-9.138455276643937114e-03,8.650728237022061590e-03,-1.124385294416218109e-02,1.279363874935685562e-02,1.625405827418105508e-03,1.951879629311093281e-02,-3.448539191442870269e-03,5.834832682641425891e-03,-4.457807921080059708e-03,-1.847245677665895411e-02,5.739334398502948104e-03,-3.010160566243997877e-03,-8.120294261025210250e-03,2.994974784437932219e-03,1.494842843142814640e-02,-1.276443820139869581e-03,2.164481227270974827e-03,2.426259472574973132e-03,-4.774710289938662098e-04,3.089762247725097444e-02,-1.069283960331904489e-02,2.009924914459272280e-02,-9.313853896798412254e-05,-4.619751794741238163e-04,-1.382150623395230621e-02,-1.094013796505269092e-03,1.213493361402521488e-02,7.023945923735190958e-03,2.865997953072203959e-03,-4.091430318585417662e-03,-4.922814959661419958e-03,6.215122851968590302e-04,3.431492435815872936e-03,4.716365229585048162e-03,9.733267357540036080e-03,-1.021027831516277580e-02,-9.774466023924864577e-03,4.456992084096302736e-03,-5.382500459850002826e-03,6.304748968136623596e-03,-3.279492759682133777e-03,-6.662975360515506137e-03,9.239108043210656623e-03,-1.020260334324456751e-02,1.241899796338021347e-02,-1.980173112677746303e-02,5.611828723392352659e-04,8.825998872729660938e-03,-2.398738714524691236e-03,1.440792008428114744e-02,2.453288169382852012e-03,-3.219902633159219246e-03,-4.236845479874128649e-03,9.207457811590512298e-03,1.097162932798310606e-02,-1.394388878240600087e-02,-3.626483786082117158e-03,-1.479769380272909912e-02,-1.331687322646420450e-03,-3.272160921914915154e-03,9.645106071866960812e-03,6.299439252738901415e-03,-1.457727314508455545e-02,-9.494391655018721149e-03,-9.101618121821006963e-03,-8.101769831516208303e-03,-1.490527681772598791e-02,-8.877994174708098846e-03,-7.514144139913385510e-05,7.047928498593512142e-03,-8.717425434239646845e-03,5.180722132530679591e-03,1.831821635474350715e-02,-1.257342689103943534e-02,-8.377546542268819729e-03
-1.109959095102000352e-02,2.293536095997401967e-03,1.433724430983303322e-02,-9.267297039534152722e-03,4.246708125858775738e-03,6.032731118305165088e-04,-3.234738159071049324e-03,-1.045478180566034553e-02,2.553469785671729116e-03,-4.845543751026020786e-03,-8.239304578056806661e-03,-1.020035922675927888e-02,-3.714114761068188636e-03,-2.856756696789147440e-03,4.231360014677491843e-03,-5.155588620451215590e-03,4.243538714161902183e-03,-9.438433203095219007e-03,8.760283888886761725e-03,1.046321590064454472e-02,6.406090594198880772e-03,-1.971530111641629432e-02,2.510187094679922765e-02,-1.334136762471745119e-02,-9.904543116725200713e-03,2.047845367340717267e-03,-1.323971952594442045e-02,1.641539220720944795e-03,8.661163751543892592e-03,-4.009161317873521577e-03,-1.604376008451850050e-02,-8.270298623990181286e-03,3.808702635171206177e-03,-1.202740646002192597e-02,-1.818815213742027651e-03,-1.592294805723209333e-02,-6.001682215997974218e-03,1.698149587114491932e-02,-8.413254513269120133e-03,-7.369284790485783419e-04,-8.509140680610758831e-03,-9.491319477760799470e-03,1.086574854106848315e-02,-5.795332647237011643e-03,5.358458397106802273e-03,-1.223997538256153643e-02,-1.035232560956565739e-02,4.818418765042588184e-04,-2.720497175689310970e-04,5.650293732450370997e-03,3.413206845077875959e-03,-1.422796374758730775e-02,5.198090521641118150e-03,4.049272725379400237e-03,1.003991224879146639e-03,-2.229261958371606643e-03,3.109254730553449864e-03,4.655876786251810819e-03,-1.477614722602274598e-03,1.411349972700973263e-03,-3.531499301161734015e-03,1.860994648095839511e-04,-5.760807723498758033e-03,2.182683478495531324e-03,1.488845967753996136e-02,-7.053471820565912487e-03,-2.748446828731892361e-02,-1.508632479245881897e-02,1.138260262689115392e-02,-9.827380847179862863e-03,1.214374719238596814e-02,1.077610610832558692e-02,6.209909638397273848e-03,-1.269419013729783385e-02,-1.343782879571588963e-02,-1.193881408422901858e-02,-9.045901929719638371e-03,-1.839661714410064774e-03,8.775415214391355315e-03,5.990627606956054965e-03,1.014436634055007787e-02,-1.384696036450290373e-02,1.111773919680601568e-02,2.913404301645925441e-04,-2.210065473299654883e-03,-7.228235358491456528e-03,-7.680257129469594130e-03,1.123564444983838478e-02,1.336247425272156508e-03,2.537273977950960276e-03,-1.041050540317678408e-02,8.611731243356887666e-03,4.123515644770427819e-04,-2.272746195360998700e-02,-3.190255483361940231e-03,-3.724306563534294894e-03,-6.213557286928589156e-03,-6.773668297964053654e-03,-7.088419204316688017e-03,-9.714226801874770861e-04,-1.503288883407800751e-02,-2.106135210260893630e-03,3.183595579852483305e-03,9.163160848602341230e-03,-7.105167894975978650e-03,-4.878684159726146691e-03,3.181369078854381222e-03,1.509470860711195628e-02,4.456939557995654930e-03,1.360107930273824102e-02,-1.374662195367059789e-02,-1.150506761209391625e-02,1.107416402579832967e-02,-1.929390700201296868e-02,4.795099624424327932e-03,1.591858649659788280e-02,-2.070713205159049539e-03,-2.192315019306241303e-03,3.485358568407610942e-03,-2.100750333312383956e-03,-9.217042130196152414e-03,-5.024596521329876067e-03,5.883188158780542666e-03,7.245240593294839486e-03,4.015354434989208340e-03,-1.257852056944550045e-02,5.173060420641590294e-03,4.332381479259305584e-03
-5.391277563433616478e-03,-1.881842086738047841e-03,-1.069644122772115367e-02,1.065074799408242089e-02,6.203767110128631697e-03,-6.175304241221035717e-03,-9.557095380091159978e-04,-1.612705120729742217e-02,-5.003090866935276139e-03,1.812925485581042689e-02,3.874181146361167088e-03,1.064804126040348568e-02,5.118457639238629779e-03,-1.096486058645415422e-02,1.253488765105777170e-02,3.003280209796885692e-03,1.100392947421374376e-02,1.188562424185607251e-02,-3.105483712180747129e-03,-2.316596940330894680e-02,8.928293700448335091e-03,1.362568965615115930e-02,1.113375626843801126e-02,8.379150693227472094e-03,-1.081173808027205592e-02,-1.587931763563639811e-02,1.360098133647310355e-03,5.123695951211953981e-03,-2.678799093459049464e-03,2.130977509593443009e-03,5.295815931016365288e-03,-1.047898673127566418e-02,4.611843038899758000e-04,-8.504387958073346757e-03,-3.860807686148454848e-03,-6.212000822673763821e-03,-7.063904884082764651e-03,1.573945956692660367e-02,-2.029718250901279414e-02,-8.352596878585890131e-03,-3.943026356780336694e-03,-2.863383919429967478e-02,-2.057279107595796821e-03,-1.796192150067930579e-03,-4.391603134177122537e-03,-3.905693829031474558e-04,-1.650867621119992551e-02,-2.536057403162011135e-03,-2.979825696443547112e-02,-1.404108063353838717e-03,-1.100919602360356242e-02,-2.734946960949770096e-03,1.205181634324083151e-02,-6.458452125851412567e-03,1.883000454126305609e-02,1.108245523329113962e-02,-1.213916506765752926e-02,1.603154119606054959e-02,-2.576828114362956796e-03,-9.131575170128978028e-03,3.973865637001297232e-03,4.603683891809415285e-03,-7.992201934596711646e-03,5.723628090992280253e-03,-6.462474400959742141e-03,6.952647571699008613e-03,1.133612316716266048e-02,5.856475228759048038e-03,8.599363859382074459e-04,-6.005284898644525603e-03,5.890926533218891455e-04,-1.100361579752734409e-02,1.759741841294253095e-02,7.184234923411369350e-03,1.328432205381638309e-02,-8.053727264320629728e-03,2.562707049904275596e-03,-8.947088056468830222e-03,-3.494226164864654930e-03,-1.542305127241778637e-03,-8.403839283243208155e-03,-1.709091738349208245e-02,8.983164283015300511e-03,4.702518798002980685e-03,-2.007944663639325681e-05,7.960613362932715195e-03,3.937072454691589729e-03,-5.392447319041778972e-03,5.801373738557501908e-03,1.046093153572957499e-02,1.059357678805539736e-02,2.254035892252760544e-03,9.499148336348411589e-03,-5.539083542642890892e-03,1.036571919962854874e-02,-6.570338728401096604e-03,4.627260119451383040e-03,-6.213637363596933097e-03,-1.335280202195097965e-02,-1.979305744411189588e-03,2.724579334804975647e-02,2.035704166748355734e-03,-1.237534275859646310e-03,-6.051193866687456244e-04,9.648055992565194097e-03,-6.026137224386714057e-03,3.126816808828915013e-03,2.063984620113138227e-02,-1.229804946348513409e-02,9.287613740021304336e-05,1.009007524902738248e-02,1.091626712916645217e-02,-6.255383911295602124e-03,4.921904814876350807e-03,-9.393074669892455264e-03,-4.970758776875197453e-03,-1.064537541758287832e-02,-1.604262636997183175e-02,-7.297621717677752525e-04,1.225056725731584178e-03,-2.076320802438826399e-02,3.973010964003044834e-03,-1.367181863192102297e-02,1.456740937667141272e-02,1.204210042787594651e-02,5.834232653581043412e-03,8.955606825005864259e-04,-1.442241670313902484e-02
