-9.108962429104766612e-02,-7.850117417878142712e-02,-5.485813227842906148e-02,4.259779607653532696e-02,1.194339641082849124e-02,-9.748880396817682925e-02,-8.560514406210265048e-02,9.345526600005440998e-02,1.362009238398842470e-02,-5.934135306780190938e-02
-4.953485108593531916e-02,4.876517081501857698e-02,-6.091410377813624710e-02,1.627178545465154946e-02,9.400399781766247131e-02,6.936576029800706200e-02,-5.203044817048277371e-02,-1.246057146254003767e-03,2.399114367627594446e-02,6.579617991003575139e-02
-6.864172107078314600e-02,-9.628475956451809648e-02,-8.599557125615553410e-02,-2.730977812593640697e-03,2.126589233066607243e-02,1.377028741729627304e-02,-3.652751813556785743e-02,9.772323088248976997e-02,1.594904384915937778e-02,-2.397176547528992452e-02
1.018964382357936960e-02,4.906688618130042312e-02,3.384657869063692481e-02,-4.701608846743812742e-02,-8.673303311431168616e-02,-2.598316041717874114e-02,2.594350140431289642e-02,-5.796519801703208657e-02,5.055111074776277857e-02,-8.669270372917702028e-02
-4.793698028429180941e-02,6.095091274866909492e-02,-6.131314347533445286e-02,2.789217617598802046e-02,4.934061824746732716e-03,8.496159407987013967e-02,-4.734064590257780480e-02,-8.680778186319525191e-02,4.701319265773390432e-02,5.443560590864934823e-02
8.156317050070480135e-02,8.639441383936746766e-02,-9.720968540488060528e-02,-5.312758277571590082e-02,2.335567140033152633e-02,8.980326413752329207e-02,9.003522384941595180e-02,1.133063763903127685e-02,8.312126995325491707e-02,2.831324178926750146e-02
-2.199845717175075155e-02,-2.801866580618053715e-03,2.086209658399465483e-02,9.909584301712515142e-03,8.523628534129074064e-02,8.374668712672123094e-02,-2.102487741528902276e-02,9.265250568814237253e-02,-6.520886666390712794e-02,-7.473409611207254555e-02
-7.298416839065374750e-02,1.132433135379334876e-03,-9.569503894516040443e-02,8.959404224353620383e-02,6.542309423414649494e-02,-9.699620385157553537e-02,-6.476074888498895010e-02,-3.358728512663260168e-02,-7.380063103781663025e-02,6.189813842531641241e-02
-3.105266946334131473e-02,8.802149646667342675e-02,1.640283598941601195e-02,7.576639688236883052e-02,6.894688907844437331e-02,8.107846374172986148e-02,-8.023946836638609637e-03,9.269363204074648754e-03,5.972071823040789318e-02,-4.285622965317048561e-02
-1.949295476014453743e-03,1.982206152917567743e-02,-9.689334488983286642e-02,1.869628163932743337e-02,-1.326473020210834630e-02,6.147210577696829437e-02,-3.695103938092540730e-02,7.857774170503026290e-02,1.557144305690709440e-02,-6.319795967450698992e-02
5.758584676510086764e-02,2.240623540898678545e-02,-8.921814558524941707e-02,-1.596126399977355892e-02,3.581376731308591466e-02,8.372035559550516925e-02,-9.991959502172852170e-02,9.535182980621192961e-02,-2.468393705084510892e-02,9.475670767166452513e-02
2.094322019481061059e-02,6.576916159613860335e-02,1.494230094162045386e-02,2.561523966147008502e-02,-4.288474366086121592e-02,1.736666813121659492e-02,5.000435274053199874e-02,7.166276728580847633e-02,5.101643769353603197e-02,3.961144968946059275e-02
7.289588601091998021e-02,-3.546380063265071325e-02,3.415775815751745381e-02,-9.825212717330167322e-03,-2.357944959369655258e-02,-1.783773001556288040e-02,-1.970408330609188519e-02,-3.652321080834462774e-02,2.438387358406028660e-02,-1.395054583574713292e-02
9.476041558545045262e-02,3.556017828686222626e-02,-6.028602231457783067e-02,-1.465979813039344770e-02,-3.133075204511540091e-02,5.952776079171331891e-02,7.599965771268635262e-02,8.076839116527440021e-02,3.254396247505245143e-02,-4.595834759404844594e-02
-4.952665969908205679e-02,7.097958853948047042e-02,5.542929261749332537e-03,6.043221680091961923e-02,1.449770343832126884e-02,4.662850505750221197e-02,3.802325492811162166e-03,5.417678210037760178e-02,1.377159814094311430e-02,-6.858024281603827821e-03
-3.146221840934364244e-02,-8.635813031665917627e-02,-2.441516413438002409e-02,-8.407478446034953590e-02,9.656342274608900600e-02,-6.367742973384724059e-02,6.237173954410796251e-02,7.499232899117963536e-02,3.768265047718866168e-02,1.389888254907514775e-02
-6.780571263687824868e-02,-6.623995447338743014e-03,-3.096558976895701087e-02,-5.499200843718308335e-02,1.850237375315935684e-02,-3.754603245961660868e-02,8.326111069367014839e-02,8.192710499031141680e-02,-4.857634124356076388e-02,-7.782173985119417159e-02
-6.140745359617743454e-02,-8.316586422278671176e-05,4.571713359491924589e-02,-5.836111231824170353e-02,-5.039328832455385737e-02,7.033437498727340698e-02,-1.683025634649452928e-02,2.333701343104724324e-02,-5.326677215214999095e-02,-7.960654811484052518e-02
3.171403393705959917e-03,-4.571802590043527736e-03,-6.946567118136735830e-02,2.436124634808309319e-02,8.802023762787630767e-03,3.082746939414887644e-02,-7.109089197506804347e-02,5.030556342704878281e-02,-5.559017204001546336e-02,3.870364873206605383e-03
5.705920564432379050e-02,-9.553391440163877535e-02,-3.512750805476270999e-02,7.458447528002221105e-02,6.894192152041392352e-02,7.688118518908743093e-03,7.332165483330260747e-02,8.996119827072532327e-02,6.528139952586828332e-02,7.082308876730775138e-02
-8.025131963593033768e-02,3.026086646819819981e-02,4.070339763053060222e-02,2.204816252932592646e-02,5.992305234720560203e-02,-9.308575602567314977e-02,5.404774691099598072e-02,4.634572014790538930e-02,-4.806032134032938580e-02,-4.858614023557066702e-02
2.646066348602554852e-02,-3.094050768178369104e-02,5.931773560145750523e-02,-1.077075359930854126e-02,5.654988295683438526e-02,9.809435672476815582e-02,-3.995033209321999235e-02,-7.139883434838012466e-02,8.026168726985477564e-02,8.311875777474650451e-03
9.494807417101644442e-02,2.732088000037943831e-02,9.878260492209578469e-02,9.214160828590320373e-03,5.285186781104261877e-03,-7.291441938556603164e-02,-2.885896580322377947e-02,-9.475628654072534851e-02,-6.792096409607017993e-02,4.912743854149920208e-02
-9.392006201424224487e-02,-2.669138055125112874e-02,7.246925056760883388e-02,3.853554350147087026e-02,3.818842841323372150e-02,-6.227263980893782414e-02,-1.161914385031533048e-02,1.631548146885823669e-02,9.795034153274104205e-02,-5.921875495337563383e-02
-5.045341964752902975e-02,-4.756538324541761953e-02,5.003448265959856145e-02,-8.604934512861442397e-03,-8.861411231778100472e-02,1.703248122047917867e-03,-5.760796707126480953e-02,5.972084895204204935e-02,-4.053372369854555540e-02,-9.447879760909927427e-02
1.868648989292420737e-02,6.876808578623777590e-02,-2.379677518755715648e-02,4.997166214522869021e-02,2.228295659425644226e-03,8.190360992437722976e-03,9.188686421235048307e-02,6.079217829972935472e-02,-9.353538667528521477e-02,4.187745024625902368e-02
-6.999703687298783339e-03,8.950978827901998058e-02,-5.571345313530234183e-02,-4.658559606312684398e-02,-8.370520702454760376e-02,-1.427623426724269895e-02,-7.819624719618634145e-02,2.675735212238355976e-02,6.059264747474757407e-02,3.936009922403568839e-02
5.324227621515409403e-02,-3.150917603129603506e-02,6.917029660553553061e-02,-1.424624500011148487e-02,6.480197408246377022e-02,2.529923172485876171e-02,-7.131539026595101749e-02,-8.432262002901041997e-02,-9.633347141739855013e-02,-8.665500047212870705e-02
-8.283237258313633222e-03,-7.733161544648191332e-02,-9.444333023026602048e-02,5.097229627809349295e-02,-2.102990390787211339e-02,4.938769912150503538e-02,-9.519034650709690126e-03,-9.982650599847778250e-03,-4.385498656433811648e-03,-5.199214687561196091e-03
6.063266842283393521e-02,-1.952149602845283660e-02,8.093723206872460718e-02,-9.258779040919283554e-02,5.477486854408372685e-02,-7.487172377245224220e-02,2.370271338241709824e-02,-9.792714773295362052e-02,7.725456515269388258e-03,-9.939640867608073860e-02
9.023875709804091150e-02,8.108040674055561059e-02,5.919338838845386586e-02,8.305486398295749972e-02,-7.088835376832058888e-02,-6.845398602589333747e-02,-6.247366541951320656e-02,2.449918045998422667e-02,8.116189920166036464e-02,9.799103567181474683e-02
4.222449175316317360e-02,4.636008182845904879e-02,8.185864090885089372e-02,-1.982525352577582667e-02,-5.002986395499264827e-02,-6.531396584257542770e-02,-7.610858993325420041e-02,6.252211760656575801e-02,-7.064152531655137901e-02,-4.714050345461986979e-02
6.381783572670615690e-02,-3.788254964115800316e-02,9.648348985858856697e-02,-4.667225956967296224e-02,6.730668994242280934e-03,-3.710659776283008193e-02,8.215456623476749543e-02,-2.668867122975311645e-02,-1.328153454536709632e-02,2.458538455672273915e-03
8.777729547394266807e-02,-9.381019874576985995e-02,4.337573272633782340e-02,7.820379085846779210e-02,-9.454255529650623657e-02,4.410249450502140567e-03,-3.480203764599494598e-02,7.189786417311716527e-02,1.170331018450357363e-02,3.804557363254956748e-02
-9.429300009692512252e-03,2.566180750427143886e-02,-4.198062966251484007e-02,-9.813028440669685493e-02,1.535118699741815085e-02,-3.771115717350743968e-02,3.453519700225962663e-03,8.328117061077955352e-02,-1.470504229972080523e-02,-5.052079267952291897e-02
-2.574124774418910799e-02,8.637222332730812302e-02,8.737367626181874458e-02,6.886598971314264461e-02,8.404130286113209447e-02,-5.441994200973661322e-02,-8.250355808928183654e-02,-5.453805274306225415e-02,-3.712467677718991887e-02,-6.504682472873768440e-02
2.141883239449209053e-02,-1.728271699976773046e-02,6.327030236544281538e-02,-6.297392034619386791e-02,4.037530595126209709e-02,-5.192887503017223211e-02,1.484381776817193799e-02,-3.020248055584222324e-02,-8.860712010343346767e-02,-5.423726580792483098e-02
3.282051107095868003e-02,-5.499813278937448757e-04,3.803196814735759768e-03,-6.505596997821549987e-02,1.414317030925127394e-02,9.935068504164198955e-02,6.336702175832439887e-02,1.887452476619555508e-02,9.519781366618099150e-02,8.031251693386426416e-02
1.912158672052910457e-02,-9.351473493710858731e-02,-8.128458083650386135e-02,-8.692565699155473113e-02,-9.653370261704943833e-03,-2.491303336642844424e-02,9.507000685405730955e-02,-6.640334136007702837e-02,9.455751838653103647e-02,5.349497377260262199e-02
6.484756792489956845e-02,2.652316335559945504e-02,3.374655404134641046e-02,-4.623533295761331208e-03,-9.737272861538555369e-02,-2.939878289163504188e-02,-1.585639701288305004e-03,4.601824221802086612e-02,-6.274331450778158903e-03,-8.519016782113669750e-03
-7.246745181087937970e-02,-9.782225323930421323e-02,5.165565209539924041e-02,-3.600943238446432937e-02,9.687669003870214013e-02,-5.595315476816880434e-02,-3.225839490366406992e-02,4.779227133226343627e-03,5.097829141210655224e-02,-7.228443219940872133e-03
-7.503549137766474253e-02,-3.749972430159009829e-02,9.038339401989253785e-04,3.476980160337353465e-02,5.402999126241844752e-02,-7.393284380912915066e-02,-9.541697373552365802e-02,3.816464442397887735e-03,6.199774213248326893e-02,-9.747924659402473768e-02
3.449396893074679893e-02,3.736164533139835209e-02,-1.015064928267248034e-02,8.295773734838685076e-02,2.887221695139857713e-02,-9.895203246970683819e-02,-3.114310897124883404e-03,7.186356121952000575e-02,6.607991400746790478e-02,2.983083942249559195e-02
3.473968477972633195e-02,1.569991595784010763e-02,-4.517604496662957353e-02,1.210599810721176006e-02,3.434595696348405336e-02,-2.951407395671823419e-02,7.116567345078556039e-02,-6.099250279825854659e-02,4.946416206638465374e-02,-4.207945076262451650e-02
5.475985744883640760e-02,-1.445253413278475840e-02,6.153968182244190510e-02,-2.929302746640193023e-02,-5.726135247408377371e-02,5.345690168435332512e-02,-3.827161047386978127e-02,4.664901354528550037e-02,4.889463061554641388e-02,-5.572065981835978843e-02
-5.717757263587031069e-02,-6.021041531458666551e-02,-7.149633244683106792e-02,-2.458348015853317747e-02,-9.467442306167571375e-02,-7.781592619315187698e-02,3.491280475268210282e-02,5.995530737947726840e-02,-8.389409457432282780e-02,-5.365953790284159336e-02
-5.847486763923712833e-02,8.346671261632612748e-02,4.226290362729734351e-02,1.077692221028285491e-02,-3.909640241587595405e-02,6.697080952635969808e-02,-1.293880847409600854e-02,8.469124302375505287e-02,4.121036086718662950e-02,-4.393738406943320518e-03
-7.475797925012826750e-02,9.520871009354953118e-02,-6.803326993118133381e-02,-5.947957495606748246e-02,-1.376364896792581227e-02,-1.915961884497055512e-02,-7.064970384714118479e-02,4.586378387222467268e-02,-6.225098662456281240e-02,2.877912886233255363e-02
5.086119011525974676e-02,-5.785352158333585681e-02,2.019084962152799256e-02,4.978567504916728281e-02,2.764374212406667253e-02,1.942546058932981268e-02,-4.090354286890059143e-02,4.632129424830175313e-02,8.906168799998995245e-02,-1.488772194769061308e-02
5.643636336628107819e-02,-8.877179206761694197e-02,6.705432049799317507e-02,-6.154999663557046002e-02,-2.098062622200536076e-02,-3.998379081492871301e-02,-8.397927123879014855e-02,8.092620058724858678e-02,-2.596916448925234988e-02,6.139487695227902053e-03
-1.176746820734986265e-03,-7.356777161141236920e-02,-5.870918822211339955e-02,-8.476223819353577438e-02,1.584339989057492737e-03,-4.769008963340257840e-02,-2.858767822344161769e-02,-7.838693426055264035e-02,5.751036793050143259e-02,-7.868322464223978518e-02
9.714176474263755412e-02,-6.456776711231654309e-02,1.448102248692986760e-02,-9.103093308218238033e-02,5.742325793116684340e-02,-6.207881043634069784e-02,5.580795681625325133e-03,4.801550863181430762e-02,-7.001370301654881445e-02,1.021743483739434577e-02
-5.667655833424412037e-02,5.183920986342893666e-02,4.458303871124275064e-02,-6.469019314458340775e-02,7.239331153341468927e-02,-9.604498009673115289e-02,7.204739948462304810e-02,1.178076223218767205e-02,-1.935590557883015705e-02,5.174938620446731252e-02
4.338580033849398498e-02,9.746523496168532641e-02,-4.438299027740344460e-02,-9.924126551813149122e-02,8.678052166297756109e-02,7.157942090757876685e-02,4.577017550385117928e-02,3.337756584307682850e-03,4.139124904975219343e-02,5.610591137534856609e-02
-2.502481129262812409e-02,5.406450506599153050e-02,5.012486383503508836e-02,2.264224230885195088e-02,-1.962681520643252964e-02,3.946160385286817673e-02,-9.937742843496158440e-02,5.497932934491955859e-02,7.928332049136940785e-02,-5.213685851249907910e-02
-7.584656313815406337e-02,-5.594320244125448177e-02,-3.958065374198034558e-02,7.660570171276684381e-02,8.633286047618898840e-03,-4.265767007871388433e-02,-7.232906204141070772e-02,-4.197110737909166833e-02,2.277421794825051915e-02,-3.517229402051068321e-02
-8.527963661800308515e-03,-1.117657859667711695e-02,6.562707214630242314e-02,-1.473036915275387215e-02,-3.086023576489953235e-02,3.499432096182103491e-02,-5.570358885329425302e-02,-6.550835214689243458e-03,-3.704686253519672012e-02,2.537112043256692373e-02
7.547209493896253618e-02,-1.046219997087430298e-02,5.689148375838462557e-02,-8.606859887689916055e-03,3.124586634342627067e-02,-7.363180499449957506e-02,-1.340369860647036560e-02,8.186239773098732964e-02,2.109580020618692653e-02,5.335491744742043574e-02
9.401216191788630550e-04,-3.888750343985086788e-04,6.857996803856999946e-02,-8.643861313180925543e-02,1.465445430993692066e-02,8.855251508658987247e-02,3.572009634464384797e-03,-6.110683809442310488e-02,6.958787848869524284e-02,-4.967217152882943965e-02
4.014520729650758457e-02,8.052188079379976604e-03,8.976725765604393059e-02,2.486734048053518276e-02,6.759559240954587933e-02,-9.841342476109538051e-02,9.786801123332761199e-02,-8.445708593352270477e-02,-3.557409727704607949e-02,8.923047909135306544e-02
-9.821217952575099497e-02,6.454600108438710016e-02,7.224232767335889149e-02,-1.203383715828550138e-02,-4.885096123881376567e-02,6.053790392665972520e-02,-4.427599113555766297e-03,-7.313227826886077587e-02,8.556979856500215864e-02,7.919399340132968201e-02
-1.690969996612931570e-03,7.134049930355843006e-02,-1.628439484718027797e-02,3.669298003326021407e-02,-2.040187211841551496e-02,1.148403490162069884e-03,-6.208965943321453906e-02,9.299778482218276632e-02,-4.115686235114906361e-02,-7.930808877671974289e-02
-7.113691995419038627e-02,-9.718154116151141164e-02,4.318913989247891161e-02,1.289966404817481649e-02,5.891567023695043481e-02,1.415984656827282140e-03,5.836420790083077237e-02,3.915284285436787526e-02,5.556969537183506502e-02,-1.870342620458273486e-02
2.955412663749623636e-02,-6.404114046140513272e-02,-3.563600732241921365e-02,-6.547907597604149532e-02,-1.827255499734752042e-02,-5.171625040688024311e-02,-1.861560117412841553e-02,9.504446848746242460e-02,-3.593613483559375543e-02,9.649818899497905611e-02
2.726122517119672350e-02,-2.498179632121780291e-02,7.149689981671933370e-02,2.391734787371475879e-02,-4.959338397383213082e-02,5.857113559537752145e-02,-1.341229825316739288e-02,-2.849776653391171422e-02,-3.394461269498381950e-02,3.947377512262789656e-02
-4.626997521875469283e-02,6.165560274107603767e-02,-4.094224112003044813e-02,8.824276717071449783e-03,-2.415701638959516506e-03,7.107128251907396388e-02,7.767728687907718421e-02,-6.312311152644664580e-02,1.706969178765020689e-02,7.964100920342742640e-02
-1.077655619311405910e-02,8.437366109676308623e-02,-4.420182190860582477e-02,2.176623483875914089e-02,3.649074195336307613e-02,-5.435885332990317981e-02,-9.724649748845665131e-02,-1.665520752586077680e-02,8.769637837134680591e-02,-3.139437803391868786e-02
5.594885909652000389e-02,-6.505273743451851776e-02,-3.160943273950951593e-02,-7.108045583238065124e-02,4.335416282927520570e-02,3.986152473936283025e-02,3.769946358978376599e-02,-4.932079310274006811e-02,3.847202432468177502e-02,-5.454049181681008829e-02
-1.507017681373205853e-02,-2.561557566646255335e-02,-2.893841767597556125e-02,-8.846903855174872988e-02,2.632932537318793953e-02,4.146332053633988712e-02,2.271773890056712208e-02,2.966255123262490079e-02,-6.601185715654844799e-02,-7.011064021222751519e-02
2.835008705176569888e-03,7.506654527090780848e-02,-6.320931169055560295e-02,-7.432176258348022202e-03,-1.421353319401941206e-02,-5.421628160967306709e-04,-6.769784590279762093e-02,-3.151187177303789444e-02,-4.762391917929596069e-02,6.890538864589579315e-02
6.006644915528033812e-02,-1.467216834637127820e-02,2.140309215780777929e-02,-7.090687794675601396e-02,1.922658843511726445e-03,-4.061058284261909179e-02,7.193019071384021412e-02,3.431967618127798603e-02,2.669480252448419577e-02,-7.504973998616415454e-02
-5.882424100222855001e-03,9.731455591737631083e-02,8.965983481453301818e-02,2.901712805208872537e-02,-6.965502579360527413e-02,2.782536974398100438e-02,1.313242250878550454e-02,-6.266832467749589020e-03,-1.439250610634597305e-02,1.985395113160601244e-02
6.999397770319309986e-02,5.022420807438748858e-02,1.587210805944661018e-02,8.494083630720561384e-02,-8.705200331169023198e-02,9.826930174636180904e-02,-8.940109146640209947e-02,-6.010089077228773086e-02,-1.544946767108781871e-02,-7.849822476296647311e-02
2.473408219954036091e-02,-9.040148719022654544e-02,-4.307522379861157547e-02,-8.779266377606578797e-02,4.070386622101623830e-02,3.369123351789640730e-02,-2.428388134987954916e-02,-6.236114799403576214e-02,4.940096580598901665e-02,-3.192414184690654799e-02
5.906023348112857119e-02,-2.419812164075940686e-03,5.133888870195876808e-03,-9.430183010168656510e-02,2.884640397580634508e-02,-2.986869951356652120e-02,-5.415899454158686066e-02,-1.322332475765988780e-02,-2.350650854581648463e-02,-6.042191982727956878e-03
9.589667083596128960e-02,-2.712438592635391110e-02,5.488202666720790046e-02,1.055351930997849852e-02,7.782621782149656831e-02,-2.900942977008560963e-02,-5.089626396269850833e-02,8.220384793139365320e-02,-9.129314724844693474e-02,9.015068561220046517e-02
1.128138313418505789e-02,-2.472735666258249476e-02,9.901046446782221788e-02,-8.832747077047367612e-02,3.341271953522434446e-03,-9.378058490889043530e-02,1.423514783724669219e-02,-6.390629820097688818e-02,2.619184006790609143e-02,9.618473515011630171e-02
7.498051024247617824e-02,-9.632750115825872150e-03,4.169217401034344683e-02,5.549375000063785923e-02,-1.031383163487276100e-03,5.706698035513019240e-03,-6.984312032556148908e-02,-2.612001487761875240e-02,-7.155574938544267960e-02,4.537875066891253195e-02
-4.597401119547359083e-03,-1.022423265864688680e-02,7.719959423307026780e-02,5.523754462312277513e-03,-1.818183361662802089e-02,-4.622159555747083065e-02,-8.559759296604602108e-02,-1.637277325493684266e-02,-9.484930351868332832e-02,-4.176921188951439323e-02
7.019019696792999641e-04,9.318661300394445735e-02,-7.812341716128308466e-02,3.460821084332438291e-02,-1.352578016000638428e-05,5.541964585515660180e-02,-7.127860042515815620e-02,-8.335947271282490023e-02,-2.015627892950924704e-02,5.939245039598003983e-02
-6.166485221802198158e-02,5.355543842945481581e-02,-4.194040058762635997e-02,-5.662170247764093667e-02,-9.665688218459872472e-02,-2.026818801552425497e-02,-2.378370174130953196e-02,3.186898723907294340e-02,-8.581631990592256121e-02,-6.947920259154563571e-02
-9.668482341981317341e-02,-7.724072871051863853e-02,3.035785520201808585e-02,-1.946862956501616004e-02,-3.579473716653683302e-02,1.158239884875449099e-02,9.869209261997000104e-02,6.689730280360592363e-02,3.992463647991678632e-02,8.365171782641159237e-02
-9.205425866338304286e-02,-8.593331167689495509e-02,-5.198742002389081240e-03,-3.016651740858454500e-02,8.745041242568979412e-02,-2.087007770966292641e-03,7.929822018670124040e-03,7.905207314624415615e-02,-1.067299083526189463e-02,7.540687785407038102e-02
-4.928365012567433034e-02,-4.523805916837828761e-02,-3.432772198248197626e-02,9.512854096190695441e-03,-5.597426519460375893e-02,3.428583421625466809e-02,-7.144134343939992360e-02,-8.117994510007212061e-02,7.403834924107552395e-02,-5.262625928860029806e-02
-2.279919779548089664e-02,1.430841854506645361e-02,5.160393990293998812e-03,-8.479522411157863759e-02,7.482518711960567392e-02,9.022712368373841940e-02,6.250146083493435256e-02,-4.323963301062514614e-02,5.569359223591890951e-03,-3.211665519647810552e-02
1.093346215753335238e-02,9.488069378260052811e-02,-3.765941645620372175e-02,3.375932118457394826e-02,-3.480655853820283085e-02,5.489545320301592035e-02,-3.483800667735903467e-02,7.796546828947500951e-02,5.034154418385336505e-02,5.252641908902214163e-02
-6.104194288014855307e-03,-5.784709950625892966e-02,-9.170498408470023621e-02,-3.563424000595109831e-02,-9.257746710120112743e-02,3.877108227477993330e-02,3.407000638723367558e-02,-1.390564345100500643e-02,5.355779553163461659e-02,7.201698947912740789e-03
-9.202801467290949722e-02,-7.304137640786419194e-02,-6.131672019701633197e-02,-3.286723976707005279e-02,-8.953741071250465033e-02,2.102335610007324829e-02,2.412205504783757060e-03,2.349220240343122268e-02,-1.352888104713119433e-02,6.954009364748756084e-02
-9.188188788169737720e-03,-9.691929604161582390e-02,7.461362968941989693e-02,3.124030954881978905e-02,6.460060812969420363e-02,9.035513860677032993e-02,-8.981752329662257006e-02,-5.298562718179709169e-02,-8.733131130873204861e-02,-1.566842279350981471e-02
7.276582910029039120e-02,-8.367520345698638284e-02,-5.377609422824308760e-03,-7.489137803825528239e-02,5.457712043342355379e-02,6.828443135916870133e-02,-9.134181236276828209e-02,-2.711851365921044699e-03,-5.211779117244881576e-02,9.049475633865186608e-02
8.877852555675921908e-02,2.278680047694017774e-02,9.469747946503925817e-02,-3.102773125674980481e-02,7.957014353353636382e-02,-1.308100531829810287e-02,-5.283707257049725936e-02,8.816559264027987175e-02,3.684361019664550430e-02,-8.701768293217414241e-02
7.408497136461322796e-02,4.027605892666924481e-02,2.098537459485634582e-02,4.647497983586609815e-02,-4.931219150004384488e-02,2.009779105490887285e-02,6.292383625233108346e-02,-8.917726793520003303e-02,-7.389786573214680854e-02,6.848916199128271542e-02
2.366917386557709779e-02,6.257562096211602420e-03,-5.034185420058028687e-02,-4.098428495010082717e-02,7.453723298389239305e-02,-1.566681303005815207e-02,-8.711394888407864023e-02,7.939701390151651661e-02,-5.932383343518979335e-02,6.524550709847828922e-02
7.635412461656146399e-02,-2.649851036332376286e-03,1.969293862092727498e-02,5.453491297083390421e-03,2.496425883709980920e-02,7.100834426947030820e-02,-4.357211031902788467e-02,7.675110163612017256e-02,1.353806602382985613e-02,-7.697939180661933500e-02
-5.459976695706841160e-02,1.919647712260275085e-02,-5.211075261906392836e-02,-7.371686789250789240e-02,-6.763045717523297196e-02,6.897450364714782789e-02,2.043673077854216147e-02,9.271341743766839394e-02,-3.086415734079490936e-02,1.912501962698993918e-02
1.979705779468395044e-02,2.314085744078975271e-02,-8.816455856285553006e-02,5.006343691493717052e-02,8.964189963752505763e-02,6.935811435917746404e-03,-6.148879580898632125e-02,5.058518299598843693e-02,-9.853620613442724829e-02,-3.434877926984383767e-02
8.352126952887864442e-02,1.767346657877535976e-02,7.103805678082705799e-02,2.093441046983754439e-02,6.451563050477421291e-02,7.589670468586337537e-02,-3.580272509510935841e-02,-7.540904568956430243e-02,4.426066883731416546e-02,-1.193058263375235128e-02
-7.465285817159827975e-02,1.796472962197784295e-02,-9.278633708602801455e-02,-5.996357671780261356e-02,5.766023793359378868e-02,-9.758064799692843516e-02,-3.933086565828618902e-02,-9.572480778238585952e-02,9.949699854566590451e-02,1.640599526869235270e-02
-4.132474430278867961e-02,8.578989237862313932e-02,1.423884709640901858e-03,-9.061554489518619526e-03,1.757430125923728492e-02,-4.717247115788607975e-02,-3.894234013051334209e-02,-2.566908465516351545e-02,-5.111040012567782953e-02,1.690945322332595979e-02
3.916922678646528322e-02,-8.561055596719978344e-02,9.421666392509275845e-02,5.061413117389099159e-02,6.123263259068165154e-02,5.032808081625811392e-02,-8.398780454575655030e-02,-3.660743395764581853e-03,-1.086540871966878985e-02,3.449453010498598760e-02
-1.025254823513561953e-02,4.086267967678192115e-02,3.632906752052458832e-02,3.942970575055124161e-02,2.372014851230727639e-02,-6.980385334407085418e-02,5.216049126115121504e-02,5.620916443879139801e-02,8.082059718276099480e-02,-5.324626147917881774e-02
-6.466422138553171162e-02,-2.178017537864751496e-02,-3.588706920096795816e-02,6.309538580112525330e-02,2.270517993368632859e-02,5.200035046994977428e-02,-1.446698006060716246e-02,-8.011188741688216042e-02,-7.699299758995076237e-02,-2.531857365256094672e-02
-6.123044649809857021e-02,6.414929972458766061e-02,1.992720168474335085e-02,3.776905180373299475e-02,-1.778007739140760601e-03,-8.236526375156379143e-02,-5.298447266276593709e-02,-7.679583821675592392e-03,-6.028169938921475179e-02,-9.490475284423594005e-02
4.587953965123053868e-02,4.498334944382381684e-02,-3.392165072765944422e-02,6.869882521273110165e-02,-1.431150480978531092e-02,7.293722895270687845e-02,3.141308492457789425e-02,1.620713148361803413e-02,-5.985450239298180375e-02,5.909322095678987141e-03
7.888648368551448575e-02,-3.900120483295679841e-02,7.418912183221068601e-02,8.174905457167763734e-02,-3.403108746362352999e-02,3.661487326731283076e-02,7.984418991319375269e-02,-8.486062364833933669e-02,7.571757264095410611e-02,-6.183212734630388202e-02
6.995378200358612353e-02,3.342375773984079812e-02,-3.113216090998922880e-02,-6.972488600144020887e-02,2.707419229769067459e-02,6.955760874294833473e-02,6.436987495280210858e-02,2.564791942613156572e-02,9.126030195104642417e-02,1.798462541515395696e-02
-6.043344307041614155e-02,-1.413385547670154008e-02,-3.265080025976654921e-02,9.838900238145620314e-02,-2.395270077654705621e-02,9.854017473296358687e-02,3.760850146682842565e-03,-6.554405970457491404e-02,-8.508518574970402870e-02,-2.593886124522247483e-02
-7.531622803705402547e-02,2.690374325836833447e-02,-1.721603085411822776e-02,9.818312650509003481e-02,8.599112473066358731e-02,-7.015279353804999840e-02,-2.102354749263990463e-02,-7.684057807522765016e-03,1.218975102438904501e-02,5.607270465785371694e-02
-2.561218185315253248e-03,-1.600128959795184269e-02,-4.760005905613287625e-02,8.216122781735168967e-02,-9.554569769343917995e-02,6.422437964379293374e-02,-6.230632006671630446e-02,3.715137983450944592e-02,-2.895812213207125951e-02,9.484252557901826086e-02
-7.544557411011601489e-02,-6.248602147655209216e-02,7.788849509289577644e-02,1.668126292164558155e-02,-3.815072306824407455e-02,-9.984712290436240090e-02,-5.448045233554939248e-02,-7.091927316575286078e-02,-5.931323512598188352e-02,7.926451136080092663e-02
7.461887565392810728e-02,4.005788752668995589e-02,-5.900464769558189104e-03,6.542720046645766896e-02,-8.347205829575266023e-04,-2.730226334301895375e-02,-4.487937944782825067e-02,8.494816270767432953e-02,-2.260215314874156056e-02,-1.423825313735943565e-03
-4.911237953711558579e-02,7.699330376761268080e-02,-2.334730863894265984e-02,-4.048505693722495580e-02,4.351899243895088198e-02,-6.182601136553851628e-02,-7.636147413059231337e-02,6.739955644270242963e-02,4.882718427390703164e-02,1.810410952942342888e-02
-5.142168500702586770e-02,2.464942903751680958e-02,2.767106414823458649e-02,-3.448611117753497268e-02,-8.650213138649154310e-02,7.610771951286535164e-02,-8.008653785148325821e-03,5.277454361328598464e-02,-4.922227581145206809e-02,1.827743645350336787e-02
-1.424096793024046126e-02,-2.357987149017208572e-02,-7.465732323061545495e-02,-5.114666735820483368e-02,-8.413168340833621084e-02,-3.942833905648428922e-02,4.834096004631108223e-02,2.300314499420977321e-02,3.448221978678517319e-02,-9.832338409499369325e-02
3.567539445026396416e-02,6.361381085774053812e-04,-5.381830990316416319e-02,-6.502069820361555674e-02,-6.300340688983403770e-02,6.885200101501970371e-02,9.651795786101707852e-02,8.274792496832633626e-02,-3.052611592543744146e-02,5.604491593827273799e-02
9.290918140286125171e-03,6.328847951118754533e-02,-3.254609762218835245e-03,1.799025965988074183e-02,5.745268950485230008e-02,-7.995307137937353315e-02,7.401423368108145384e-03,-2.680333066606914449e-02,2.086136873377444911e-02,9.176050312740011150e-02
-2.143541100060750160e-02,-2.140540041167671159e-02,5.812739871791977597e-02,2.901567981708527699e-02,-2.122319842892469999e-02,3.779100964605028312e-02,-1.919967818912420021e-02,-7.277736915037558152e-02,-9.871346265573108236e-03,-3.311612146054547512e-02
-5.640621398776642093e-02,8.515496032728797626e-02,3.792787981591155821e-02,1.976417812468438118e-02,4.933149442460099676e-02,8.394212354288305145e-03,4.010661452390051895e-02,8.611196384996902542e-02,7.252333890104439851e-02,-6.651162849869574067e-02
-4.737219521522515603e-02,-8.567794411163909274e-02,9.573456103166941289e-02,-5.272318026792488510e-02,3.211967118571973367e-02,-8.207386021450760460e-02,-5.784581158259625294e-02,5.648767036809110298e-04,-7.900926633401439414e-02,-2.222531946105513190e-02
7.597544027936178890e-03,-3.215916302298001128e-02,1.118004222531510106e-02,7.353664388492803239e-03,-2.187790025261884819e-02,3.925401662022059979e-02,3.569649079958481241e-02,3.746062987487797091e-02,1.229825175987483976e-02,-2.838401719741283358e-02
2.262246707340245799e-02,8.714725332163994476e-02,1.937770498919462459e-02,9.591803487188504951e-02,-1.179867591822576778e-02,4.792239250150934216e-02,-9.247922427007998492e-02,5.294532780009722495e-02,3.656316065362472112e-03,-9.893669340777935806e-02
-4.455997904348030225e-02,6.966446503962303582e-03,5.359257565626232567e-02,-8.938148090949499247e-02,9.810688770103936918e-03,6.019891115967121453e-02,2.991661097569578431e-02,8.628940299858214869e-02,-8.505371099704778226e-02,-4.463870747988268189e-02
8.384750085123449104e-02,5.300102965962857904e-02,1.994806889441973208e-02,6.659362876741409254e-02,7.920869831500040870e-02,9.454407057056499197e-02,9.970410141796118286e-02,-7.207013326317930624e-02,-8.589159105126016602e-02,-8.530666912797534029e-02
-9.705124182001062527e-02,9.436401459558521609e-02,-8.104661670855417555e-02,6.834736523716994361e-02,3.703459938153991216e-02,-2.488566503416375641e-03,-3.066102372828437284e-02,-2.927044258659898535e-02,-4.923222353056255773e-02,8.220359473972529973e-02
4.512850909897378471e-02,-9.481484144314603069e-02,-7.695749350577082981e-03,-4.373974549263773270e-02,-9.420676276442030428e-02,7.693637886185888952e-02,5.420107159093645599e-02,-3.405298415114781097e-02,5.931171750734220982e-02,-3.507233555940068859e-02
-3.842351123647065603e-02,8.562181570014523735e-02,9.538323238917004177e-02,4.711060943378558852e-03,9.038703351358498561e-02,7.759929878529292502e-02,3.606512318881732737e-03,-2.545023958050288138e-02,4.207091566392187620e-02,-8.871315071589197521e-03
2.104257902464257146e-02,9.808123937798934877e-02,5.478324999129369210e-02,-3.314471900123475145e-02,-8.220035583552441627e-02,-6.301888194431833068e-02,5.370375178366873503e-03,-1.657951637862839500e-02,6.013193162584792861e-02,8.664046763733634915e-02
-6.442705040973029096e-02,7.201335417524323823e-02,9.147898526533376762e-02,9.189412136995642189e-02,-9.242748245591390910e-02,-8.848329887836525742e-02,-9.884052141646221257e-02,-3.746376876890471219e-02,-8.886031745757907996e-02,-4.122750290589116684e-02
-2.878961755980586484e-02,9.074256351759635297e-02,-4.818350502499467274e-03,-4.435062969216200385e-02,-1.576520596674676339e-03,2.866431019762142457e-02,-7.537316946116105754e-02,5.161398413917706041e-02,7.038777704147820835e-02,6.884944305054496727e-02
7.810939069302993976e-02,-2.355478894495020500e-02,-1.080067209502511179e-02,-7.965335650463163664e-02,-5.108815570755372709e-02,9.437626694918405112e-02,-4.759034558546763882e-02,8.149894650339931101e-02,7.814837395479083682e-02,8.454237874390790886e-02
-6.876292134140442325e-02,7.590743014265356747e-02,2.614766878478099257e-02,-5.787545827697704315e-02,-3.381928060580532969e-02,-6.810002488192085091e-02,-7.890838370151016454e-03,-8.324979438542984278e-02,-6.694806610482945120e-02,-6.057521727452146870e-02
3.820893388882037195e-02,1.480432963279610520e-02,7.467930761597189881e-02,-5.106494258603302971e-02,2.569080507375233816e-02,-9.311476911840117776e-02,3.359287426505763730e-03,7.265562911865965090e-02,9.684072557510077506e-02,-9.800908771942062891e-02
-4.943250301868112179e-02,-5.523906856161912848e-02,-9.048113014498017359e-02,-9.796743163996705916e-02,-2.028852570845768484e-03,-9.090960162289371538e-02,-4.425453097835545246e-02,2.799298297953366210e-02,-4.106421343401820551e-02,-4.607003031133875826e-02
1.811240597397948196e-02,-2.388689680509105406e-02,4.068057556811719572e-02,-7.669103656391011237e-04,2.653655167028771272e-02,-2.931254595774149610e-02,-4.273438015492222325e-02,-7.334978146355204676e-02,8.742799325310880720e-02,6.099268592024190139e-02
8.760170179298895632e-02,-6.289316753072018984e-02,8.699621317720782065e-02,8.715510382454386140e-02,-4.188427872902864696e-02,-4.502174159813779331e-02,8.402127243578276158e-03,-6.293652471082690492e-02,-1.157070436438569286e-02,-6.292145511453849094e-02
8.948493664839868300e-02,-1.225941579225579966e-03,9.308440180223746807e-02,2.900002124199690945e-02,-2.102526218107461306e-03,9.356328539719158122e-02,-7.280557276524128596e-02,2.647545717848314925e-02,3.239264439331591278e-02,-1.320292895112529750e-02
-8.812599158531787824e-02,-1.456848989988337355e-03,-7.240508658577489084e-03,6.134393946435617861e-02,-5.011176712443987658e-02,-2.177093971759877858e-02,-5.017665981713114592e-02,3.728472316333139580e-02,9.797291922265215225e-02,-6.452275669042718820e-02
6.428968221686348627e-02,-5.380045885186093141e-02,-8.856491117051346063e-02,-7.223540803640077224e-02,8.641522464787033952e-02,7.770187877849014935e-02,-4.137456902839802692e-02,8.955540178228557635e-02,6.998672274675571403e-02,-1.306701494257253397e-02
-6.387750635591555280e-03,2.602247652198254324e-02,-6.823384615476253690e-02,-9.703085011342234278e-02,-4.700341635707106641e-02,-9.689528618525863890e-02,3.470360033382330345e-02,1.030733462710920617e-02,-3.565341794183599089e-02,5.606921795873069658e-02
-7.084607814461850450e-02,-5.103106816230914416e-02,-4.144112630895302463e-02,-6.081661337220119895e-02,-8.134116077627696895e-02,7.399932430952003981e-02,-8.351939764314639247e-02,3.674007109275420624e-02,-7.591957178594908873e-02,-9.785927841838143459e-02
1.144215240821295880e-02,8.136676875570852951e-02,7.218324562722210069e-02,-3.232676118307481472e-02,-9.383710375283396687e-02,6.016682766082744049e-02,6.051775307851138541e-02,7.367935875844409954e-02,3.391266016765599051e-02,6.153550487719866569e-02
7.949882029624849578e-02,-9.214994657436420197e-03,1.150072901453293682e-02,1.225873529098276196e-03,3.782329800163493350e-02,3.657755715367668609e-02,4.693120808289938731e-03,6.569454510337485731e-02,1.156423949962966536e-03,6.496366092340886966e-02
-4.363370004216141074e-02,-6.432060827529911817e-02,9.393533359333129662e-02,4.838193274740312105e-02,-4.786275085711243910e-02,1.624445103894279693e-02,9.096331049767385213e-02,-8.385386549005413581e-02,-8.330009818734576688e-02,2.381844544442632619e-02
-5.507809566853019007e-02,5.304751632324136712e-02,1.340841656803164889e-02,3.325724735004522564e-02,-7.969133912787451646e-02,-8.314481974086174176e-02,2.640663979492203356e-02,-1.803772904488019219e-02,-8.253786401832806374e-02,-2.577320857558634479e-02
3.443344142581877820e-02,-6.210799177488473405e-02,7.858034589904767941e-02,8.993119398310614465e-02,8.630107337279849244e-02,4.579461716611119698e-02,-1.175196729416197114e-02,4.873212435189520908e-02,-4.245799629757393556e-02,-3.717401420474641255e-02
2.121278923368978553e-02,1.900178636381015182e-02,7.740337593247229031e-02,-4.895245288935687333e-02,5.958600193546654405e-02,8.868232513514841264e-02,-1.088093392027615069e-01,-4.733042631456197899e-03,3.151253593696156513e-02,6.883451063162146499e-02
-6.324898023266307956e-02,7.117099040770522023e-02,-2.795823259684677986e-02,7.840234926189040832e-02,-9.987411327293498065e-02,-8.315208764827426713e-02,1.031562633439352950e-01,2.185829049987042527e-02,-1.661909805407725191e-02,-6.625560945308625604e-02
2.998659772929362227e-02,-9.259015671465006814e-02,-3.774153710972198011e-02,-3.528847662746133207e-02,2.088609058456508336e-02,3.007635574802720521e-02,6.983554050494368559e-02,8.553836307668288841e-02,3.212437283599545168e-02,1.567478396087128301e-02
-2.026760896340725621e-02,9.332261350593239191e-02,-6.893262154395342345e-02,7.901840996232370462e-02,-3.782905763312710556e-02,9.724663731612450887e-03,3.614048675858451409e-02,-5.270811743087289863e-02,-6.642969537180967721e-02,1.711083493109214447e-03
5.838583458938986087e-02,3.864164353110949301e-02,-7.603332106793146694e-02,8.019085631687797311e-02,-4.393375499905987844e-03,8.936554075461229651e-02,1.035451796384784587e-02,-8.300035971835931226e-02,-5.937809575045038119e-02,7.093569343777675340e-02
4.115579280068170503e-02,7.914131564772616811e-02,-3.334718136961858231e-02,5.661042214540302001e-03,3.434185719068005155e-02,1.955527206196678441e-02,-5.987890861186897368e-02,-1.461378945077557688e-02,-5.028522425943050822e-02,6.921262031493022326e-02
9.737039082205908858e-02,-8.672117219923979048e-02,4.337662603552121937e-02,-3.391581392924444133e-02,2.814695669297991032e-02,-4.829179153531770047e-02,2.626697516189284778e-02,-2.576438262394788875e-02,-4.095635905658199377e-02,8.240771206503645641e-02
8.850488325501340570e-02,2.256301572192214236e-02,-5.786322300645409256e-02,8.784712453345541738e-02,4.493475009554269428e-02,4.955827781493660211e-02,-5.069498107269304610e-02,6.601313079912303483e-02,-5.207070953528376844e-02,2.622226479273367938e-02
4.215122089791808330e-02,4.854059505581261730e-02,-2.237320073019835251e-02,5.196732275637023363e-02,7.774984333668319425e-02,1.738052827949921816e-02,-7.862014266109622340e-02,-7.419216637473143028e-02,-7.895309295474198241e-02,-6.546196518463634484e-02
-7.473148753117789256e-02,5.567643146647047181e-02,-9.208664633874162619e-02,-5.168631710017684150e-02,7.477668665516988555e-02,9.461103501002375571e-02,2.201818796000279410e-02,9.525661248150980864e-02,-9.121414825773291324e-02,8.977395654581281359e-02
-3.775241060579689195e-02,5.981920549564804374e-02,6.231672874781863519e-02,7.201043229153669678e-02,-5.836038291143629160e-03,8.620697002994501257e-02,-5.117929226932635411e-02,8.688167620185707762e-02,2.384151727029829373e-02,9.709018034237740236e-02
-9.348565862061464227e-02,4.500416242384263493e-02,1.357260199522284348e-02,-1.528885080187293230e-03,-4.556498100624989389e-02,-3.427759444632987040e-02,-5.342380260074569565e-02,-5.617560718291456784e-02,5.993254330785821593e-02,4.719369182501590722e-04
-8.337302250136496840e-02,5.539247985308935057e-02,6.623894894708765371e-03,4.786999934753705110e-02,1.778286226942696856e-03,-2.019169509118918723e-02,9.884024017761593173e-02,-9.433076637431644929e-02,8.654322954602977624e-02,8.617912184230250294e-02
-2.182507345433572221e-02,-5.717222722595509399e-02,2.379959240021837369e-02,-6.441933099722325917e-02,6.167672227551267844e-02,-4.918034332885368176e-02,-4.265210084864513168e-02,8.316221268358817142e-02,8.052227689173215019e-02,7.034458902260378767e-03
7.259907177563247604e-02,-2.955902532952731435e-02,9.882193123065208251e-02,-1.325265613810193768e-02,-4.467332701862181121e-02,-9.182533463696992970e-02,1.025090107284162416e-01,-7.010639039952621873e-03,4.690447686410922912e-02,2.815029867556935808e-02
4.346763134127606260e-02,-8.999855266157007205e-02,8.954658022988992716e-02,8.530432543805779866e-02,5.983352688971311367e-03,9.095716599552813864e-02,-4.152966257505909253e-02,2.040332884539711525e-02,-2.075724077775742069e-02,2.554105719078509154e-02
-3.794122144280627495e-02,6.474960440661810257e-02,-9.487725475215184889e-02,-9.134089953795636319e-02,-8.171623898038619938e-02,-6.722110627623380241e-02,-2.715516415294700822e-02,9.124769380150205000e-02,-7.745164303538080997e-02,2.982513467958195288e-02
4.347403728393437264e-03,-2.985965442827256955e-02,-5.373450619028293657e-02,-5.591174453229972446e-02,-9.507244163859171482e-02,3.944622242586601907e-02,3.326861689505837549e-02,-1.127209409631979749e-02,4.356439362834835932e-02,-7.814256360189178463e-02
8.769276847386935081e-02,6.970282802761912366e-02,3.226604770296376962e-02,-2.416456295412835673e-02,-1.768648688425789386e-02,-3.671955429171299377e-03,8.715968903189663664e-02,7.281748605368497385e-02,-4.323380930501436251e-03,1.105805381358106534e-02
7.502822294128626279e-02,8.989855453845616018e-02,2.819962140662671604e-02,4.971812984015368947e-02,-2.924398380637907927e-02,8.346807150095436612e-02,6.665658903734175689e-02,1.039953008100210144e-02,7.354922120651760653e-02,6.999276717210740906e-02
6.171652702898657722e-02,-7.355494244630676748e-02,6.969406529557908847e-03,8.025400744763330763e-02,5.344633612240935056e-02,-1.572557883244685498e-02,9.544478413076169787e-02,-4.975398449237186660e-02,-3.302955822786975831e-02,9.101284002399340212e-02
6.230304852833403600e-02,8.018842009106703916e-02,-1.013600626025006612e-01,-2.406539858487735314e-02,-4.772393794370907716e-02,-3.846882851312128510e-02,4.295900561884046648e-02,4.480182967469373279e-02,-7.593177825864507423e-03,-2.683677918062387854e-02
1.738209460444767318e-02,6.600237385208101645e-03,7.104282301471540398e-03,2.307880032473102333e-02,-1.948980942830610616e-02,5.491228460104125020e-02,-4.876162546548281490e-02,3.107320439381958121e-02,9.204614451732194558e-02,-9.939789075794694395e-02
4.365729779472336813e-02,-7.839805486072770613e-02,1.312976945860210194e-02,2.535047647746051583e-02,-5.557041224914840982e-02,8.149195845601903132e-02,2.710039976006098361e-02,-5.368545863982980559e-02,5.385035203831756850e-02,-7.902691316164961455e-02
1.060318431240250651e-02,-8.105262693762524395e-02,1.865821073286698731e-02,-4.940947011876847123e-02,2.738583785744119412e-02,4.173175713532655678e-02,6.756196945716955171e-03,3.152960035085036750e-02,6.266875856999082339e-02,6.151904590816444085e-02
2.387934282921175960e-02,-9.631492585158550265e-03,-1.821951735329305905e-02,7.495662127429021659e-02,3.955196842712328797e-02,-6.313398364652343664e-02,1.384473486258960134e-02,8.178507480391472573e-02,-6.979257147354218926e-02,6.917915572587560180e-02
6.437299186666010919e-02,-4.314894343961508065e-05,-9.505594682190293687e-02,-7.046626554285692623e-02,8.513844910817983114e-02,-9.014136236293926463e-02,-2.510818992230003099e-02,2.381451344366398645e-02,-6.056005253581201592e-02,9.624693421104735247e-02
-6.848678159741650173e-02,7.946123367969683618e-03,2.222820998817204644e-02,-5.383090665376009248e-02,-5.003991480556254680e-03,-7.436379264871964328e-04,5.165182571425080971e-02,2.682019265643471873e-02,-6.453101722953121129e-03,3.339385663895497874e-02
-9.615289548173911599e-03,5.209543175662968185e-03,3.329355631959522027e-02,-6.375713228612847616e-02,5.676744659216395594e-02,2.019487907392589210e-02,9.580702349566919129e-02,-5.551026531532714942e-02,-6.684408068243967958e-03,7.917298366506814178e-02
2.034432697193867129e-02,4.515515559319830535e-02,-1.715771018129752176e-02,3.685488229244818920e-02,9.028550642310420593e-02,-5.983664114596282807e-02,6.029999037398991318e-02,9.390289744756510903e-02,-9.717367644273187943e-02,-5.701578503182340441e-02
-7.727727406969726875e-02,5.332315840215264696e-02,-8.039889083072318532e-02,9.967673626146869581e-02,-2.515711937097364972e-02,7.909039624179564631e-02,-5.943609414791860279e-02,-1.184134387072318002e-02,6.879949062235747592e-02,1.897629424261880818e-02
-1.009845532936711268e-02,2.115440040237672684e-03,2.477527506704701662e-02,-1.207320382114902141e-02,-6.683001330706726806e-02,-8.125593303457194494e-02,-6.678928332924186084e-02,-8.952709501620220722e-02,1.161898103894163335e-02,6.939501037784041870e-02
-2.413667897109085525e-02,-8.436779130290454620e-02,-2.956852029937387383e-02,2.072348920383417642e-02,-6.482860637920964328e-03,6.844416605423339628e-02,8.219076285334062093e-02,7.413452119502758619e-02,4.133149421636306969e-02,-5.392061568073142422e-03
3.340991827160864208e-02,-9.820275595911057143e-02,1.095326405651032703e-01,-6.573682542345098134e-02,7.493995453080042057e-02,5.815009220847081051e-02,6.115710237862447690e-02,-4.627449139824332119e-02,-5.631682344802526469e-02,-1.444434327339591019e-02
6.948327627716530119e-02,-9.673765798340172584e-03,8.863440192938915052e-02,-2.932051579375419617e-02,2.325647675318821134e-02,9.552112517546561266e-02,2.795658941306363582e-02,-9.078343082158055188e-02,-7.172211746584095278e-03,-3.285983349591305863e-02
6.480998609421491537e-03,-4.302163875850860408e-02,-7.587050015376602119e-02,3.366052729400369897e-02,3.625531570378668494e-02,7.351436723584905963e-02,-7.341140652946609446e-02,5.972493211787319872e-02,6.540627895665393488e-02,2.932062692476345225e-02
-5.893934502847015394e-02,-4.738407258454495341e-02,-1.638920217366461596e-02,8.527694090568208041e-03,-4.421569015699003923e-03,-6.806531668076427725e-03,6.716780089045673585e-02,7.411959372067394858e-02,6.354969651392329555e-02,7.578294658736635381e-02
1.637439909124864881e-02,9.317915594480183361e-02,1.093986451475377486e-02,2.087193661209463605e-02,-3.062585248086196338e-02,3.999364611744395115e-02,-9.148792910100653208e-02,-7.305788871710601484e-02,-7.378465641903111938e-02,3.119621846021196354e-02
-6.360699895301484552e-02,-3.194148994184663193e-02,-9.570977710555858553e-02,-5.330518527966630893e-02,9.530909307039314715e-02,3.981387613887434236e-03,-7.060022538428853411e-02,4.526868372693715163e-03,8.859021362812960487e-02,7.298963527156576703e-02
-2.352086886219136030e-02,-4.389251668154544456e-02,6.026957108556314086e-02,-5.208938712495030793e-02,-5.326868082126870463e-02,-8.561096742509692603e-02,7.457954108039833996e-02,-1.045274930984375905e-02,1.225896951502521322e-02,4.712839052884997687e-02
5.829805489927313011e-02,-1.051736495579562967e-02,-5.914420701452361567e-02,6.581777304707900345e-02,-9.577830330680781046e-02,8.739838444714824461e-02,1.605491710522455318e-02,7.513678216331363957e-02,2.175653162098091856e-02,-4.958751814271452479e-02
-4.084450934174477243e-02,6.574389825961994040e-03,9.349437868212741309e-02,-6.302432502732630004e-02,1.464370706469624982e-03,-3.172438646323360451e-02,5.360568380758427842e-02,6.062050939902358798e-02,-1.499207516968873583e-02,-5.905663179298469012e-02
-8.580000567558355995e-02,-6.010403566281879301e-02,-4.861896502492248778e-02,1.975415398867605421e-02,7.556565616933161311e-02,-7.343309242315017304e-02,9.196333877024366610e-02,3.663121941529623449e-02,4.836271084058429287e-02,9.656832681761182147e-02
-1.578482605021377938e-02,6.480849916806360328e-03,3.294083826060826420e-02,2.576918801429192198e-03,-3.775263975867709093e-02,-7.726318439849326480e-02,-4.545466635709322079e-02,5.373060950443300093e-02,2.826953871737673124e-02,6.029011143493774594e-02
2.645077059503969479e-03,-5.350387133737243006e-02,2.830735666251443794e-02,-3.916193080479290350e-02,-9.531166917671927974e-02,7.965567601809982190e-02,-1.599978192246079983e-02,-1.474199652471456026e-02,4.835884420451849047e-02,8.980397211042587258e-02
-8.527845749200366199e-02,-6.542730658031875590e-02,-3.644702235840127647e-02,-5.032803203863066288e-02,1.474532516750845805e-04,6.528364475301831615e-02,7.000996939075600223e-02,1.918135863750971767e-02,-5.196598439998482283e-02,-6.269127858278911170e-02
4.665102554482856989e-02,-5.290796954701072752e-02,1.521924679793588628e-02,4.976472915121913504e-02,-5.831007649815996008e-02,-6.763904463158740277e-02,-9.010187972847367999e-02,-7.046082130015231260e-02,7.011135920542485578e-02,-7.922539234298323074e-02
-6.095613033414368220e-02,-9.394660981104664688e-02,5.405804237428780967e-02,-5.386578082332770662e-02,-2.603786268347951099e-02,-7.954426779752048204e-02,-2.006069023265101212e-02,-1.516048447441968941e-02,-5.675172535912565222e-03,-1.584775766888000745e-02
-7.160316524022201923e-02,5.587749340695084832e-02,-9.733569375873599161e-02,-1.436043819604385097e-02,-3.083291044072289377e-02,-3.043960713548030800e-02,2.328602343625497256e-02,3.865051050608901174e-03,-6.142556855375222447e-02,-5.185534455401140733e-03
-3.770843107723925031e-02,3.972181945449467649e-02,-3.764767293044806590e-02,6.858249524435355848e-02,-6.863798044727179373e-03,-6.327154479241459649e-03,-3.992375724708577961e-02,-6.278846841321773786e-02,-5.871417811846520868e-03,9.591750567240603376e-02
-7.384976777378565727e-02,-4.319097650296323254e-02,6.225538628241831379e-02,3.331884566993145724e-02,-4.535039261400833355e-02,-3.815717535507082842e-02,-1.641612213460223388e-02,2.067246617782931076e-02,4.403645826429891663e-02,7.159465311978760460e-02
3.642685046944043464e-02,-5.246772693126912357e-02,8.462242316743943948e-02,5.624918446500670050e-02,-3.820432647988022262e-02,-3.893681843594400810e-02,7.592255024606806013e-02,-7.478179184719659089e-02,2.676541585986891986e-02,-4.444036880407455786e-02
6.549589721555458544e-02,-2.676583902746466209e-02,4.697908582062692434e-02,-6.116249673520463004e-02,-3.076977126525297455e-03,6.044953389373041580e-02,-2.277945070558160326e-02,-6.749254430006740302e-02,3.001317839965196924e-02,5.102332488948759653e-02
-3.707076699004362152e-02,-8.983753680773608197e-03,5.898646381762007174e-02,7.477295828660439347e-02,4.975553624923755719e-02,2.641183686364058369e-02,5.934199236960106122e-02,8.155894512132513818e-02,-9.927703462966512571e-02,-2.012827903640270963e-02
1.412436209127005196e-02,4.659451126978862018e-02,-8.653956139767736422e-02,-2.025879429542670751e-02,-3.861701043680761114e-02,-1.314285668272532209e-02,-5.418297984230174662e-03,3.198257759545677231e-02,-7.527085829415431717e-04,2.410577806311463983e-02
1.288312177521334576e-02,-1.510695080145521736e-02,-8.657060479219257088e-02,-6.132797832999031806e-02,-4.362558715432891809e-02,-7.482349939529581162e-02,2.449991558234789965e-02,2.225496370622195852e-02,-2.019043329079607031e-04,-3.627040863681266908e-02
2.867528024288698574e-02,-6.204681100557481177e-02,-9.267478145167892811e-02,4.702901204348323289e-02,-1.564882130946835051e-02,3.762812643407296292e-02,-6.069783161777995290e-02,-8.747275585911698514e-02,-2.440478470689631113e-02,3.910902355712812112e-02
-7.957942025937102259e-02,-6.057935555725226656e-02,-6.695337547284045329e-03,2.446449788720094984e-02,4.949451962571303765e-02,-7.909628020115065661e-02,2.352594335935025496e-02,-2.254743708688906195e-02,3.403102056727213415e-02,-5.916843352880014895e-02
6.539696915874545699e-03,-6.544051784815411998e-02,-9.849152429025792577e-02,-2.668170914513332340e-03,-5.988454908408698263e-02,2.897215415571273087e-02,3.972020327649589469e-03,5.494870463713950187e-02,-2.144078458699660850e-02,9.792615954361484631e-02
4.846798594376901248e-03,-4.197647315052835046e-03,4.300988322838163874e-02,1.427641564115105302e-02,-2.403062817936384848e-02,2.229208292040505161e-04,-6.278351588373991266e-02,-2.130785658635700117e-02,-9.395074980383771868e-02,-7.467307273910233321e-03
-4.573399596978200421e-02,5.417599300867445046e-03,-9.155350304313646104e-02,1.120593896353776903e-02,-4.361001505730070088e-02,1.432649514254804267e-02,4.742481726471550751e-02,-1.187854095482910981e-02,3.280007943717691554e-02,-5.215649837592531424e-02
9.992288897997664288e-02,-5.133573159339425290e-02,8.585432842166508538e-02,-5.654392333408874566e-02,-8.314333688318162915e-06,6.513177602811062727e-02,4.386496394477638894e-02,4.115272018097965168e-02,-1.189391367554952506e-02,5.086543914578702669e-02
8.081178383537078458e-02,-1.228131304709157920e-02,1.827532094003507523e-02,-8.683561159254317430e-02,-2.886650519726520828e-02,-1.081299422714817118e-02,8.145936241756850105e-02,-7.775852918831924199e-02,4.624117485129432270e-02,8.891701870633596586e-03
1.516442089255640342e-02,-9.506909514585799859e-02,-5.770370488556743338e-02,-4.345523527124490332e-02,-1.057888149891019758e-01,2.821394887818302541e-02,8.175260202758093120e-02,9.288981230070509493e-03,8.420686504140057968e-03,2.261522274921971831e-02
-3.343472528939270272e-02,-2.517125275063204770e-02,-7.073303795472413386e-04,6.230697550462074158e-02,-4.719030299192396305e-02,-2.503125410377035620e-02,3.225233007650425004e-02,-3.153975932742621169e-02,-8.991542629437153378e-02,-6.756928639742840192e-02
-6.573280390019252406e-02,-1.745593238584826085e-03,3.699416792407478338e-02,7.569392018646643738e-02,7.025644932406251153e-02,-4.472154592396680034e-02,6.340723395521988270e-02,-4.350906586705612783e-02,-2.648375284464795504e-02,-4.193280541918492643e-02
-1.783789278803182832e-02,-5.673740497962664886e-02,-3.421076299096276196e-02,-7.530307024346548361e-02,9.127963345132289463e-02,-2.741763508854904211e-04,8.425311268313015467e-02,4.939918099951286223e-02,-8.236992498470502994e-03,5.124874023201937689e-02
2.602752394201039016e-02,-3.921752834181920638e-02,4.049408637873984536e-03,4.241685565787439716e-02,-3.762106059270224623e-02,-9.750040629604767028e-02,-4.784900080555622159e-02,5.932835877774121636e-02,8.607156204384157350e-02,2.507867472619436378e-02
-7.294731610519415710e-02,5.210988441439574209e-02,5.988961918949620503e-03,5.125852570917267120e-02,7.141583034718092249e-02,8.925794377431206517e-02,2.841510633057624594e-02,7.106413963299465508e-02,4.876886078113150391e-02,4.582616444326617633e-02
7.589847238362694426e-02,8.492428753268918551e-02,7.073070539966906656e-02,-2.071968946986265520e-02,-7.468602903067257659e-02,6.999520418020502288e-02,-2.478932013556341043e-04,8.429796508546508541e-03,6.511329451105056509e-02,-9.316169254260002475e-02
7.674778546961487369e-02,-9.343961791390253957e-02,3.704791999828383614e-02,1.705423793330401727e-02,3.171332218190441032e-02,-2.357484830715728466e-02,-4.855368511323052833e-02,1.762008830324544384e-03,7.718884288614787093e-02,1.307127842824735292e-02
2.953561388724274678e-02,-1.225601889837152521e-02,9.923680543168010570e-02,4.830376882323323545e-02,-3.511733122739005980e-02,2.675612889757980964e-02,1.793719093487702865e-02,7.682396703918456526e-02,-4.508707727764428574e-02,-7.864957443167788775e-02
-6.317322339425800182e-02,-2.270072443469472664e-02,7.449300130021563326e-02,-4.568174385907986662e-02,2.179552419852214332e-02,2.238102591637835745e-02,-1.484372725732654996e-02,-8.987024482841686479e-02,4.896152204764895460e-02,-4.094635572209223001e-02
-2.056116615648873741e-02,-2.428252906715604870e-02,3.476155133153580046e-02,-8.235883642619325207e-02,8.882348174181702027e-03,-9.782973355270493943e-02,9.597400281576035086e-02,1.974044848259945764e-02,-2.308756013183761030e-02,-7.058376746325978335e-02
4.001530680408894175e-02,8.117143093481245242e-02,-3.729587416078413570e-02,5.323926478713085497e-02,-4.216411954192589295e-02,9.218771960953950351e-02,3.978644963628704539e-02,2.495074269853010673e-02,8.615765659097476825e-02,-4.622466676865792656e-02
8.587846558561210153e-02,3.559555653891920829e-02,5.027386059150353720e-02,1.404545673597070582e-02,7.014273823123376439e-02,4.153358427421260934e-02,-7.268340545342698300e-02,2.238579311441140154e-02,-4.407640076222626990e-02,8.313472913996322600e-02
-6.116966892430101416e-02,-4.255961772779422864e-02,-8.863167614519364135e-02,-1.034083343833431395e-02,1.029993356305427751e-02,1.343737033868609362e-02,8.182032329322862230e-02,-3.047328852035245325e-02,-1.039812192381003170e-02,7.039335692541887068e-02
1.572761444898867003e-02,3.086555111024600132e-02,-4.615451320352962489e-02,-2.514682461369741745e-03,2.503776470534543885e-02,-7.251078618202493054e-02,-9.368941517430237620e-02,-7.732177668319079045e-02,-4.478246867433913724e-03,-9.520014638283727515e-02
2.187377466474981283e-02,-8.075891247461007560e-02,-4.082427353982118201e-02,-1.482461780355909774e-02,-8.380578380603899424e-02,-5.064421971764036801e-02,-8.922431162376741332e-02,9.706402198056679476e-02,2.230664015609517062e-02,-2.442682891754933625e-02
-9.834187925185419732e-02,-2.267741608436901757e-02,-9.114581456840921067e-03,8.581945465094538428e-02,-4.379620688027347636e-02,1.889478845691319048e-02,4.185722192404823377e-02,-6.292270437205363387e-02,1.041860199924289502e-03,5.656114657008508989e-02
-7.413954563726025959e-02,2.254941519972294278e-02,-9.474840140870173510e-02,-9.762811389844977539e-02,-9.023613671798036417e-02,3.152826127944787209e-03,6.810110200626860733e-02,-1.837515630980012665e-02,-8.395191495000391135e-02,7.413525799501502478e-02
-1.111278229434465182e-03,-3.666090285517922126e-02,9.177712268666086970e-02,8.738287337798002208e-02,-4.605620844151136345e-02,-6.438164376051491722e-02,2.791339262652330067e-02,6.845058890887351088e-02,-3.277248667007104377e-02,1.656170469713000304e-02
-6.723183943062810419e-02,-6.056756050623739174e-02,5.206284909584437542e-02,-6.968146185821419425e-02,-4.662890133731233816e-02,3.750800541183733211e-02,-9.835493508043223476e-02,-9.331609046348796066e-02,-4.227894635961645942e-02,-3.248968980685893598e-02
-2.725676237882801792e-02,6.144279928206509284e-02,-9.321318250869767286e-02,-2.838573456287387178e-02,2.798477734273966538e-02,-7.137263099437818337e-02,7.138612486729782602e-02,2.904853825160687297e-02,-7.687627720998736758e-02,-5.840585321364597654e-02
5.011657613889353852e-02,-1.862009751320821069e-02,-2.637337651268307093e-03,7.808507830900718316e-02,-7.130339002783012137e-02,9.283266297594436334e-02,-9.666438455796935725e-02,-7.981733706148851082e-02,-5.497776599394793573e-02,6.189397485513610520e-02
-4.449339037053185245e-03,3.117811974659423849e-02,-6.460300828154524888e-02,-6.650178255967199858e-02,2.410371907396078109e-03,5.229465197904698687e-02,-1.629461074476392865e-02,7.384869393651627423e-02,3.224836677805276858e-02,-4.955154985058948108e-02
-5.162610319072329784e-02,-2.588767077088677260e-02,5.288892742858365692e-02,8.693913297386213213e-02,6.829091512794395469e-02,-4.621330016337384800e-02,-1.616565972800276460e-02,2.202343524899576591e-02,9.398753976925158099e-03,-2.225805511720518534e-02
-8.248565365126543647e-02,4.199564308759896891e-02,-8.520097063158767192e-02,7.302798106352038909e-02,7.558428560953321662e-02,3.894030579198452108e-02,4.010721731742428880e-03,3.984943362495924762e-02,-2.118050033386510711e-02,5.902507171566152844e-02
5.581512870668930981e-02,-6.871469555120324202e-02,-3.551670666293366141e-02,-3.091940068205557834e-02,-2.566783479933178874e-02,1.115200239268041536e-02,-9.115052481585546318e-02,3.213102564383410464e-02,-5.960833659295433629e-02,-1.665791256978747109e-02
-9.802245018428112563e-03,-2.994681556252673515e-02,-2.293474531957112247e-02,-6.383302867356346888e-02,-8.568346802234422244e-02,9.569145797263626033e-03,1.827234682418564862e-02,-7.088390972517373545e-02,-5.381152421280735454e-02,-4.269014047665256606e-02
6.649148730314113909e-02,-6.934159428049001261e-02,1.326671634390605252e-02,1.362594892587034971e-02,-3.568896824403473139e-02,-2.927308145387957222e-02,9.219326946663218558e-02,1.067508394322809993e-02,3.061748763889572678e-02,-1.683269632823560956e-03
3.067698351151091837e-02,2.079119606065451056e-02,-7.001408067399587931e-02,-3.323777037039094689e-02,-9.157395270239168314e-03,-7.303159905898848336e-02,-2.935165544561796694e-02,-5.457700750640367277e-02,6.964197991004142385e-02,-3.170027350897514085e-02
-5.505227013867163705e-02,-1.789526309140263352e-02,3.615686602593692206e-02,-8.655852426970035707e-02,-6.168108765579945890e-02,3.791022731908030158e-02,4.900974239121131532e-02,2.369481644631725101e-02,7.589771273753739833e-02,-6.614170823305154379e-02
4.103856282716730058e-02,8.368758241754020721e-02,-7.090128575312500125e-02,-5.108621061016394016e-02,9.971535783513518075e-03,-3.053268922115372208e-02,3.670353131874021235e-02,-8.835933332229943538e-02,-6.775084803261799404e-02,4.349407156401075003e-02
9.158008528467272147e-02,8.567631315322167540e-02,8.095863715470263955e-02,-7.439981461486087910e-02,-7.107613391398572011e-02,-8.853535169704120078e-02,1.331187516782313812e-02,7.678458174124778990e-02,6.476480165707054586e-03,5.636465729234442501e-02
-6.516207934735676610e-02,7.195332556380999722e-02,-6.684395333073327172e-02,-8.914426371749918643e-02,-7.796426676855061980e-03,7.480254447734256337e-03,9.899051863796974604e-02,-8.177770630442972311e-02,-4.557468810589924979e-02,-7.975090325070086084e-02
-1.699452068146215314e-02,-4.081858383065532780e-02,8.951375065610158929e-03,-2.919339413180838463e-02,7.575806176358576560e-02,6.406437020235193625e-02,5.815694532902363628e-02,-7.342721675536553749e-02,1.636726683247692951e-02,-5.495458715223211499e-02
7.126002530568553706e-02,-9.759067376691780982e-02,-8.487475268569952269e-02,-2.502445837689940347e-02,-1.393298164148148131e-02,-4.743323966721618712e-02,-7.316666738274013593e-02,-7.626786134742720435e-02,-3.654983438528431466e-02,8.916129689620906629e-02
-5.808156803612962021e-02,5.031782567157615932e-02,-4.917700907901880608e-02,-9.205035470820048527e-02,-9.422356459283896812e-02,-6.970517941420668884e-02,-1.230247332711660938e-02,5.166598570076137709e-02,4.608786127043548730e-02,-2.891880132350369351e-02
-3.816777648477371124e-03,6.275480554400976463e-02,6.797383429831740931e-02,-3.615528873023570594e-02,-9.956111682932484996e-02,-9.064947367533017497e-02,4.748682801237256307e-02,-4.556333029320669414e-02,-3.594047570539211749e-03,-6.153838561495150045e-02
7.054999940598490060e-02,1.436055079079395910e-03,5.859192109555737792e-03,-4.180662693734465973e-02,4.007191681693457116e-03,-9.937349519351114380e-02,-5.063653848334276342e-02,-2.987381416975136081e-02,-4.279899607294920805e-02,-8.223210675515299495e-02
6.854586449418611019e-03,5.824383061660760169e-02,9.364910413530017075e-02,-4.199899246433251294e-04,1.263456725282529822e-02,-3.833132294120957656e-02,-7.644027743976058997e-02,-7.366607048946485770e-02,4.650951583053439253e-02,4.749081198368129003e-02
-6.370679576594646953e-02,-1.797836870164767203e-02,2.111494763403467395e-02,-7.561315990285207012e-02,5.562458195775361186e-02,2.503461450649346193e-02,2.273498600021297070e-02,3.990176652056610235e-02,9.735880280595583802e-02,1.226965397140136055e-02
7.106545222665293371e-02,-1.660775659219998479e-02,2.683069264412115892e-02,8.514980880690271869e-02,3.696206681753914924e-02,-4.122371520776008796e-02,2.828888160211254568e-02,-2.958926345506808150e-02,-3.570405005195458059e-02,2.161242631554824087e-02
-6.840894916827877648e-02,-2.442626165248692159e-03,8.628577794364195030e-02,-2.288496407310262187e-02,-5.805378612121285531e-02,-7.657830472923926601e-03,6.784928618414745594e-02,6.878521162443503034e-02,6.562078333983262235e-02,-9.763959434875800480e-02
-4.630193339306196143e-02,1.001980490570148069e-01,-7.613133393445106756e-02,-1.903414666026681480e-03,6.046241813076302929e-02,-7.592222907814596966e-02,2.981306020078145630e-02,-2.347183605061363941e-03,-6.110398640665289788e-02,7.570426696698019653e-02
-6.347445698232183353e-02,2.795561320920760331e-02,4.995635438160003078e-02,1.258722524905595344e-02,2.485568430522203803e-02,-7.556253622219717692e-02,-4.071864248503024447e-02,1.741804953425109270e-02,-2.080769944365954555e-02,3.304160423134842872e-02
7.108286119898467315e-02,-6.238403293387505960e-02,8.280640938659367123e-02,-2.389330712472017768e-02,8.636388081264489980e-02,2.445232756174407773e-02,5.764747258252389539e-02,2.506486407920649126e-03,6.390125323809349965e-03,-3.442392884571868900e-02
-7.444894715751122771e-02,-2.271913876760360898e-02,-5.819316971682494261e-02,-9.305064404234000830e-02,-4.368928870362056432e-02,-6.432306806887748418e-02,7.413657134818335548e-02,-8.337998566130373768e-02,-6.316085458689633947e-02,4.106540742504197899e-02
8.400396456843181592e-02,-4.952628053858063040e-02,-9.558514032723267051e-02,9.230606080293514426e-02,3.610317129246144729e-02,-3.744156660873963760e-02,-6.789606910321040016e-03,2.004101698444491972e-02,-2.518615957933972860e-02,7.514633407334424253e-02
4.334769892141741854e-02,9.079879907929931659e-02,-3.357809349725816156e-02,8.764406280693992635e-02,2.854247473600605642e-03,2.636362710774267648e-02,4.774163087187487109e-02,6.216684646240099033e-02,-2.073921830490756818e-02,-1.052627353429453488e-02
6.145290938822190602e-02,4.269583626807581939e-02,7.875836567802586841e-02,9.569798343036380051e-02,-5.859467762943963709e-02,-5.747548695509744482e-02,5.487621818991055000e-02,4.922438615607398898e-02,2.020874845962526006e-02,7.434822872666396743e-02
-4.447652448234749867e-02,-3.068125178451910906e-02,5.981545836632799068e-03,-3.636065782155746551e-02,1.749991789048453749e-03,3.969899700047572338e-02,-6.985062085277098098e-02,-2.281090276001441260e-03,9.992106886987089931e-02,-3.331826266612247789e-02
-9.564358878499926164e-02,6.292266113507266612e-02,-5.640203730954246666e-03,-8.971888757189661057e-02,8.246572258151525781e-02,-2.178934202147806212e-02,9.536667678240202950e-02,-1.963114400088594377e-02,-8.487253141584739924e-02,-5.203766686617038173e-02
-2.957393921512864801e-02,5.068000654354395951e-02,-6.386623033398050597e-02,-1.340049909542740010e-02,7.635771503392743687e-02,6.403445066287137902e-03,-8.201907925291168633e-02,-9.485301205646938516e-02,4.138206211318989913e-02,9.615585404682770732e-02
5.763304951548119115e-02,5.292940394735189125e-02,3.523142706827164794e-02,5.897240783372110356e-02,-9.146806085353713367e-02,-4.691372885319881197e-02,3.773709044562792436e-02,7.328981480646890034e-02,3.502183396604580806e-02,-6.467124416754088667e-02
8.902701527456091668e-02,8.144126785103560084e-02,-8.207439304276288594e-02,-6.057555243054981581e-02,-4.306209002460345547e-02,4.816065608624763017e-02,6.348168468009134091e-02,1.630020632533313307e-02,-5.935365802939262386e-02,-1.626472888766561375e-02
-6.971511707919766931e-02,8.406287559981943935e-02,5.993155274561395157e-02,1.892060469056458267e-03,-1.593349121630726825e-02,-7.858483705585272983e-02,-4.268065022092108751e-02,-7.594940712640345370e-02,5.675920716307217978e-02,9.807247631453942793e-03
-5.438163738455972090e-02,-5.596077576634352069e-02,-4.603554174602610821e-02,-3.901010552049585106e-02,-2.402028971733748824e-02,-3.943887408757253826e-02,3.706295866817685414e-02,-9.362941483284943633e-02,-3.443190087218868378e-02,4.865296851707588688e-02
8.704716876960637284e-02,6.032872919208268764e-02,-5.621334927136219239e-02,-5.329560310010338781e-02,-6.109611600978103602e-02,7.393562959474685170e-02,-4.398412200518939802e-02,5.177301742947111596e-02,-4.803868039676111729e-02,-9.399978855659568699e-02
4.632205874728206191e-02,4.545797981047869363e-02,-8.457608505776927077e-02,-3.421047591890360312e-02,9.144164342818039692e-02,-6.876913970161865897e-02,-8.141598897745028207e-02,1.925035411401445837e-02,8.634532912568504415e-02,-7.331193529401350273e-02
2.979236241157484730e-03,3.692584377285245550e-02,-6.668808913581937559e-02,-9.776125161430458677e-02,7.885522968929452314e-02,-9.369500091235516415e-02,-4.843193371068918451e-02,3.039350076608937634e-02,-4.285307961900170631e-02,-9.819477397962418641e-02
1.546536263307869349e-02,-3.833166725474035363e-02,-6.872795089425674797e-02,9.433664355502026366e-02,-6.592533620883206380e-02,4.634294300725569360e-02,7.400779977822422029e-02,7.186495324810397711e-02,-6.298734090294354215e-02,-5.229458626095596224e-02
-9.524452602239205645e-02,8.614128320876913991e-02,7.989434635101166915e-02,1.870055766468234695e-02,-7.964297717052826187e-02,-6.380963560907469689e-02,1.206684409926949038e-02,-4.990245382807237395e-02,-3.982503979189844917e-02,-6.536994323067633894e-02
-6.191097394423858424e-02,-6.610201931427067863e-03,1.074860781729223853e-03,2.904122297491787148e-03,1.000957792850271921e-01,-7.441089986876960050e-02,4.967400782891679550e-02,5.911290938052119609e-02,1.709268688170629061e-02,-7.272537301773395260e-03
7.884903080008236198e-02,6.600506530735017474e-02,-8.862606312976392675e-02,9.301886212363082163e-02,-9.952797177764827197e-02,1.526159735300308858e-02,1.166558583985391993e-02,6.720631961181597336e-02,-2.289379357666034009e-02,-8.137442041836454032e-02
1.507888882915572014e-02,-9.520739216159010421e-02,-3.222647164371431061e-02,9.721289451575239327e-02,7.828507521573836725e-02,-7.128355341384461086e-02,6.296424734376442067e-02,6.235706092019933922e-02,8.573720924260910814e-02,-5.545079931004335411e-02
-2.794660423018660491e-03,6.491680854479292551e-02,2.914062058590957335e-02,1.831551055462309063e-02,2.703735961162661780e-02,-5.458888359471589929e-02,-7.914400586513981040e-02,4.681243038951129337e-02,-3.521884445676348729e-02,-2.577245885960429903e-02
2.597259069172500393e-02,3.249780727474937958e-02,-5.414464830410663232e-02,6.582466147286503144e-02,-1.905352399686946127e-02,3.058409770530109636e-02,7.070184661642285595e-02,1.351315035723667408e-02,-2.717020123628643632e-02,2.522250945419230589e-02
-1.755750876794419336e-03,-9.968178812792195809e-03,4.303548060698556693e-02,8.467470442149158116e-02,-7.215209455641179506e-03,-8.395666486594009770e-02,2.588939323043633681e-02,-5.131514386636637504e-02,-9.227000597653647884e-02,5.703624495176491671e-02
-4.426635494212145805e-02,5.606897634292228733e-02,-1.440073482312051239e-03,-3.548578040641808817e-02,-3.692341440871153152e-02,-9.151847816324092111e-02,1.310742492188764728e-03,6.531854567125117139e-02,-8.274540869044998137e-02,-7.783090942972598070e-02
6.445018021200325624e-03,3.196593001725691469e-02,3.914677274703901033e-02,-3.749615761773641281e-02,-9.231952521754421825e-02,-1.690131618589463258e-02,-5.581316174133948288e-02,-9.981875418455213311e-02,3.723031775767438045e-02,9.048971478017077408e-02
-2.044660572943694105e-02,-3.957737403544424326e-02,1.142086240097064768e-02,7.106170925921546921e-02,5.930073192655777731e-02,3.733574274810960714e-02,-1.898750285224263396e-02,3.854661583274388015e-02,-5.617088501106941995e-02,-4.260083643839591983e-02
5.805512323599290592e-02,8.637718085909296128e-02,-5.822089399547133309e-02,-4.062229475464586986e-02,-9.580579402095441843e-02,-1.164756714233756811e-02,-7.092178577727424604e-02,2.832727312360666314e-02,4.212732867597041020e-02,-7.531400277689995204e-02
-8.434028560925765916e-02,8.059085923164886756e-02,-2.135571016828409843e-02,6.075875268471898037e-03,9.279565894892047306e-02,5.242036937947120584e-02,-3.294013042998641255e-02,-8.363679566216371264e-02,6.869685211683772448e-03,-3.308833435164899167e-02
-9.707632011692467200e-02,5.427359283023325959e-02,-2.517608725192144875e-02,1.444562994105407991e-02,4.913594761142114214e-02,8.670745602799231899e-02,3.011639173552153187e-02,-3.689918233729486130e-02,-7.816443268571948710e-02,-8.588855443177535742e-02
-3.635753474904232507e-02,3.250932421809668571e-02,3.766405334213877854e-02,-5.802253586317700912e-02,-8.417618426204705184e-02,-4.003775526065197349e-02,1.197420037770536780e-02,5.122651773389828161e-02,5.949201215074652847e-03,-4.261090172392629355e-02
2.486485354463095071e-02,-4.704598927970438799e-02,3.068240566785864626e-02,6.850604944110823269e-02,2.735535932664027309e-02,1.247436675857994427e-02,-3.768436727729521790e-02,7.530691083317389567e-02,9.780317361767298934e-02,5.541864838385403974e-02
1.491203613416409481e-02,-7.171298348823264279e-02,-3.650100624541971484e-02,-2.655362109135964502e-02,-4.101957597312096832e-02,-9.968114892953313863e-03,1.958133401016705702e-02,-5.733014664440420904e-02,-4.997749542719465837e-02,-7.742704400920373542e-02
-3.723098247868379673e-02,-5.002870277515363961e-04,-3.589981309952103598e-04,9.881671199604129263e-02,9.727913226108828026e-02,-1.139080538344773227e-02,8.861249809591988102e-02,-5.729179881428795446e-02,8.713849553256134556e-03,-8.835734950036042493e-03
9.375584258473343424e-02,6.768554641963658858e-02,-5.687593090651994754e-02,-1.152699037163826441e-02,-6.615279642347940414e-02,5.160732460768762894e-03,5.665476505529753321e-02,-9.234245405294190523e-02,-6.151902138766054268e-02,9.580302557130823682e-02
9.257366570861838562e-02,1.171460188023631943e-02,2.952304057858220684e-02,-4.506000480409295267e-02,9.086648205914625576e-02,3.480797480610746397e-02,2.951963456329738736e-02,-9.743790455984679966e-02,7.076483370461417177e-02,5.605687406146137031e-02
3.576288848101423501e-02,4.792685136871662616e-02,-7.113756493115670765e-02,4.380487932169248311e-02,-8.141733657332959895e-02,3.951712567310952662e-02,-9.239247704931595473e-02,5.542634892965425664e-02,-1.891652917476285443e-03,-5.967850614919816693e-02
4.377759840477141173e-02,-3.699505095614048084e-02,7.409063263881549011e-02,-6.416548853068129721e-02,8.471105460995204117e-02,9.132629756646208630e-02,-2.675315364158819056e-02,7.228897280530095781e-02,6.811367296574281915e-02,-1.599130855949069605e-02
-2.478323189905928467e-02,-4.317267654310691372e-02,1.016820580669968721e-01,-4.829308942693018997e-02,8.829759264907476035e-02,-1.056921854125358537e-02,7.047388129668819001e-02,6.802701502044465609e-02,-6.788438852378025912e-02,1.591266400694685973e-02
3.378421909964889058e-02,-1.886482662055046985e-02,-1.007480194514930594e-01,-3.502388953458933363e-02,6.548893065450493711e-02,-8.913578235034244623e-02,-7.128427557747533949e-02,4.023033103998123472e-02,2.567359636155595176e-03,-8.474651301662443651e-04
-2.462727835282864722e-02,2.114705272076919731e-02,7.113778739208254098e-02,-4.418810584323839413e-02,6.905128961025815137e-02,-1.711857209184760448e-02,-2.847500829920321906e-03,4.631352448593448884e-02,-4.791523969500847968e-02,8.461938010067468485e-02
4.089192703252374911e-02,2.375664689011288203e-02,-4.500122216388895841e-02,3.912933897180548987e-02,-4.836146755081802834e-02,6.344194543540813969e-02,-9.897008517563234131e-02,-6.671450314997094677e-02,1.165878656735346020e-02,4.249757049863518710e-02
-5.785361813023702981e-04,7.588021761506137663e-02,9.598289698569480166e-02,-6.554912904700391403e-03,5.406798074927921666e-02,-9.345272531461337132e-04,2.877425432726352789e-02,-5.457685035179769134e-02,-7.772652221598420896e-02,9.601013661167143165e-02
6.419456834553147195e-02,-4.284657877079312699e-02,1.907346001613164851e-02,-2.382762499975060733e-02,-6.219504991068592475e-02,-1.474896951134041685e-02,-4.882243035022003352e-02,-9.659667098818669473e-02,-2.236717027889697021e-02,8.484530189176725523e-02
6.464981410990333632e-02,1.408340188148770288e-02,-3.700328530741524985e-02,-5.462790553758091472e-02,9.099442476455214812e-02,1.338621038377241224e-02,-5.151657458817399809e-02,-5.082158983874134756e-02,9.140549347101831201e-02,-5.288727998791812462e-02
-7.922948172279188628e-02,-6.300153628813748297e-02,5.222159184856557668e-02,4.187205178832130448e-02,-1.342067001107823294e-02,5.708795715214814992e-02,7.333638738613867079e-03,-1.714150009015419363e-02,-7.648971761934153513e-02,7.674274186117482910e-02
-4.491374989518642086e-02,2.345912466540314364e-02,9.646375410999089017e-02,-6.182763464666158476e-02,9.231388537179699427e-02,2.956015631830499757e-02,-7.292092410448465511e-02,5.467144935172370962e-02,9.037984547693361792e-02,1.260812886807712724e-02
3.759087731517832265e-02,-9.486970609996896175e-02,9.773336005888523526e-02,-3.633441780860997838e-02,-9.552518507458157559e-02,6.092876712648761378e-02,9.649060529566147459e-02,4.742940885670887674e-02,-9.959627270920182185e-02,-8.747919838184881058e-02
1.690907000437094285e-02,-3.279084429946553525e-02,7.661594604521135277e-02,7.485559068006164551e-02,9.763622643097198683e-02,4.391166927167127615e-02,7.396999402764811715e-02,-3.599439416370947553e-02,-7.781153830481819800e-02,7.308090235642701604e-02
-3.858504544929441948e-02,-1.609462980170683205e-02,2.998617192458340533e-02,2.094894803343614470e-02,-1.466411278457736313e-02,-2.155314396155428788e-02,-8.010989286167774504e-02,6.788407710839462587e-03,-5.304976723075841005e-02,5.137561607028002381e-02
3.518640687219319607e-02,-8.536221347061458131e-02,9.835977120276812036e-02,5.679605985807131135e-02,-5.443851164301603818e-02,-9.429643429366406371e-02,-6.287239872788070137e-03,-2.905034724043362854e-02,9.496584329832290575e-03,3.207144383486611877e-02
5.973769221394461398e-02,-9.697125215831096934e-02,4.328791912673066178e-02,-4.050630009964307360e-02,9.797482862646132717e-02,7.008931513745565722e-02,8.095824208114410850e-03,1.988049687369414925e-02,-6.128616581195549251e-02,-5.439994442507396083e-02
-6.989805171558770291e-02,-2.445228537934706833e-02,-7.843842835126903223e-02,2.113416122456030465e-03,2.564562146284309757e-02,-7.690488924120689185e-02,-2.573380059443826709e-02,-8.594477582142459604e-02,5.134525661462957351e-03,2.974678635797497681e-02
2.252027923410365728e-02,6.269910741466752646e-02,-5.401163307992735974e-02,2.343332444130541772e-02,-4.040451367173040348e-02,-8.392098401126800444e-02,-3.386428347368559272e-02,-8.586617492147825825e-02,9.162581304578219787e-02,4.519778508148418472e-02
-7.837713645997854139e-02,5.733115502107265921e-02,-2.771917190740166154e-02,8.249873995142383010e-02,3.528045841010196866e-04,7.868816727941869982e-02,-6.584481774037877211e-02,-2.636519983996552657e-02,-2.638402048063732269e-02,-7.994000386094120281e-02
-3.481191173867319300e-02,3.192353069021956757e-02,-7.951861339196441072e-03,7.561600783744439058e-02,-4.688584994534277656e-02,-3.249051088334214271e-02,-2.881670617143509278e-02,1.021548390087331608e-02,-6.242151331084777599e-02,-6.546769663539116213e-02
8.817790124786617501e-02,-2.452687413840142980e-02,1.761168128312316436e-02,-8.868375157797858677e-02,-7.161535459704278239e-02,-8.118124790451342054e-02,6.111320662578825086e-02,-7.911948651513034392e-02,3.460958288269265753e-03,-6.868649254587995412e-02
-4.396763241452147225e-02,7.649864681152167278e-02,2.654967791668298716e-02,9.269773267225019098e-02,1.999513019540320735e-02,-9.823595772011976812e-02,-1.726166113584310866e-02,-9.552598744196832969e-02,-3.717072693116077464e-02,-3.658955201196464196e-03
1.551165576223204751e-02,-5.219403435445375133e-02,1.215749060030049504e-02,-2.072609024473367340e-02,1.738283752522004968e-03,-6.077301420627966022e-02,-7.090564412053844412e-02,5.107518722022699048e-02,-3.376961996405430239e-02,2.894638507610355904e-02
1.413717483588329896e-02,7.988265614869598241e-02,7.752497138575691060e-02,-1.138522938602625802e-02,-5.816953359406726309e-02,2.869411599480475861e-02,2.164136174735077633e-02,3.852680826955291044e-02,8.144615668431048894e-02,5.670484831354739158e-02
2.441642398241290757e-02,1.984512908147206475e-02,-5.807958163116741512e-02,2.967289329312470386e-02,6.234736088211075000e-02,8.536581334393854303e-02,8.627116498160483649e-02,1.165391276938968976e-02,-4.829898345756992312e-02,-3.347734695187178783e-02
9.941917869297561827e-02,5.246092837599540884e-03,6.234883202976623795e-02,1.951458459455653396e-02,1.007949044537163842e-03,-3.241808578110623451e-02,1.064353074796710666e-02,-9.854995272326294575e-02,7.540506080172787451e-02,1.226891783480278664e-02
-9.539580409031450658e-02,6.370717074530918289e-02,-7.353956000888532685e-02,-9.374049033103067086e-02,-7.759914192923615152e-03,9.146245280623234442e-02,-7.979813429748670861e-02,-8.676032271751950298e-02,7.599773002146968659e-02,6.421922034417783254e-02
6.402715411635370724e-02,-6.501173723527391493e-03,-1.439150957735782325e-02,-1.978604830660241412e-02,1.651306581198879603e-02,4.501251760241192779e-02,5.763268706488380855e-02,3.098658283180949491e-02,1.242751754862657723e-02,-1.762408449313605102e-02
-3.604676045748253510e-02,-4.268156753294081313e-02,-4.062523973793652488e-02,3.662382408674878798e-02,5.244364377377923325e-02,2.028040945209229340e-02,-5.651235791694116800e-02,-6.106121726140881917e-02,5.314523634860180562e-02,9.579248106372684202e-02
-9.606027958249249710e-02,-5.018929025666041266e-02,5.920822760418373992e-02,4.382206221471086210e-02,-5.044537392943301141e-02,1.198821690559298027e-02,1.369817300233701352e-02,4.427879775696255682e-02,-7.032198511621563612e-03,-1.873816212434000622e-02
-3.835663543647638979e-02,-5.221446447460729307e-02,-8.141469684439026078e-02,2.943007824828177896e-02,3.395813416097828025e-02,3.681703172590669593e-02,-9.952190387361946333e-02,-1.212594740170309937e-02,-7.549918424804022421e-02,5.363688314884170090e-03
9.626393926100268450e-02,8.337915688470543809e-05,-2.472942029184726012e-02,6.307586865153071154e-02,9.396210812744747176e-02,-4.193400257090423161e-02,5.781405341134041725e-02,9.946405691209306288e-02,-7.741759367834143146e-02,6.386509171878786660e-03
6.169365469099626076e-02,-2.474333666113339228e-02,-1.221644544332010918e-02,5.014902315057177817e-02,-8.104147171535398819e-02,-2.987284350691834720e-02,1.841126976324359080e-02,-5.241715818726438991e-02,6.783405255934372990e-02,5.289668500325139106e-02
9.244167357531142548e-02,4.562476261770575039e-03,-8.017284155144310809e-02,8.724521963763551269e-02,6.657298792346533212e-02,6.609678165182063247e-03,7.233313849360073489e-02,7.622702225473342030e-02,5.515405500609175948e-02,1.415754969493163672e-02
2.355443322157587532e-02,6.889805606586285602e-02,2.555995751240403360e-02,-5.862145992433855785e-02,3.862730586582043685e-02,9.533887412829717897e-03,-5.284787869536024252e-02,-9.974110466479790826e-02,-5.282510309536343068e-02,3.485915289099326270e-02
7.495397244654927738e-02,6.616301473053935733e-02,-7.934342389124081352e-02,-8.575783877456696902e-02,5.217864135533175490e-02,-4.638312307337180002e-02,-4.051065066961787725e-02,-9.956902176188443809e-02,-8.030215152477160334e-02,-7.290537300334051785e-02
-6.806664700041692440e-02,-1.090847024277355470e-02,6.292778926980474585e-02,6.258331910694624189e-02,8.212690096522019811e-02,-1.191042609559770683e-02,4.178814387709166994e-02,-2.271955599160060957e-03,-8.999043581514418189e-02,-8.387661498414200612e-02
-5.065391965645155842e-02,9.632893306380116427e-02,3.850434355383278856e-02,-4.641238799193257714e-02,4.129366850405068873e-02,3.209677870541943756e-02,-9.146998882681917076e-02,-2.772744476619480244e-02,5.476242910328085051e-02,-8.429703215734861421e-02
7.716259868122322951e-02,8.618809233723911944e-02,7.088265900151786980e-02,-7.644500960765653053e-02,1.320499666617705632e-02,4.151730122560950281e-02,7.663228935843711953e-02,-8.076703697695547524e-02,6.320771355314662443e-02,-4.438520533603804163e-02
1.895297461605812556e-02,4.396438748988824863e-02,5.618110998040700549e-02,-4.100134117574708026e-02,2.169144675079304543e-02,-4.026502772488580600e-02,9.573163089016793748e-02,6.297431585255275355e-02,-1.721096798692082000e-02,7.589326466983641051e-02
4.656448420901843077e-02,8.566762040719144711e-02,-6.559190062565188606e-02,-4.135040575265030993e-02,-8.141098132261613551e-02,-3.506936556346913758e-02,-2.412816379116353160e-02,2.622746226613794848e-02,-5.827317047299021731e-03,4.341887227015893413e-02
-4.641964711678042699e-02,-6.533871937542891362e-02,-2.491066650243589642e-02,-1.232855610235146678e-02,-1.561154979078830177e-02,8.067102530220983392e-02,-4.320325813748130545e-02,-2.953326758952921210e-02,-5.696093264903846765e-02,-2.557970004353811444e-02
-2.206766817196573541e-02,1.510916547835382609e-02,-4.452784205314250232e-02,-4.802934671034428393e-02,4.381125527354037819e-02,8.069997928105970830e-02,-7.419797176973018382e-02,-6.345962935506017921e-02,-7.336319936037886957e-02,3.672184852690185686e-02
-5.710646811570950498e-02,2.090298553175233207e-02,-5.976426831119376754e-02,6.353685417435177285e-02,-3.677977520607676049e-02,3.344262067103917491e-02,-6.964953063970381886e-02,-3.882138599557708597e-02,-4.056797794409980340e-02,2.695526367315001504e-02
3.620129796557442631e-02,6.908910566057714642e-02,-6.316230901378699913e-02,5.214300641820577426e-02,4.240461156188915504e-02,1.182251960296509113e-02,2.932555499546439515e-02,-8.195740348563078370e-02,-7.059829991684683781e-02,-1.686912641902287013e-02
4.253248500280567418e-02,-6.642059261955191030e-02,-2.163131066853666781e-02,-4.015058364379843307e-04,8.713952983219609705e-02,-8.804545435585775515e-02,6.379363739300472624e-02,9.684155536470183401e-02,-4.648023226432982519e-02,7.804312310109128015e-02
-4.184497537926736010e-02,5.983798985526037756e-02,-8.213133418023521246e-03,1.958936769202921507e-02,-5.260314617381747077e-02,3.714807725592679521e-02,-7.015693907946084218e-02,1.207657532284579262e-02,-1.121867532641618662e-03,6.748050833364883927e-02
-3.596220437962655524e-03,5.699715630904210462e-02,-1.973167637027802707e-02,-3.836451552311671842e-02,5.752932291118605101e-02,-1.604368281281786865e-02,-1.580992457585080968e-03,1.553268206468211114e-02,6.396956616028395826e-02,1.632144433054357954e-02
-1.932397116223196626e-02,-6.787822778999040574e-02,3.945053772743647991e-02,7.663739575476062604e-02,-7.847194043999805579e-02,-8.404294856972567215e-03,9.031058075048256639e-02,1.270137299420796145e-02,8.983535570996044675e-03,-8.731689692616897980e-02
6.819831043582536174e-03,3.090326203203775865e-02,-7.145645118404243823e-02,9.127333355751909849e-02,-6.082710073305824111e-02,3.392867384851504242e-02,-4.317671217479038953e-02,-7.830918077619554440e-02,-4.784481178218721875e-02,-3.317095049476405377e-02
-6.498567890585973256e-03,-5.312125956337126337e-02,4.625820644974805440e-02,6.146180847160767624e-02,5.830063290488949473e-02,4.531544681268753760e-02,-4.976005967544792907e-02,-5.787375048019115231e-02,-7.813715004922176799e-02,-2.066172286027948002e-02
-8.280881668448518418e-02,3.107968289725359864e-02,8.945186141457422968e-02,5.112137119653583500e-02,-7.670179023445163058e-02,-9.750022983820769151e-02,-3.062610901950007375e-02,9.860416362970640669e-02,-3.742041974838916651e-02,4.751948653364090197e-02
4.329277051265602999e-02,1.450598597063693443e-02,-2.655674414741909448e-02,-5.835697474898223630e-02,9.599890328704169251e-02,-8.725202745975049745e-02,-5.215846274637725433e-02,-3.824173109690116867e-02,8.188351837303609049e-02,4.266307233281568106e-02
-4.687611778951290831e-02,-6.709738655757753467e-02,7.617280663714649791e-02,5.875455633924803883e-02,-9.230764626366230741e-02,7.579972146463662130e-02,1.750686328007448195e-02,-8.496160055280522344e-03,3.477613596523086020e-02,-9.211005455560061783e-02
-3.388267393996999971e-02,-8.238641355601827865e-02,3.678974960882599315e-02,-2.037460299224631149e-02,-4.177323680127536035e-03,-4.236098863699573613e-02,5.772743015302084224e-02,-9.064570048366224486e-02,-4.377380457131408581e-02,1.814531664758496643e-02
5.837778157982920213e-02,2.032939514013628116e-02,4.668225712078084844e-02,-9.528738335441416796e-02,-4.894402874632738237e-02,-9.031316765528790702e-02,-2.297094433606779347e-03,9.786758539762839548e-02,-9.733181842163347863e-02,-1.181812421092306650e-02
-9.904563791189850697e-02,2.255503095659615667e-02,-6.341630828774223738e-02,4.247215193056856630e-02,-6.816102445025810919e-02,6.584550206262794469e-02,-5.847721217777129832e-02,-2.960751458157721838e-02,-5.395921143451736651e-02,6.152564719361903328e-02
-2.206761242328247538e-03,7.479894757249963555e-02,-7.440208021260595606e-02,-1.649067359519019690e-04,5.533892865333814998e-02,9.531994770350844803e-02,3.603094034858880107e-02,-6.334275368034215925e-02,5.200443330358953120e-02,-8.502501011728583191e-02
5.234233977911323388e-02,6.556799615303512963e-02,1.153565613499656084e-02,-1.450553293706123483e-03,8.730704718097816175e-02,-1.004860217099224767e-01,-9.708377722681438282e-02,-4.959712702907158322e-02,1.130207140009146030e-03,8.085041912599049557e-03
-2.579960011029005379e-02,-4.146212084509420109e-02,-5.962161987425323301e-02,6.006987878770953665e-02,-3.678853794710142816e-02,-1.729980580366830868e-03,6.260225430393029367e-02,2.247458977147077583e-02,-1.827945613594931032e-02,-6.462411078591652480e-02
-2.047907218687207084e-02,-2.957714016263323763e-03,9.812394308516951547e-02,-4.315558263927082860e-02,-6.688511955976275680e-02,-5.582843871472441266e-02,-5.777001653977581475e-02,-8.477567682787878756e-02,-2.702004162309836269e-02,-4.304900893706427312e-02
7.786305686174087304e-02,5.607522637414249361e-02,-7.794533496641926906e-02,7.011371632088747585e-02,-7.801434957266524528e-02,4.458690218840555969e-02,1.324838531182939705e-02,-8.262253804207184138e-02,8.111727759858813891e-02,7.492774615561788309e-02
6.871405495628712945e-02,-2.606847779610882085e-02,-5.542485671205193282e-02,9.946909953500586432e-02,6.355080147976580052e-02,-9.200466363274598103e-02,-2.509214611533167744e-02,6.247384604231004390e-02,5.729673790041486456e-03,-5.056152039558717975e-02
5.860923078299494493e-02,-4.761250817856129552e-02,-9.977857064678923027e-02,-5.366156915783748538e-02,9.873816069350137281e-02,3.145897160112203633e-02,-5.663903939322535025e-02,3.731070494049990027e-02,3.744900312626098238e-02,2.820859401835970962e-02
-8.601523103049810159e-02,-5.138843458148163040e-02,7.381068463453763218e-02,4.697853213074127537e-02,-6.646057336020351480e-02,-4.113955559394632394e-02,1.378120534001166415e-02,6.532928923984386571e-02,-5.986663184939877008e-02,-7.966018335425902042e-02
-2.379085693242412314e-02,8.246471520797511723e-02,-4.820530590546993899e-02,-7.835028035332415597e-02,-8.884460445659678185e-02,-3.025499658963815355e-02,-9.131308373523341904e-02,1.657541126429657244e-02,3.450230231943966774e-02,-7.912297066274267751e-03
4.827487902488711985e-02,2.153856200392337272e-04,4.138141050809097943e-02,-5.387656334200499608e-02,4.896376529645292408e-02,1.460398630393261368e-03,3.891179866009245730e-02,-1.068283723226918190e-02,1.236458887842390711e-03,-9.169922222472862150e-02
-2.148917323823353737e-03,-7.153462850661561345e-02,-7.198401514509340793e-02,-1.331905192864275139e-02,1.522457354158980418e-02,-3.219671208303591381e-02,-6.665044653143910314e-02,4.831394767533064155e-02,9.262390782156132429e-02,4.673982114831663759e-02
-8.458033424577360293e-02,6.818319294433253241e-02,-8.654296694047941552e-02,-1.272049424166473569e-02,8.579763908648857518e-02,-4.763458704357452500e-02,-7.418943321037994865e-02,5.248204546130577630e-02,8.572456291879911039e-02,-3.483764919902372637e-02
-5.344687757289082880e-02,-6.350050986154807953e-02,9.266457688417885363e-02,1.532447325778325473e-02,7.201845990035465883e-02,-3.840599974801386929e-02,-8.871767298415610126e-02,-9.245687794754486877e-03,-5.857060977221032610e-02,3.796020739998735242e-03
7.691398059008735730e-03,-4.114399402091335756e-02,-3.849632687550821886e-02,-9.515555874722456120e-02,-1.590059949929628971e-02,-3.528411244802857200e-02,2.376036092150479728e-02,7.197031494282493669e-02,-1.466616087101876289e-03,-8.345551311990498378e-02
8.679857663909915089e-02,6.166762805682504678e-02,-2.658059479210513748e-02,-3.384954652291422006e-02,8.762556006091011540e-02,-2.365755728777709302e-02,2.529651210296074079e-02,9.708995449123179744e-02,-9.264457833697684053e-02,-3.706577879990845259e-02
-5.377140738678977405e-02,8.444350790826461728e-02,1.022168733320335220e-02,-8.931273005106438179e-02,5.098763866721484073e-02,3.721163446655303964e-02,3.240597562655882918e-02,9.104313929068812150e-02,7.487580531213819390e-02,5.060263745426717835e-02
-5.555103861855121422e-02,-7.238328517889723590e-02,-5.601953753454443768e-02,-5.888705161711285663e-02,1.359798508691056895e-02,3.207316723430623379e-02,6.221214511973291103e-03,-8.870719181954989097e-02,-2.736593162548906985e-02,9.357054936685667290e-02
3.900542386821255481e-02,-2.604817699586998991e-02,3.418320523321156934e-02,-4.696526422298871045e-02,-8.450041517345917297e-02,5.156424915016661996e-03,-4.140281239170163358e-02,-3.646237547153867442e-03,8.039873459685893675e-02,3.035669443489244154e-02
4.468939319861486154e-02,-7.948322483259270821e-02,-4.156488818621240956e-03,-1.914017505215468568e-02,2.937941356886308863e-02,-4.270546280140807144e-02,-2.305323514529809131e-02,9.620690199317857849e-02,-7.705736043834256199e-02,-6.002017180082196840e-02
-5.228691348659859905e-02,3.933173265461549495e-02,4.268172499284687144e-02,5.695757485780971602e-02,-2.378956640118503468e-02,7.049834389818518399e-02,3.957073006117368258e-02,4.267133160131116043e-02,6.439703002203080173e-02,2.579012679764787833e-02
-1.553414369480049170e-02,-9.382482421385786309e-02,1.924871057201558294e-02,1.276134204674287884e-02,2.019390350486327881e-02,-3.511206370397209481e-02,1.036256095880488601e-02,-6.565529527956991129e-02,3.001280437529179820e-02,-8.565732695378251715e-02
7.498733696796190673e-02,-5.676947539421525746e-02,-4.128390900244129774e-02,7.694840931488323987e-02,7.673726462565869100e-02,6.696563091765768416e-02,-3.426261253500084009e-02,8.046282688431401209e-02,5.436405067825794690e-02,3.161475998544081151e-02
7.999836040587440800e-02,5.662936454004132564e-02,-1.498165504072149386e-02,-3.513184525629420990e-02,-2.121082211631468428e-02,-8.759821645345611252e-02,-2.762954420710962006e-02,-2.935437554931542847e-02,7.313242850661388905e-02,7.775204260720647298e-02
9.240386164665122248e-02,-3.435896453008672330e-02,3.838887844397265159e-02,2.662441761527988698e-02,-5.154983752951813880e-02,7.386437267785715688e-02,-5.658417323718475944e-02,4.956653615377407812e-02,-7.105158000997373324e-02,-7.862978317665195171e-02
4.402158225296221028e-02,5.261876876034337486e-03,-1.147273291899475640e-02,5.563430782777812472e-02,-2.825622784935659729e-02,7.051383175941597359e-02,9.270860841620162662e-02,9.581975565289374552e-02,-4.447797841219832543e-02,-1.700048241121315112e-02
4.508331681369298627e-02,7.897449463666660063e-02,4.240685104788446957e-02,5.162476140359344851e-02,7.668284514603741775e-02,-2.633635718322943284e-02,8.004252157789748176e-03,6.953335058011549281e-03,2.951976144783294287e-02,7.903723516976804420e-02
2.013547116733285791e-02,9.398816359474791715e-02,4.638737046949320542e-02,-1.693822357214453539e-02,1.622681379756147485e-02,8.439158584883604819e-02,2.383171939662210095e-02,4.198818136434557396e-02,3.226158719270285496e-02,-3.276871704300175769e-02
-5.933246794254806722e-02,-1.843684335512897621e-02,-6.984820907944316870e-02,6.527010252168492788e-02,4.209711811267637105e-02,-1.980383503446490889e-02,-6.572601415399388636e-02,7.516656252387171611e-02,2.781388290402587657e-02,9.932305079954849292e-02
-7.977298321831209627e-02,-5.102988788689749589e-02,-8.326532557474561336e-02,4.894856668750784817e-02,-6.808415969558896663e-02,7.632446145125122705e-02,-1.710756743739847612e-03,5.234018201684754838e-03,-9.149473670545157922e-02,2.281090663926451864e-02
-5.447416648624613111e-02,-5.729947096250122968e-02,7.906778311555909267e-02,7.760308740373801639e-02,-9.894451051378719275e-02,6.643981052727149228e-02,8.047038412782496486e-02,2.391457486417546477e-03,3.123356500971660038e-02,5.355724836651701293e-02
3.713077003657391101e-02,-8.176222760952044782e-03,1.476005667839302114e-02,1.481369809332299184e-02,6.843051187737952956e-02,-5.168001008383706768e-02,5.108350357068711795e-02,6.247191346591653149e-02,5.941267149779248108e-02,6.154191599928161838e-02
6.585790362926483010e-02,-1.649856171792821527e-02,2.356783209193488715e-02,5.104202644259740740e-02,5.394470735011371032e-02,9.179885867614696882e-02,9.498649075331722091e-02,1.293256124395621327e-02,-6.858750537436853097e-03,6.710142819459113950e-02
-5.600679304639339523e-02,5.328167833858631769e-02,-6.162021857732589286e-02,1.832704316266867486e-02,2.136795529086792447e-02,-1.168063157572974201e-02,7.297209359620322744e-02,8.697486727085817701e-03,-1.454273931059593423e-03,-1.637201529099593239e-02
-8.757583356115028472e-02,-2.757008654562155547e-02,-8.145253738757983475e-02,1.312870481723305352e-02,2.810049253343510287e-02,5.349201086793516774e-02,2.660503861805813691e-02,-6.258548106781440523e-02,5.004738752299175975e-02,9.772655820252554998e-03
-7.956837098822114318e-02,-9.503761372175836830e-02,-4.025880957438599667e-02,3.800020352632579174e-02,8.655524460303827550e-02,9.324971757407465867e-02,5.299079764980500762e-02,-4.135312871109519256e-02,2.440734093682543279e-02,-5.378404346535703429e-02
5.012632468705677941e-02,-6.682660715459608214e-02,5.128856186484798130e-02,7.371941309351526250e-02,3.900369623151128239e-03,-8.687588010667476879e-02,-1.020682897437876456e-02,6.756834826172497532e-02,-6.404816274993102576e-02,-9.228747369487412533e-02
4.654346640073368097e-02,1.261119237869365306e-02,-9.154437289293532176e-02,9.697854049900926643e-02,1.387359577814803978e-02,1.708841547812718631e-02,5.785550897398916703e-02,8.052803319150518557e-02,-8.784363407394037149e-02,-3.029584427777943373e-02
-5.998359842714585943e-02,-6.968409932721548496e-03,-8.170173028266779214e-02,-8.638164226151655301e-02,-3.981798057493508847e-02,8.083278954235190161e-02,9.513041976961308932e-02,5.274442546592961190e-02,-9.984728473685901273e-02,4.704306717765096429e-02
-9.559354133149110255e-02,-6.628600243937145253e-02,-9.788820783880418375e-02,-7.017423977886136366e-02,3.750181457377937261e-02,4.044831024937133035e-02,-2.585327285356826474e-02,4.624020970836167921e-02,6.946283848096169999e-02,-7.392759867384411654e-02
-8.254196523794042617e-02,-2.561729363679669455e-02,-1.925448491077206767e-02,-4.471864029718744526e-02,5.083127597356183053e-02,-3.568919531268477385e-02,6.013459986670370572e-02,8.226122029488271148e-02,2.628974938415332922e-03,-1.411554767877337170e-02
-8.168103956569094937e-02,-4.526453923900670973e-02,7.732956290917089581e-02,-5.081113174528942289e-02,2.423787737417495980e-02,-9.985208314398502649e-04,-8.112549281315713234e-02,7.987370627857523497e-02,-8.644583350837725666e-02,3.614046509331619861e-02
9.439962799687687256e-02,4.187475816414881757e-02,-3.481825590832487993e-02,-8.531196672640027623e-02,1.594740940946867691e-02,4.670340365061867449e-02,-2.823079326929182897e-02,3.075029450206062664e-02,1.331828163969170364e-02,-9.317871652033403451e-02
8.413889060975329737e-02,-2.399883930950415245e-02,-2.411961120062297570e-02,6.927117515953420956e-02,-3.144419600637202161e-03,-9.786241147339364010e-03,2.797134306886936428e-02,-5.764574184223299202e-02,5.660138539450881856e-03,3.371370488314689995e-02
7.755339996580984385e-03,4.175222750161328156e-02,1.970729839262756744e-02,6.828110673995163582e-02,7.583415256028833151e-02,-8.043215939345825516e-02,-4.828120109558460549e-02,-8.906876891613553504e-02,-5.422162644623376715e-02,4.418334142242205664e-02
-8.429095210147551087e-02,-6.897609738999271878e-02,5.415366548515274103e-02,-1.113496452544426862e-02,-4.197585246153574812e-02,2.879693925459320125e-02,7.738768090967529378e-02,-9.247891192484554435e-02,3.861886890027593777e-02,3.371014480457809603e-02
7.360241971951611561e-02,-6.072559199529981022e-02,4.255852590679412573e-02,-7.921977834894254611e-02,-8.867472864119843590e-02,3.615920685157381076e-02,-9.547305717327142505e-02,-9.114018223957526255e-02,-9.260939544533280943e-02,-6.917898253332749325e-03
5.157388884893421288e-02,9.843984473798750301e-02,-5.467846068918753855e-02,5.847604505410547437e-02,5.904917283593791311e-02,7.444854186843366528e-02,-3.714880194092239074e-02,-7.341498897255785416e-02,5.934031599682862423e-02,1.349266753358124848e-02
-1.706921463982580267e-02,-8.827166456280584328e-02,-9.868862492281314791e-02,-3.679530733908320528e-02,-4.570824293342373029e-02,-4.855274537926113076e-03,8.472237294043968858e-02,-1.666310278786761745e-02,-4.242322582411766491e-02,6.904930664931127615e-02
