-9.108962429104766612e-02,-7.850117417878142712e-02,-5.485813227842906148e-02,4.259779607653532696e-02,1.194339641082849124e-02,-9.748880396817682925e-02,-8.560514406210265048e-02,9.345526600005440998e-02,1.362009238398842470e-02,-5.934135306780190938e-02
-4.953485108593531916e-02,4.876517081501857698e-02,-6.091410377813624710e-02,1.627178545465154946e-02,9.400399781766247131e-02,6.936576029800706200e-02,-5.203044817048277371e-02,-1.246057146254003767e-03,2.399114367627594446e-02,6.579617991003575139e-02
-6.864172107078314600e-02,-9.628475956451809648e-02,-8.599557125615553410e-02,-2.730977812593640697e-03,2.126589233066607243e-02,1.377028741729627304e-02,-3.652751813556785743e-02,9.772323088248976997e-02,1.594904384915937778e-02,-2.397176547528992452e-02
1.018964382357936960e-02,4.906688618130042312e-02,3.384657869063692481e-02,-4.701608846743812742e-02,-8.673303311431168616e-02,-2.598316041717874114e-02,2.594350140431289642e-02,-5.796519801703208657e-02,5.055111074776277857e-02,-8.669270372917702028e-02
-4.793698028429180941e-02,6.095091274866909492e-02,-6.131314347533445286e-02,2.789217617598802046e-02,4.934061824746732716e-03,8.496159407987013967e-02,-4.734064590257780480e-02,-8.680778186319525191e-02,4.701319265773390432e-02,5.443560590864934823e-02
8.156317050070480135e-02,8.639441383936746766e-02,-9.720968540488060528e-02,-5.312758277571590082e-02,2.335567140033152633e-02,8.980326413752329207e-02,9.003522384941595180e-02,1.133063763903127685e-02,8.312126995325491707e-02,2.831324178926750146e-02
-2.199845717175075155e-02,-2.801866580618053715e-03,2.086209658399465483e-02,9.909584301712515142e-03,8.523628534129074064e-02,8.374668712672123094e-02,-2.102487741528902276e-02,9.265250568814237253e-02,-6.520886666390712794e-02,-7.473409611207254555e-02
-7.298416839065374750e-02,1.132433135379334876e-03,-9.569503894516040443e-02,8.959404224353620383e-02,6.542309423414649494e-02,-9.699620385157553537e-02,-6.476074888498895010e-02,-3.358728512663260168e-02,-7.380063103781663025e-02,6.189813842531641241e-02
-3.105266946334131473e-02,8.802149646667342675e-02,1.640283598941601195e-02,7.576639688236883052e-02,6.894688907844437331e-02,8.107846374172986148e-02,-8.023946836638609637e-03,9.269363204074648754e-03,5.972071823040789318e-02,-4.285622965317048561e-02
-1.949295476014453743e-03,1.982206152917567743e-02,-9.689334488983286642e-02,1.869628163932743337e-02,-1.326473020210834630e-02,6.147210577696829437e-02,-3.695103938092540730e-02,7.857774170503026290e-02,1.557144305690709440e-02,-6.319795967450698992e-02
5.758584676510086764e-02,2.240623540898678545e-02,-8.921814558524941707e-02,-1.596126399977355892e-02,3.581376731308591466e-02,8.372035559550516925e-02,-9.991959502172852170e-02,9.535182980621192961e-02,-2.468393705084510892e-02,9.475670767166452513e-02
2.094322019481061059e-02,6.576916159613860335e-02,1.494230094162045386e-02,2.561523966147008502e-02,-4.288474366086121592e-02,1.736666813121659492e-02,5.000435274053199874e-02,7.166276728580847633e-02,5.101643769353603197e-02,3.961144968946059275e-02
7.289588601091998021e-02,-3.546380063265071325e-02,3.415775815751745381e-02,-9.825212717330167322e-03,-2.357944959369655258e-02,-1.783773001556288040e-02,-1.970408330609188519e-02,-3.652321080834462774e-02,2.438387358406028660e-02,-1.395054583574713292e-02
9.476041558545045262e-02,3.556017828686222626e-02,-6.028602231457783067e-02,-1.465979813039344770e-02,-3.133075204511540091e-02,5.952776079171331891e-02,7.599965771268635262e-02,8.076839116527440021e-02,3.254396247505245143e-02,-4.595834759404844594e-02
-4.952665969908205679e-02,7.097958853948047042e-02,5.542929261749332537e-03,6.043221680091961923e-02,1.449770343832126884e-02,4.662850505750221197e-02,3.802325492811162166e-03,5.417678210037760178e-02,1.377159814094311430e-02,-6.858024281603827821e-03
-3.146221840934364244e-02,-8.635813031665917627e-02,-2.441516413438002409e-02,-8.407478446034953590e-02,9.656342274608900600e-02,-6.367742973384724059e-02,6.237173954410796251e-02,7.499232899117963536e-02,3.768265047718866168e-02,1.389888254907514775e-02
-6.780571263687824868e-02,-6.623995447338743014e-03,-3.096558976895701087e-02,-5.499200843718308335e-02,1.850237375315935684e-02,-3.754603245961660868e-02,8.326111069367014839e-02,8.192710499031141680e-02,-4.857634124356076388e-02,-7.782173985119417159e-02
-6.140745359617743454e-02,-8.316586422278671176e-05,4.571713359491924589e-02,-5.836111231824170353e-02,-5.039328832455385737e-02,7.033437498727340698e-02,-1.683025634649452928e-02,2.333701343104724324e-02,-5.326677215214999095e-02,-7.960654811484052518e-02
3.171403393705959917e-03,-4.571802590043527736e-03,-6.946567118136735830e-02,2.436124634808309319e-02,8.802023762787630767e-03,3.082746939414887644e-02,-7.109089197506804347e-02,5.030556342704878281e-02,-5.559017204001546336e-02,3.870364873206605383e-03
5.705920564432379050e-02,-9.553391440163877535e-02,-3.512750805476270999e-02,7.458447528002221105e-02,6.894192152041392352e-02,7.688118518908743093e-03,7.332165483330260747e-02,8.996119827072532327e-02,6.528139952586828332e-02,7.082308876730775138e-02
-8.025131963593033768e-02,3.026086646819819981e-02,4.070339763053060222e-02,2.204816252932592646e-02,5.992305234720560203e-02,-9.308575602567314977e-02,5.404774691099598072e-02,4.634572014790538930e-02,-4.806032134032938580e-02,-4.858614023557066702e-02
2.646066348602554852e-02,-3.094050768178369104e-02,5.931773560145750523e-02,-1.077075359930854126e-02,5.654988295683438526e-02,9.809435672476815582e-02,-3.995033209321999235e-02,-7.139883434838012466e-02,8.026168726985477564e-02,8.311875777474650451e-03
9.494807417101644442e-02,2.732088000037943831e-02,9.878260492209578469e-02,9.214160828590320373e-03,5.285186781104261877e-03,-7.291441938556603164e-02,-2.885896580322377947e-02,-9.475628654072534851e-02,-6.792096409607017993e-02,4.912743854149920208e-02
-9.392006201424224487e-02,-2.669138055125112874e-02,7.246925056760883388e-02,3.853554350147087026e-02,3.818842841323372150e-02,-6.227263980893782414e-02,-1.161914385031533048e-02,1.631548146885823669e-02,9.795034153274104205e-02,-5.921875495337563383e-02
-5.045341964752902975e-02,-4.756538324541761953e-02,5.003448265959856145e-02,-8.604934512861442397e-03,-8.861411231778100472e-02,1.703248122047917867e-03,-5.760796707126480953e-02,5.972084895204204935e-02,-4.053372369854555540e-02,-9.447879760909927427e-02
1.868648989292420737e-02,6.876808578623777590e-02,-2.379677518755715648e-02,4.997166214522869021e-02,2.228295659425644226e-03,8.190360992437722976e-03,9.188686421235048307e-02,6.079217829972935472e-02,-9.353538667528521477e-02,4.187745024625902368e-02
-6.999703687298783339e-03,8.950978827901998058e-02,-5.571345313530234183e-02,-4.658559606312684398e-02,-8.370520702454760376e-02,-1.427623426724269895e-02,-7.819624719618634145e-02,2.675735212238355976e-02,6.059264747474757407e-02,3.936009922403568839e-02
5.324227621515409403e-02,-3.150917603129603506e-02,6.917029660553553061e-02,-1.424624500011148487e-02,6.480197408246377022e-02,2.529923172485876171e-02,-7.131539026595101749e-02,-8.432262002901041997e-02,-9.633347141739855013e-02,-8.665500047212870705e-02
-8.283237258313633222e-03,-7.733161544648191332e-02,-9.444333023026602048e-02,5.097229627809349295e-02,-2.102990390787211339e-02,4.938769912150503538e-02,-9.519034650709690126e-03,-9.982650599847778250e-03,-4.385498656433811648e-03,-5.199214687561196091e-03
6.063266842283393521e-02,-1.952149602845283660e-02,8.093723206872460718e-02,-9.258779040919283554e-02,5.477486854408372685e-02,-7.487172377245224220e-02,2.370271338241709824e-02,-9.792714773295362052e-02,7.725456515269388258e-03,-9.939640867608073860e-02
9.023875709804091150e-02,8.108040674055561059e-02,5.919338838845386586e-02,8.305486398295749972e-02,-7.088835376832058888e-02,-6.845398602589333747e-02,-6.247366541951320656e-02,2.449918045998422667e-02,8.116189920166036464e-02,9.799103567181474683e-02
4.222449175316317360e-02,4.636008182845904879e-02,8.185864090885089372e-02,-1.982525352577582667e-02,-5.002986395499264827e-02,-6.531396584257542770e-02,-7.610858993325420041e-02,6.252211760656575801e-02,-7.064152531655137901e-02,-4.714050345461986979e-02
6.381783572670615690e-02,-3.788254964115800316e-02,9.648348985858856697e-02,-4.667225956967296224e-02,6.730668994242280934e-03,-3.710659776283008193e-02,8.215456623476749543e-02,-2.668867122975311645e-02,-1.328153454536709632e-02,2.458538455672273915e-03
8.777729547394266807e-02,-9.381019874576985995e-02,4.337573272633782340e-02,7.820379085846779210e-02,-9.454255529650623657e-02,4.410249450502140567e-03,-3.480203764599494598e-02,7.189786417311716527e-02,1.170331018450357363e-02,3.804557363254956748e-02
-9.429300009692512252e-03,2.566180750427143886e-02,-4.198062966251484007e-02,-9.813028440669685493e-02,1.535118699741815085e-02,-3.771115717350743968e-02,3.453519700225962663e-03,8.328117061077955352e-02,-1.470504229972080523e-02,-5.052079267952291897e-02
-2.574124774418910799e-02,8.637222332730812302e-02,8.737367626181874458e-02,6.886598971314264461e-02,8.404130286113209447e-02,-5.441994200973661322e-02,-8.250355808928183654e-02,-5.453805274306225415e-02,-3.712467677718991887e-02,-6.504682472873768440e-02
2.141883239449209053e-02,-1.728271699976773046e-02,6.327030236544281538e-02,-6.297392034619386791e-02,4.037530595126209709e-02,-5.192887503017223211e-02,1.484381776817193799e-02,-3.020248055584222324e-02,-8.860712010343346767e-02,-5.423726580792483098e-02
3.282051107095868003e-02,-5.499813278937448757e-04,3.803196814735759768e-03,-6.505596997821549987e-02,1.414317030925127394e-02,9.935068504164198955e-02,6.336702175832439887e-02,1.887452476619555508e-02,9.519781366618099150e-02,8.031251693386426416e-02
1.912158672052910457e-02,-9.351473493710858731e-02,-8.128458083650386135e-02,-8.692565699155473113e-02,-9.653370261704943833e-03,-2.491303336642844424e-02,9.507000685405730955e-02,-6.640334136007702837e-02,9.455751838653103647e-02,5.349497377260262199e-02
6.484756792489956845e-02,2.652316335559945504e-02,3.374655404134641046e-02,-4.623533295761331208e-03,-9.737272861538555369e-02,-2.939878289163504188e-02,-1.585639701288305004e-03,4.601824221802086612e-02,-6.274331450778158903e-03,-8.519016782113669750e-03
-7.246745181087937970e-02,-9.782225323930421323e-02,5.165565209539924041e-02,-3.600943238446432937e-02,9.687669003870214013e-02,-5.595315476816880434e-02,-3.225839490366406992e-02,4.779227133226343627e-03,5.097829141210655224e-02,-7.228443219940872133e-03
-7.503549137766474253e-02,-3.749972430159009829e-02,9.038339401989253785e-04,3.476980160337353465e-02,5.402999126241844752e-02,-7.393284380912915066e-02,-9.541697373552365802e-02,3.816464442397887735e-03,6.199774213248326893e-02,-9.747924659402473768e-02
3.449396893074679893e-02,3.736164533139835209e-02,-1.015064928267248034e-02,8.295773734838685076e-02,2.887221695139857713e-02,-9.895203246970683819e-02,-3.114310897124883404e-03,7.186356121952000575e-02,6.607991400746790478e-02,2.983083942249559195e-02
3.473968477972633195e-02,1.569991595784010763e-02,-4.517604496662957353e-02,1.210599810721176006e-02,3.434595696348405336e-02,-2.951407395671823419e-02,7.116567345078556039e-02,-6.099250279825854659e-02,4.946416206638465374e-02,-4.207945076262451650e-02
5.475985744883640760e-02,-1.445253413278475840e-02,6.153968182244190510e-02,-2.929302746640193023e-02,-5.726135247408377371e-02,5.345690168435332512e-02,-3.827161047386978127e-02,4.664901354528550037e-02,4.889463061554641388e-02,-5.572065981835978843e-02
-5.717757263587031069e-02,-6.021041531458666551e-02,-7.149633244683106792e-02,-2.458348015853317747e-02,-9.467442306167571375e-02,-7.781592619315187698e-02,3.491280475268210282e-02,5.995530737947726840e-02,-8.389409457432282780e-02,-5.365953790284159336e-02
-5.847486763923712833e-02,8.346671261632612748e-02,4.226290362729734351e-02,1.077692221028285491e-02,-3.909640241587595405e-02,6.697080952635969808e-02,-1.293880847409600854e-02,8.469124302375505287e-02,4.121036086718662950e-02,-4.393738406943320518e-03
-7.475797925012826750e-02,9.520871009354953118e-02,-6.803326993118133381e-02,-5.947957495606748246e-02,-1.376364896792581227e-02,-1.915961884497055512e-02,-7.064970384714118479e-02,4.586378387222467268e-02,-6.225098662456281240e-02,2.877912886233255363e-02
5.086119011525974676e-02,-5.785352158333585681e-02,2.019084962152799256e-02,4.978567504916728281e-02,2.764374212406667253e-02,1.942546058932981268e-02,-4.090354286890059143e-02,4.632129424830175313e-02,8.906168799998995245e-02,-1.488772194769061308e-02
5.643636336628107819e-02,-8.877179206761694197e-02,6.705432049799317507e-02,-6.154999663557046002e-02,-2.098062622200536076e-02,-3.998379081492871301e-02,-8.397927123879014855e-02,8.092620058724858678e-02,-2.596916448925234988e-02,6.139487695227902053e-03
-1.176746820734986265e-03,-7.356777161141236920e-02,-5.870918822211339955e-02,-8.476223819353577438e-02,1.584339989057492737e-03,-4.769008963340257840e-02,-2.858767822344161769e-02,-7.838693426055264035e-02,5.751036793050143259e-02,-7.868322464223978518e-02
9.714176474263755412e-02,-6.456776711231654309e-02,1.448102248692986760e-02,-9.103093308218238033e-02,5.742325793116684340e-02,-6.207881043634069784e-02,5.580795681625325133e-03,4.801550863181430762e-02,-7.001370301654881445e-02,1.021743483739434577e-02
-5.667655833424412037e-02,5.183920986342893666e-02,4.458303871124275064e-02,-6.469019314458340775e-02,7.239331153341468927e-02,-9.604498009673115289e-02,7.204739948462304810e-02,1.178076223218767205e-02,-1.935590557883015705e-02,5.174938620446731252e-02
4.338580033849398498e-02,9.746523496168532641e-02,-4.438299027740344460e-02,-9.924126551813149122e-02,8.678052166297756109e-02,7.157942090757876685e-02,4.577017550385117928e-02,3.337756584307682850e-03,4.139124904975219343e-02,5.610591137534856609e-02
-2.502481129262812409e-02,5.406450506599153050e-02,5.012486383503508836e-02,2.264224230885195088e-02,-1.962681520643252964e-02,3.946160385286817673e-02,-9.937742843496158440e-02,5.497932934491955859e-02,7.928332049136940785e-02,-5.213685851249907910e-02
-7.584656313815406337e-02,-5.594320244125448177e-02,-3.958065374198034558e-02,7.660570171276684381e-02,8.633286047618898840e-03,-4.265767007871388433e-02,-7.232906204141070772e-02,-4.197110737909166833e-02,2.277421794825051915e-02,-3.517229402051068321e-02
-8.527963661800308515e-03,-1.117657859667711695e-02,6.562707214630242314e-02,-1.473036915275387215e-02,-3.086023576489953235e-02,3.499432096182103491e-02,-5.570358885329425302e-02,-6.550835214689243458e-03,-3.704686253519672012e-02,2.537112043256692373e-02
7.547209493896253618e-02,-1.046219997087430298e-02,5.689148375838462557e-02,-8.606859887689916055e-03,3.124586634342627067e-02,-7.363180499449957506e-02,-1.340369860647036560e-02,8.186239773098732964e-02,2.109580020618692653e-02,5.335491744742043574e-02
9.401216191788630550e-04,-3.888750343985086788e-04,6.857996803856999946e-02,-8.643861313180925543e-02,1.465445430993692066e-02,8.855251508658987247e-02,3.572009634464384797e-03,-6.110683809442310488e-02,6.958787848869524284e-02,-4.967217152882943965e-02
4.014520729650758457e-02,8.052188079379976604e-03,8.976725765604393059e-02,2.486734048053518276e-02,6.759559240954587933e-02,-9.841342476109538051e-02,9.786801123332761199e-02,-8.445708593352270477e-02,-3.557409727704607949e-02,8.923047909135306544e-02
-9.821217952575099497e-02,6.454600108438710016e-02,7.224232767335889149e-02,-1.203383715828550138e-02,-4.885096123881376567e-02,6.053790392665972520e-02,-4.427599113555766297e-03,-7.313227826886077587e-02,8.556979856500215864e-02,7.919399340132968201e-02
-1.690969996612931570e-03,7.134049930355843006e-02,-1.628439484718027797e-02,3.669298003326021407e-02,-2.040187211841551496e-02,1.148403490162069884e-03,-6.208965943321453906e-02,9.299778482218276632e-02,-4.115686235114906361e-02,-7.930808877671974289e-02
-7.113691995419038627e-02,-9.718154116151141164e-02,4.318913989247891161e-02,1.289966404817481649e-02,5.891567023695043481e-02,1.415984656827282140e-03,5.836420790083077237e-02,3.915284285436787526e-02,5.556969537183506502e-02,-1.870342620458273486e-02
2.955412663749623636e-02,-6.404114046140513272e-02,-3.563600732241921365e-02,-6.547907597604149532e-02,-1.827255499734752042e-02,-5.171625040688024311e-02,-1.861560117412841553e-02,9.504446848746242460e-02,-3.593613483559375543e-02,9.649818899497905611e-02
2.726122517119672350e-02,-2.498179632121780291e-02,7.149689981671933370e-02,2.391734787371475879e-02,-4.959338397383213082e-02,5.857113559537752145e-02,-1.341229825316739288e-02,-2.849776653391171422e-02,-3.394461269498381950e-02,3.947377512262789656e-02
-4.626997521875469283e-02,6.165560274107603767e-02,-4.094224112003044813e-02,8.824276717071449783e-03,-2.415701638959516506e-03,7.107128251907396388e-02,7.767728687907718421e-02,-6.312311152644664580e-02,1.706969178765020689e-02,7.964100920342742640e-02
-1.077655619311405910e-02,8.437366109676308623e-02,-4.420182190860582477e-02,2.176623483875914089e-02,3.649074195336307613e-02,-5.435885332990317981e-02,-9.724649748845665131e-02,-1.665520752586077680e-02,8.769637837134680591e-02,-3.139437803391868786e-02
5.594885909652000389e-02,-6.505273743451851776e-02,-3.160943273950951593e-02,-7.108045583238065124e-02,4.335416282927520570e-02,3.986152473936283025e-02,3.769946358978376599e-02,-4.932079310274006811e-02,3.847202432468177502e-02,-5.454049181681008829e-02
-1.507017681373205853e-02,-2.561557566646255335e-02,-2.893841767597556125e-02,-8.846903855174872988e-02,2.632932537318793953e-02,4.146332053633988712e-02,2.271773890056712208e-02,2.966255123262490079e-02,-6.601185715654844799e-02,-7.011064021222751519e-02
2.835008705176569888e-03,7.506654527090780848e-02,-6.320931169055560295e-02,-7.432176258348022202e-03,-1.421353319401941206e-02,-5.421628160967306709e-04,-6.769784590279762093e-02,-3.151187177303789444e-02,-4.762391917929596069e-02,6.890538864589579315e-02
6.006644915528033812e-02,-1.467216834637127820e-02,2.140309215780777929e-02,-7.090687794675601396e-02,1.922658843511726445e-03,-4.061058284261909179e-02,7.193019071384021412e-02,3.431967618127798603e-02,2.669480252448419577e-02,-7.504973998616415454e-02
-5.882424100222855001e-03,9.731455591737631083e-02,8.965983481453301818e-02,2.901712805208872537e-02,-6.965502579360527413e-02,2.782536974398100438e-02,1.313242250878550454e-02,-6.266832467749589020e-03,-1.439250610634597305e-02,1.985395113160601244e-02
6.999397770319309986e-02,5.022420807438748858e-02,1.587210805944661018e-02,8.494083630720561384e-02,-8.705200331169023198e-02,9.826930174636180904e-02,-8.940109146640209947e-02,-6.010089077228773086e-02,-1.544946767108781871e-02,-7.849822476296647311e-02
2.473408219954036091e-02,-9.040148719022654544e-02,-4.307522379861157547e-02,-8.779266377606578797e-02,4.070386622101623830e-02,3.369123351789640730e-02,-2.428388134987954916e-02,-6.236114799403576214e-02,4.940096580598901665e-02,-3.192414184690654799e-02
5.906023348112857119e-02,-2.419812164075940686e-03,5.133888870195876808e-03,-9.430183010168656510e-02,2.884640397580634508e-02,-2.986869951356652120e-02,-5.415899454158686066e-02,-1.322332475765988780e-02,-2.350650854581648463e-02,-6.042191982727956878e-03
9.589667083596128960e-02,-2.712438592635391110e-02,5.488202666720790046e-02,1.055351930997849852e-02,7.782621782149656831e-02,-2.900942977008560963e-02,-5.089626396269850833e-02,8.220384793139365320e-02,-9.129314724844693474e-02,9.015068561220046517e-02
1.128138313418505789e-02,-2.472735666258249476e-02,9.901046446782221788e-02,-8.832747077047367612e-02,3.341271953522434446e-03,-9.378058490889043530e-02,1.423514783724669219e-02,-6.390629820097688818e-02,2.619184006790609143e-02,9.618473515011630171e-02
7.498051024247617824e-02,-9.632750115825872150e-03,4.169217401034344683e-02,5.549375000063785923e-02,-1.031383163487276100e-03,5.706698035513019240e-03,-6.984312032556148908e-02,-2.612001487761875240e-02,-7.155574938544267960e-02,4.537875066891253195e-02
-4.597401119547359083e-03,-1.022423265864688680e-02,7.719959423307026780e-02,5.523754462312277513e-03,-1.818183361662802089e-02,-4.622159555747083065e-02,-8.559759296604602108e-02,-1.637277325493684266e-02,-9.484930351868332832e-02,-4.176921188951439323e-02
7.019019696792999641e-04,9.318661300394445735e-02,-7.812341716128308466e-02,3.460821084332438291e-02,-1.352578016000638428e-05,5.541964585515660180e-02,-7.127860042515815620e-02,-8.335947271282490023e-02,-2.015627892950924704e-02,5.939245039598003983e-02
-6.166442109004489219e-02,5.355543824350440796e-02,-4.194101880039004249e-02,-5.662166096495172690e-02,-9.666627184071603651e-02,-2.026789729700489637e-02,-2.377161227611172475e-02,3.186859908007021874e-02,-8.581597571568903848e-02,-6.948200339232843414e-02
-9.668465017806023021e-02,-7.724067232557514651e-02,3.035992534330862400e-02,-1.946843601315269984e-02,-3.576099389487618491e-02,1.158258071113112478e-02,9.865174631240418435e-02,6.689756194745118123e-02,3.992512596571615169e-02,8.365489705044505675e-02
-9.205399925715437859e-02,-8.593330652549417692e-02,-5.203961012699463012e-03,-3.016646006211394851e-02,8.743753715871016574e-02,-2.086839526961853982e-03,7.949621305098929225e-03,7.905200938300069313e-02,-1.067289777062884262e-02,7.540465339543753198e-02
-4.928369738484730117e-02,-4.523806039899933712e-02,-3.432798558739019734e-02,9.512824903383444025e-03,-5.598398016513869702e-02,3.428574739945499522e-02,-7.143303271578022029e-02,-8.117990633180818816e-02,7.403830097070301930e-02,-5.262441743526737742e-02
-2.279931738507312219e-02,1.430836733649985641e-02,5.162472163613175506e-03,-8.479539829394971973e-02,7.484093695040300309e-02,9.022709667058992355e-02,6.248509514625508188e-02,-4.324006274792358689e-02,5.569240259020586704e-03,-3.211719681636716894e-02
1.093400312072409508e-02,9.488080339745974534e-02,-3.765630436037308709e-02,3.375968390745369418e-02,-3.478580438010306364e-02,5.489550025764829144e-02,-3.486981049695435375e-02,7.796659477138004335e-02,5.034171086063043282e-02,5.253200314044285252e-02
-6.104669873638170555e-03,-5.784711211634187972e-02,-9.169857918749386994e-02,-3.563434651364246614e-02,-9.256005634273439808e-02,3.877079891586469179e-02,3.404359669975084990e-02,-1.390568534486003906e-02,5.355762114732586648e-02,7.205387320199145573e-03
-9.202750764122730187e-02,-7.304134415145169257e-02,-6.131244124375635068e-02,-3.286710549034798506e-02,-8.952331913651821738e-02,2.102357784353590248e-02,2.391358861314594412e-03,2.349228052089246885e-02,-1.352859189394346566e-02,6.954130718278188350e-02
-9.188168638458719950e-03,-9.691928169061990450e-02,7.461248807756999668e-02,3.124035218172235492e-02,6.458517276812783536e-02,9.035515536974889073e-02,-8.980058490115996883e-02,-5.298574683443742911e-02,-8.733118361926681117e-02,-1.566888614896910087e-02
7.276588696751709606e-02,-8.367515843283503119e-02,-5.379993035328254659e-03,-7.489122071376846934e-02,5.456596610011553439e-02,6.828443211684084857e-02,-9.132850056055008547e-02,-2.711382757690492841e-03,-5.211775231821341725e-02,9.049421404624272136e-02
8.877852017122321582e-02,2.278689429142798095e-02,9.470165350931025738e-02,-3.102742406687949289e-02,7.959227401396393176e-02,-1.308108279083097271e-02,-5.286762351057502918e-02,8.816660459745553902e-02,3.684364306875419215e-02,-8.701479949236859412e-02
7.408485185049037969e-02,4.027606659959775265e-02,2.098602974052965475e-02,4.647499915828001010e-02,-4.931235629883337634e-02,2.009770983367036024e-02,6.292273156567661230e-02,-8.917702609192124097e-02,-7.389798586364244859e-02,6.848982835928911495e-02
2.366917407679280244e-02,6.257562292972163390e-03,-5.033922809741606108e-02,-4.098428451785077892e-02,7.454474112630866955e-02,-1.566681183623047993e-02,-8.712512649763559658e-02,7.939701622335243458e-02,-5.932383278050230857e-02,6.524654545587732501e-02
7.635424602672218064e-02,-2.649848978520357411e-03,1.969506155645522893e-02,5.453499623298144541e-03,2.497651396102048768e-02,7.100826673827979885e-02,-4.358801241658066816e-02,7.675147115949870757e-02,1.353779284356744841e-02,-7.697801837462837915e-02
-5.459978125302495516e-02,1.919647323881774892e-02,-5.211281126452041446e-02,-7.371688293508139866e-02,-6.764290841022634060e-02,6.897449568439090184e-02,2.045157915593900227e-02,9.271333655872855684e-02,-3.086416179777439275e-02,1.912480765103428612e-02
1.979779593590186987e-02,2.314087469302748487e-02,-8.816584640974538256e-02,5.006354954694500203e-02,8.963017292457337026e-02,6.936108389263700991e-03,-6.147665628894789791e-02,5.058521613208199347e-02,-9.853602446042869500e-02,-3.434928401894222355e-02
8.352103433319869874e-02,1.767345585810809264e-02,7.102125790775018488e-02,2.093432486116044572e-02,6.431559914681155010e-02,7.589639465347480796e-02,-3.555667226650425367e-02,-7.541077768354632893e-02,4.426062213972679904e-02,-1.195738498233568821e-02
-7.463391222541972125e-02,1.796863261871238168e-02,-9.264232970771715814e-02,-5.995049756066215402e-02,5.812090451633248472e-02,-9.757633034800108907e-02,-4.018870388148353123e-02,-9.569213357163590394e-02,9.950910184053886332e-02,1.657413627623630439e-02
-4.133322512964401202e-02,8.578839899387849521e-02,1.333599565962468063e-03,-9.066477955687719803e-03,1.717121871352201082e-02,-4.717297375450697078e-02,-3.836095588903388337e-02,-2.568374519087218005e-02,-5.111203542467166600e-02,1.685313278033272882e-02
3.916801947583661847e-02,-8.561061889783337653e-02,9.421296740728646313e-02,5.061334243687646423e-02,6.119383628677492470e-02,5.032598385204781199e-02,-8.397335618735518592e-02,-3.661109559725729372e-03,-1.086675351896156626e-02,3.452844147403862085e-02
-1.025696198627913842e-02,4.086178180165974533e-02,3.638692129082881505e-02,3.942658306596031476e-02,2.393050975185224971e-02,-6.980443182035660221e-02,5.191853017840832030e-02,5.620063658651770072e-02,8.081955864577590465e-02,-5.325393622988400244e-02
-6.466498915371662881e-02,-2.177999742199466723e-02,-3.581580632250767893e-02,6.309596119317850693e-02,2.294584631412051670e-02,5.200073744212804078e-02,-1.482148205600427628e-02,-8.010937351814802210e-02,-7.699153419755833117e-02,-2.528035075988429789e-02
-6.124800008838349186e-02,6.414833669485300871e-02,1.993538417258793743e-02,3.776484365074552624e-02,-1.102046819962045933e-03,-8.237264791368421879e-02,-5.366797351248529108e-02,-7.679185645802132087e-03,-6.029064929053053190e-02,-9.486673474097009895e-02
4.588013502105233593e-02,4.498351005062609792e-02,-3.386956419389373224e-02,6.869935249347147721e-02,-1.384965399572816135e-02,7.293848679374463628e-02,3.087681786361640493e-02,1.620586914436388665e-02,-5.985110317817946696e-02,5.926973834867194785e-03
7.888308731209593694e-02,-3.900091255387753281e-02,7.415023798242531550e-02,8.175050590222524005e-02,-3.446917368096200085e-02,3.661657573215487682e-02,8.039697771802747917e-02,-8.486049026418987506e-02,7.572121842666447444e-02,-6.191177395492406671e-02
6.995577154252449747e-02,3.342470050664975156e-02,-3.116632411081305190e-02,-6.972165058907260626e-02,2.670700556960693001e-02,6.955760225526730345e-02,6.475906674830929355e-02,2.565764107467633295e-02,9.126105563204378601e-02,1.798014698857838822e-02
-6.042618680386234453e-02,-1.413182020105640743e-02,-3.252735751039047274e-02,9.839537205800701070e-02,-2.332210789739262019e-02,9.853877482555761791e-02,2.856760726413878557e-03,-6.552286293922331140e-02,-8.508452475828409689e-02,-2.582492652159937285e-02
-7.531689328988896981e-02,2.690371450487676758e-02,-1.720034998194791553e-02,9.818276563243884258e-02,8.602490382686145409e-02,-7.015374849132224866e-02,-2.109085324831897271e-02,-7.684167671540578781e-03,1.218913802597364204e-02,5.609328313984774522e-02
-2.563230863833451927e-03,-1.600133868004318879e-02,-4.754711227605953883e-02,8.216091626366395229e-02,-9.531803515733895671e-02,6.422360647060426642e-02,-6.259624946616121344e-02,3.715298774161259615e-02,-2.895873147772570766e-02,9.485399358832689864e-02
-7.544728824089678987e-02,-6.248672208175525683e-02,7.795872444137262602e-02,1.667898345463403667e-02,-3.768746963639221792e-02,-9.984883222987378515e-02,-5.501588552235833068e-02,-7.091906562289163052e-02,-5.931940148354768877e-02,7.927882411049248790e-02
7.461885073355663256e-02,4.005791882386595254e-02,-5.957538746690716272e-03,6.542726677044229111e-02,-1.008672004587775426e-03,-2.730230433070710699e-02,-4.464465891957622445e-02,8.494733597900003264e-02,-2.260186919477166420e-02,-1.427009361621808803e-03
-4.911173467208634208e-02,7.699408737823076887e-02,-2.336408139996560759e-02,-4.048243901943998635e-02,4.327193967810472053e-02,-6.182349907545758860e-02,-7.609032517401234652e-02,6.739804097959850582e-02,4.883571349308322290e-02,1.808321365512707141e-02
-5.142764121675059280e-02,2.464685638789901670e-02,2.755153954709456399e-02,-3.449574341835232733e-02,-8.805423596801989494e-02,7.610846727370265685e-02,-6.250719420733126357e-03,5.274577148351747985e-02,-4.922440386289800296e-02,1.823944479229356458e-02
-1.420180616624826600e-02,-2.357298882983718466e-02,-7.429373301064164103e-02,-5.112105482386172794e-02,-8.351410825810827443e-02,-3.942460676065385333e-02,4.681341862087527728e-02,2.307744459578734211e-02,3.448843722677740614e-02,-9.793291433583013739e-02
3.568967394184508618e-02,6.333363637384449314e-04,-5.414358318963014005e-02,-6.502922915363369694e-02,-6.502886694830314895e-02,6.886577680382369171e-02,9.902798121643886786e-02,8.271279249192402261e-02,-3.052005345194310285e-02,5.589797334516610067e-02
9.288568672290090436e-03,6.328834541306492534e-02,-3.253862876980218206e-03,1.798939166242599988e-02,5.715422757981925700e-02,-7.995917090150497786e-02,7.586843951932768955e-03,-2.680433525556710425e-02,2.085756848037661690e-02,9.188705351197051785e-02
-2.143981004791838813e-02,-2.140598278133307164e-02,5.824514633840472549e-02,2.901270620280358564e-02,-2.055999615379116435e-02,3.778874211159669039e-02,-1.996836739272996042e-02,-7.277680279164208677e-02,-9.876007810179462595e-03,-3.311406440098275256e-02
-5.639634956574111901e-02,8.515531212394911176e-02,3.808087471688131886e-02,1.976621504181931901e-02,5.004813745878134573e-02,8.392932526006166224e-03,3.898239051019411483e-02,8.611826967112164166e-02,7.252270954052501828e-02,-6.627369218831183351e-02
-4.737286841938241622e-02,-8.567826148155227584e-02,9.588123229816652993e-02,-5.272280732852023533e-02,3.298726529036218741e-02,-8.207525554110921273e-02,-5.894657396749451717e-02,5.652247154468727740e-04,-7.900979380378550521e-02,-2.213663002802386537e-02
7.600690887595678603e-03,-3.216114304382997752e-02,1.138526761824183199e-02,7.347539103694192275e-03,-2.106782755778421543e-02,3.926093146370972925e-02,3.478789392045436579e-02,3.743431654695987543e-02,1.230211347007414968e-02,-2.847022318582506650e-02
2.262667218771615557e-02,8.714885300703680004e-02,1.927196431971891014e-02,9.592137540388710748e-02,-1.249675604028253895e-02,4.792664965579515601e-02,-9.171148937659583111e-02,5.294735816407526718e-02,3.670453001471981995e-03,-9.893017729581697617e-02
-4.455152362706012170e-02,6.970130314161767510e-03,5.346420419612621378e-02,-8.936905747739409822e-02,8.539206785035731440e-03,6.020149035381404390e-02,3.123055411604651332e-02,8.631243786208495083e-02,-8.504075020486158432e-02,-4.461593468358154152e-02
8.387675376160502738e-02,5.300607919613077590e-02,2.017504180546785333e-02,6.661026076365092474e-02,8.019698234391872682e-02,9.454589742387624340e-02,9.810640219822161501e-02,-7.201904194275800253e-02,-8.588744656179281289e-02,-8.503222395451176530e-02
-9.704843531104351273e-02,9.436521341557814468e-02,-8.106427783390215969e-02,6.835147482320211298e-02,3.675984159408655916e-02,-2.488518907913983037e-03,-3.040237432805773660e-02,-2.925759618431197223e-02,-4.923118960079101575e-02,8.221532140974682767e-02
4.511841320335212291e-02,-9.481924725526441611e-02,-7.527873895603836782e-03,-4.375631445543081560e-02,-9.342222057578644656e-02,7.693227324963497482e-02,5.325357164599860832e-02,-3.408031174120480788e-02,5.929624062657184308e-02,-3.499927250448554850e-02
-3.841336752855534914e-02,8.562154006462147082e-02,9.542927039490248231e-02,4.710629567180946338e-03,9.153236591307759018e-02,7.759872079003350687e-02,2.274662871583527351e-03,-2.544990573468834671e-02,4.207031368107860825e-02,-8.739426593421853115e-03
2.104196517001289887e-02,9.808189998727342984e-02,5.469085299465147043e-02,-3.314250853805537217e-02,-8.295545249557348400e-02,-6.301832898957104856e-02,6.227759015944724086e-03,-1.657816112194880620e-02,6.013582022530395560e-02,8.662252342773303637e-02
-6.442340802891563523e-02,7.201449326893384628e-02,9.136699920985077994e-02,9.189754380724064753e-02,-9.342535259914977464e-02,-8.847567414951808262e-02,-9.774669438125746512e-02,-3.747633801804457765e-02,-8.884110403868770989e-02,-4.123394655276520215e-02
-2.882490807083840784e-02,9.073125676711520093e-02,-4.972586279414405869e-03,-4.438152604723691330e-02,-2.256372572337188038e-03,2.866074461983486588e-02,-7.402490020142114824e-02,5.155644850836042098e-02,7.038556999206958820e-02,6.847606341798284646e-02
7.811051656928336140e-02,-2.361944696842692773e-02,-1.047241086295888982e-02,-7.964972042644512251e-02,-5.220393465153969070e-02,9.429039745392706062e-02,-4.703242492729575036e-02,8.160108471978189115e-02,7.812901321403700750e-02,8.483496388632104368e-02
-6.879498344661937048e-02,7.593238137356808637e-02,2.570491852551477080e-02,-5.791459406835672286e-02,-3.300325562158310660e-02,-6.804496025667250425e-02,-8.059851258070864846e-03,-8.325011742094398648e-02,-6.694514639936312295e-02,-6.079089374107782273e-02
3.823114222998762884e-02,1.476491239668554188e-02,7.462920367604659877e-02,-5.107179603479804209e-02,2.474621853108198086e-02,-9.310792869397481464e-02,4.110875080817673680e-03,7.265846168041184550e-02,9.683134665968382015e-02,-9.774221661819026963e-02
-4.944293852104786335e-02,-5.523371622314597607e-02,-9.018335282738511316e-02,-9.798747039854530105e-02,-1.101272289991190277e-03,-9.090732075779058008e-02,-4.544615341361432637e-02,2.799358675058446003e-02,-4.106597937361294165e-02,-4.607976224861660974e-02
1.808904159786148269e-02,-2.388529591290015561e-02,4.074829696841154175e-02,-7.714995855909304902e-04,2.853961828759129724e-02,-2.929426765070045416e-02,-4.485215581132628859e-02,-7.332713864339170107e-02,8.742293871983938813e-02,6.103015966899520695e-02
8.764229330407832808e-02,-6.291476307516716271e-02,8.709641392852907060e-02,8.716414264538867307e-02,-4.013858384124425333e-02,-4.504917748491483326e-02,6.187465313886727873e-03,-6.286966837505500449e-02,-1.159549531390482655e-02,-6.259535311091533882e-02
8.947324549475761668e-02,-1.242735057433824860e-03,9.318037912519791521e-02,2.896053886635730976e-02,-1.347733728825104916e-03,9.355308917897457721e-02,-7.334096171062280678e-02,2.638961795134093027e-02,3.237554474401317661e-02,-1.333720771583566875e-02
-8.815945390597641762e-02,-1.464020215798533028e-03,-7.599962564360706642e-03,6.130694110506501593e-02,-5.082617659353227957e-02,-2.172786041791147441e-02,-4.869957861099543511e-02,3.721318325022787005e-02,9.799379919175563169e-02,-6.484076197161456334e-02
6.429945565904335303e-02,-5.378622913950477369e-02,-8.891367680228487447e-02,-7.218946649842410135e-02,8.448547440206552461e-02,7.770502867090627042e-02,-3.910529912748104270e-02,8.959899906103084566e-02,7.000896470707441976e-02,-1.319670278990625785e-02
-6.395682036902392356e-03,2.599579067915554209e-02,-6.804232144278751782e-02,-9.696962500254528716e-02,-4.364499637020002876e-02,-9.689503722669004504e-02,3.081229405193131390e-02,1.037114904735099777e-02,-3.565995306248471303e-02,5.632644341687562117e-02
-7.082954119820991656e-02,-5.102075850906863386e-02,-4.169786116527676723e-02,-6.080400902906795552e-02,-8.299713864893501492e-02,7.399773211827705144e-02,-8.173058441701155918e-02,3.676987092578416078e-02,-7.591528658186279255e-02,-9.780732270419022212e-02
1.145951784396598977e-02,8.140990638988709893e-02,7.255452102706176631e-02,-3.232367755720184921e-02,-9.281531312407083345e-02,6.017663884510426192e-02,5.888957213188487916e-02,7.368924423151113068e-02,3.392520963220731905e-02,6.167478697752280803e-02
7.950868454026555066e-02,-9.222225795846465679e-03,1.202463790005867464e-02,1.254683274161949797e-03,4.034202014086631094e-02,3.658059971944133126e-02,1.359089982980308869e-03,6.575748051559029972e-02,1.145302713465502558e-03,6.516876113180805619e-02
-4.362703468688849257e-02,-6.430019250327106972e-02,9.380893221344036026e-02,4.839265755068949265e-02,-4.956280291634672375e-02,1.624605695467255806e-02,9.272647728819352619e-02,-8.385061637181394356e-02,-8.328094071479742733e-02,2.381991365592608934e-02
-5.508643033518657167e-02,5.304316496445420775e-02,1.311102517809098131e-02,3.325295540682942502e-02,-8.067998739219452153e-02,-8.313786459511711413e-02,2.782175218853638957e-02,-1.804974397070755604e-02,-8.251926237457853086e-02,-2.589884520994742076e-02
3.444314982562749622e-02,-6.213490802590457968e-02,7.827809043491518182e-02,8.997169178428006397e-02,8.921720383418993428e-02,4.595077706804470696e-02,-1.444395245062885490e-02,4.873237121722880788e-02,-4.238891417030427738e-02,-3.734468289003785996e-02
2.121825356360136292e-02,1.911777667028676658e-02,7.667910503729520599e-02,-4.889975421499044572e-02,5.767981157750495802e-02,8.839250950613035396e-02,-1.063420130930287227e-01,-4.670923797678972790e-03,3.147071227464945387e-02,6.909301292182566667e-02
-6.329385034983833758e-02,7.115959161027249347e-02,-2.814566354670972742e-02,7.837521033633207401e-02,-9.817388308955227183e-02,-8.303883523700919533e-02,1.019808222836913331e-01,2.174882621872811436e-02,-1.650280394692992328e-02,-6.662964202346587095e-02
3.000185774003267386e-02,-9.256465786508195903e-02,-3.787959771062710673e-02,-3.520162841607479831e-02,1.942718174603047868e-02,3.019099233007569577e-02,7.101514565892802500e-02,8.559811405295311704e-02,3.212050461553137698e-02,1.579402183677847474e-02
-2.028139132552357268e-02,9.331491955669611593e-02,-6.878537956167439515e-02,7.896109414527946457e-02,-3.498341342736324688e-02,9.687489823945596296e-03,3.342052668459476877e-02,-5.273311586279463142e-02,-6.646368695323605358e-02,1.613113428468119928e-03
5.845765454945917039e-02,3.859771163926657700e-02,-7.507439996174643249e-02,8.030196523024411837e-02,-3.018432322142980732e-04,8.948616267151390802e-02,4.406673894898198787e-03,-8.285389638529323808e-02,-5.944020764660694345e-02,7.148911379744618544e-02
4.105532550972962325e-02,7.903180661292710796e-02,-3.355721852730381843e-02,5.572665664841409440e-03,3.462773762728335591e-02,1.889655796579721783e-02,-5.892510926710651381e-02,-1.458193571203293508e-02,-5.040738771379493083e-02,6.923035437849096863e-02
9.731027512101970978e-02,-8.669140890814007461e-02,4.286209542739618378e-02,-3.408175018800373157e-02,2.723225706827657466e-02,-4.835541828340476911e-02,2.844690656966345974e-02,-2.584869505963671363e-02,-4.105674080369080964e-02,8.210162048967790949e-02
8.849542474371199785e-02,2.261838911328575494e-02,-5.803414207307230899e-02,8.787167818879786096e-02,4.716819478841654395e-02,5.008027524188034957e-02,-5.310637565670309895e-02,6.595712382842887356e-02,-5.195785914480072903e-02,2.592182436835085979e-02
4.215358326187729904e-02,4.845466599312698436e-02,-2.253878755616793572e-02,5.200875461095290364e-02,7.684745070883315654e-02,1.744779952732387895e-02,-7.747855897395886093e-02,-7.422495943253387685e-02,-7.893320832912160967e-02,-6.554779738945311351e-02
-7.472401395222706688e-02,5.574581052994446312e-02,-9.110657044053011022e-02,-5.163686863365468671e-02,7.915651220404913702e-02,9.483240140670615159e-02,1.598538687191673399e-02,9.533164041111250042e-02,-9.128526054090269071e-02,9.009527303474597348e-02
-3.774640579772974708e-02,5.979025270522332625e-02,6.186422962347674914e-02,7.199557105599693752e-02,-9.980247797899589532e-03,8.612860363247688833e-02,-4.644028800764753856e-02,8.687952847647770205e-02,2.381728192028430974e-02,9.709044340255530703e-02
-9.348289578228570484e-02,4.503582353461300231e-02,1.367525950991317976e-02,-1.546942414297440040e-03,-4.497911100791445599e-02,-3.463382044564732726e-02,-5.397059920718685899e-02,-5.612245070076965492e-02,5.992231496788796852e-02,6.271372538189832428e-04
-8.338066562545921878e-02,5.544289092371649380e-02,7.648054381607633130e-03,4.793602443926622825e-02,6.559390563074282525e-03,-2.000565691277740588e-02,9.257131392191178532e-02,-9.434754381845800175e-02,8.655045425813950866e-02,8.635750579033432683e-02
-2.180643073633678833e-02,-5.713300560000020983e-02,2.328109655974206979e-02,-6.438875736280995354e-02,5.766734693260713168e-02,-4.925232949541788474e-02,-3.827023080852089837e-02,8.318376504838888297e-02,8.059552777840267579e-02,7.069204982244042118e-03
7.258025392553206501e-02,-2.952223622318743412e-02,9.925706718186862176e-02,-1.327879977384520578e-02,-4.399912005470956594e-02,-9.171062990732008202e-02,1.014785291483894791e-01,-7.045565396635072170e-03,4.694368254078145480e-02,2.796062567033167842e-02
4.397770307734838457e-02,-9.026757877561114585e-02,8.698098692105030172e-02,8.531431847472639718e-02,6.050573456798147981e-03,9.216326352189632698e-02,-4.005231182097897941e-02,2.021959772244402709e-02,-2.071520965706507775e-02,2.524664279491055721e-02
-3.882342639877638807e-02,6.473276358410161302e-02,-9.062243539221816191e-02,-9.138694217340138926e-02,-8.376188998543743214e-02,-6.877756172047760908e-02,-2.707062059152897174e-02,9.139330140950446824e-02,-7.765609577127785546e-02,3.009181174935100095e-02
4.456123237876433163e-03,-3.003622451052004316e-02,-5.571981184303228390e-02,-5.597640111409742797e-02,-9.525221968934403927e-02,4.176391181409185721e-02,3.356428716131591022e-02,-1.160282001745824819e-02,4.373452873471334740e-02,-7.829774158353763891e-02
8.737680593646693361e-02,6.947474769336446643e-02,3.379495699870336406e-02,-2.407082498780710109e-02,-1.812824949685951093e-02,-3.814727194185875241e-03,8.637112939162834568e-02,7.284217513085931850e-02,-4.360717542177414141e-03,1.136519097556330619e-02
7.574168587428915800e-02,9.009860756674095694e-02,2.572244311970378963e-02,4.969936055424467591e-02,-2.643382424189729546e-02,8.405386078367683977e-02,6.481179971207366719e-02,1.042216803431291784e-02,7.350857486032508215e-02,7.004204765459716431e-02
6.264097579472792388e-02,-7.341344484386401470e-02,4.138005985013206572e-03,8.031809008298675112e-02,5.821210733718380076e-02,-1.515312747154968186e-02,9.121169747843106690e-02,-4.942148805997372690e-02,-3.315712960123712999e-02,9.140415058262883752e-02
6.289149627994893021e-02,8.052873821791108055e-02,-1.010960922730488598e-01,-2.397726166400092687e-02,-4.773810450794956084e-02,-4.001132553574204137e-02,4.282209137476171434e-02,4.504865297773098104e-02,-7.619783368057771525e-03,-2.664429223931510937e-02
1.796227264166302962e-02,7.017926151028947880e-03,6.626316793827079742e-03,2.306422872056331300e-02,-1.870175789178932929e-02,5.477476553123083319e-02,-5.010786366194283636e-02,3.124622201342223612e-02,9.209669077685947447e-02,-9.943107859855740416e-02
4.342216110973835808e-02,-7.873589220029793279e-02,1.259177905967921035e-02,2.530909013012577063e-02,-5.585811037428011633e-02,8.186956707058691551e-02,2.841762060609840171e-02,-5.393806345797783758e-02,5.398045168085750106e-02,-7.915918855070232241e-02
1.030256205052970664e-02,-8.122512017242346227e-02,1.842511570336726953e-02,-4.938906808137266680e-02,2.588319261592356493e-02,4.251533449989915170e-02,8.546551617170277879e-03,3.137943693570416359e-02,6.267531143549708028e-02,6.127717815207068403e-02
2.525547041179728933e-02,-9.432061719721898663e-03,-2.254847609456049617e-02,7.500210438392351797e-02,4.421028956117735442e-02,-6.218806534153466931e-02,1.063480568935094329e-02,8.198863943426579204e-02,-6.982907335442080365e-02,6.932569989421093204e-02
6.385721128085851406e-02,-1.054896618143356669e-04,-9.276517906409788294e-02,-7.049138702517258881e-02,8.213541384789121991e-02,-9.122719755888596127e-02,-2.264975351892836372e-02,2.384253139906582566e-02,-6.061613046525368698e-02,9.621790326663799686e-02
-6.813194845841796798e-02,8.259805755754905110e-03,2.126583556489934634e-02,-5.380193619906207397e-02,-3.290258194978909218e-03,-1.247210758647696862e-03,5.053532982096517467e-02,2.696449522927624187e-02,-6.479542693075338033e-03,3.344721891789557977e-02
-8.479037663894146287e-03,5.636948869551511657e-03,2.877290146983158686e-02,-6.362705430582341060e-02,6.139642174104237293e-02,2.103447461555666906e-02,9.283204151484789057e-02,-5.537169503285051253e-02,-6.732152999671349100e-03,7.941548889562130564e-02
1.913883932190881682e-02,4.484535012772496859e-02,-1.347401036005445481e-02,3.688712606967714525e-02,8.618279781418583529e-02,-6.066637523720527087e-02,6.292825940081531177e-02,9.382739414817535539e-02,-9.707485508970692401e-02,-5.693557989509191730e-02
-7.685974143113973034e-02,5.325639950149418933e-02,-8.248431260315811087e-02,9.970911185390937681e-02,-2.556604281613505600e-02,8.062049727811376743e-02,-5.895767368396050839e-02,-1.189097560658108378e-02,6.902740755300122710e-02,1.890068343481372468e-02
-9.562816210970844985e-03,1.682893458816390238e-03,2.075893662683446148e-02,-1.209869456588603433e-02,-6.677053852173617243e-02,-7.892366809154613416e-02,-6.451305546341892794e-02,-8.991683499613055408e-02,1.164560431216877905e-02,6.902889613833634863e-02
-2.519099016156703744e-02,-8.313474747469294657e-02,-2.407493364259000873e-02,2.080780278269752856e-02,-8.283419039437722384e-03,6.442314224719999927e-02,8.127913743848191874e-02,7.489976187657523821e-02,4.125853473476194522e-02,-5.107768017993577492e-03
3.350291974942827544e-02,-9.822258581526728538e-02,1.049649737166191421e-01,-6.567787767845155444e-02,7.646022551597810024e-02,5.927210319574325453e-02,6.325239456277759187e-02,-4.646861696031309719e-02,-5.623438375448389093e-02,-1.463468407964921281e-02
6.852923093365029250e-02,-1.012055057415063054e-02,9.075075820886553679e-02,-2.932203582795952362e-02,2.166060943343587827e-02,9.524883387806129531e-02,2.918063294740807709e-02,-9.084645025583103217e-02,-7.224430455528901493e-03,-3.281448639585126531e-02
8.455584135069011895e-03,-4.251664840544572277e-02,-8.117799567075410783e-02,3.366091499956753302e-02,3.968298107610621767e-02,7.459902295867398836e-02,-7.520158769966966972e-02,5.986474179206078411e-02,6.535749072372611101e-02,2.933499749127677428e-02
-5.680383926543483564e-02,-4.701354921232496487e-02,-2.054996412074437326e-02,8.680332173154843567e-03,2.136289074741674475e-04,-5.105273880825576122e-03,6.189678315837925798e-02,7.426165244864810222e-02,6.352284498494091547e-02,7.610439613926600622e-02
1.690084958829064093e-02,9.357256934701588258e-02,1.289384077396558970e-02,2.086020023052436931e-02,-3.007692515811408868e-02,3.853105655147208430e-02,-9.382771521764227129e-02,-7.278589706595782471e-02,-7.392853852280704963e-02,3.145945349580243910e-02
-6.360152532720624030e-02,-3.138904803512929109e-02,-9.440359052642482984e-02,-5.338409044583945079e-02,9.574494696195637311e-02,2.895976068602256880e-03,-7.210223363779449945e-02,4.830875219909149150e-03,8.870952310077535874e-02,7.293268791344632851e-02
-2.379470890373148323e-02,-4.399745734338186137e-02,5.787638847076802262e-02,-5.199171638906417009e-02,-5.381491330414781699e-02,-8.484459544780664775e-02,7.730376011817496895e-02,-1.065034188037585101e-02,1.233231981990426211e-02,4.698256684460092036e-02
5.655421781598255621e-02,-1.102482300649734737e-02,-5.519353520783857464e-02,6.577520636076696070e-02,-9.907787209027528463e-02,8.761307196246830020e-02,1.782485352992909874e-02,7.496713005497540605e-02,2.175012385548419011e-02,-4.975332341181763762e-02
-3.829004047659630844e-02,7.638428438561107627e-03,8.341615673146449139e-02,-6.291105318297859905e-02,5.812270581103245841e-03,-2.922992786225116560e-02,5.269765507908440172e-02,6.091260343372317115e-02,-1.502806587225483798e-02,-5.890062224366666294e-02
-8.738385712170713970e-02,-6.052672117199774104e-02,-4.364746580445381940e-02,1.977486139511967084e-02,7.255531493114053543e-02,-7.472854810902193612e-02,9.336107338762786312e-02,3.652735935198115486e-02,4.838829541267248430e-02,9.656899494390797090e-02
-1.487992189082400912e-02,6.824976473886240104e-03,3.060196540470578458e-02,2.520994276250481617e-03,-3.654683817801205464e-02,-7.749256309783215946e-02,-4.545544104855485379e-02,5.399215056728427081e-02,2.815368285331714196e-02,6.031454471089317537e-02
5.532704287223456224e-03,-5.265228821576281582e-02,1.904207982191250328e-02,-3.895114071926510796e-02,-8.970342282982510240e-02,8.238901287416201813e-02,-1.980168531678527452e-02,-1.429270134668206814e-02,4.831494974518320967e-02,9.017416798884209106e-02
-8.778543728556102710e-02,-6.593853201563681932e-02,-3.048829437308055515e-02,-5.029910859287938657e-02,-4.849168494591337558e-03,6.336019923013400112e-02,7.409955896013452337e-02,1.909518639838491544e-02,-5.196953851026269583e-02,-6.274052073581086464e-02
4.736375923949050909e-02,-5.311883545155430403e-02,1.174612185654208031e-02,4.980470478049114219e-02,-5.817768483657737022e-02,-6.622647786073372622e-02,-8.871841546382858157e-02,-7.058902503709256482e-02,7.031654397417998192e-02,-7.929951454987559101e-02
-5.840027096115481958e-02,-9.465700163670039136e-02,4.310480629625550869e-02,-5.387753450470184752e-02,-2.450974533788304738e-02,-7.468875134996424969e-02,-1.695936015215727607e-02,-1.553611441727324564e-02,-5.541320841167043758e-03,-1.597142108234710783e-02
-7.569252589303612777e-02,5.606578362232216006e-02,-8.195696139580166406e-02,-1.456445394965218826e-02,-3.626005596737934961e-02,-3.697616060827259299e-02,2.387151417026918757e-02,4.031128445491736524e-03,-6.141678375601190149e-02,-5.255834554473146243e-03
-3.605388276929265279e-02,3.954116645005258807e-02,-4.711431872969055329e-02,6.877011153328642379e-02,-3.939052081638137401e-03,-2.379437718214949191e-03,-3.845578943440505076e-02,-6.301310266304342711e-02,-5.858775611153990356e-03,9.559420139154828355e-02
-7.551185720943440205e-02,-4.354502515069265389e-02,6.337513153840007574e-02,3.311584420564903791e-02,-4.816358556639662586e-02,-3.822780485003888368e-02,-1.223899313977964282e-02,2.052973089342521179e-02,4.396864483300229332e-02,7.161128957970061548e-02
3.890325997593431506e-02,-5.189291261733432886e-02,7.900846885053236512e-02,5.625933590407412865e-02,-3.263504051292175773e-02,-3.698094913526388944e-02,7.058705518874477947e-02,-7.453417969546891064e-02,2.672557773997567138e-02,-4.428522398881321737e-02
6.916167327859322478e-02,-2.581073375246668855e-02,3.883792986153391386e-02,-6.116582260358612022e-02,3.039874932457887081e-03,6.331607956348937749e-02,-2.895649044864666635e-02,-6.721982366881368298e-02,3.019436651314322262e-02,5.128665864850275730e-02
-3.945234005391618642e-02,-8.636817900041292989e-03,6.935902402092625207e-02,7.460048245146806700e-02,5.122087361259727856e-02,2.186281496657519266e-02,5.398764247799642257e-02,8.178626891924060949e-02,-9.934472337470005854e-02,-2.001532674900278683e-02
1.458814229736880158e-02,4.682801924584402420e-02,-8.645862249999297644e-02,-2.029756961603109214e-02,-3.931177164382385764e-02,-1.401705236938750529e-02,-4.079234349116845834e-03,3.171552135512580028e-02,-8.486598169148860862e-04,2.395922703674989787e-02
1.305596068091045142e-02,-1.528112288138036741e-02,-9.175033566381947392e-02,-6.119763208844095081e-02,-4.392071329577580674e-02,-7.279678705962418228e-02,2.771121367117326817e-02,2.212650537577206394e-02,-3.342216755029888423e-05,-3.620259895046521598e-02
2.606313483005961995e-02,-6.266265641341717263e-02,-8.885168495003525901e-02,4.699882679976116751e-02,-1.908673628187767396e-02,3.673612977375164540e-02,-5.659178499063787643e-02,-8.773364654185324130e-02,-2.443396492701018982e-02,3.905803902831466584e-02
-7.520277116725608557e-02,-5.976853531113308221e-02,-1.626458953425354015e-02,2.440066935836059103e-02,5.855409609208854504e-02,-7.493380219110382101e-02,1.382291947540576285e-02,-2.234507020693888776e-02,3.429827834074073573e-02,-5.871147759712094100e-02
4.055431032768124985e-03,-6.607657033857661233e-02,-9.253855511463900119e-02,-2.591710490374812912e-03,-6.645736694155821023e-02,2.656766515167715420e-02,1.016508666844423772e-02,5.483753592268342247e-02,-2.140397971545820316e-02,9.787565268101630633e-02
6.396755336501913636e-03,-3.576081547496679121e-03,4.353132264488904224e-02,1.449561544650095415e-02,-2.025538187953578040e-02,3.043334047422529523e-04,-6.985280810953535535e-02,-2.112567923380010912e-02,-9.399570861576417302e-02,-7.304054195649682148e-03
-4.203794609990997577e-02,6.338149941151948429e-03,-9.946180624512310220e-02,1.121865645859944534e-02,-3.304729723151324933e-02,1.857618910682929531e-02,3.515177914193307052e-02,-1.157484116020418390e-02,3.281164036710090826e-02,-5.173214757099211386e-02
9.628915168806657932e-02,-5.200240557076591524e-02,9.497970677495505554e-02,-5.651820097294562445e-02,-7.035616096538234616e-03,6.197703782582696802e-02,4.957381695631956492e-02,4.103309592216135282e-02,-1.195558303575278494e-02,5.066923027324798240e-02
8.073342390239016120e-02,-1.293292561334531861e-02,1.340627007397907772e-02,-8.688797206612146329e-02,-2.784214876754992699e-02,-8.674661127600546626e-03,8.429023754547775027e-02,-7.796709894886307002e-02,4.619523007771057094e-02,8.804035586457719179e-03
1.745628948206489131e-02,-9.475669065594595486e-02,-6.634933063230512296e-02,-4.335515020990029361e-02,-1.061452896121591466e-01,3.106894184017568172e-02,8.511866466575274126e-02,9.257289232791449454e-03,8.491513487241935179e-03,2.265277439226206710e-02
-3.495485462952456490e-02,-2.520711969626305768e-02,7.951552427872519285e-03,6.229581497843665605e-02,-5.147541790391807481e-02,-3.095820908758385379e-02,3.503973458573700350e-02,-3.138036448092375308e-02,-8.971756897693575206e-02,-6.759359917026508402e-02
-6.428703083044312594e-02,-1.656298614641716271e-03,3.037648920300581312e-02,7.594042238998029160e-02,7.400097634458584206e-02,-4.105288008087304430e-02,6.111793347475048821e-02,-4.369563724560131257e-02,-2.650663135401677001e-02,-4.201113909055607942e-02
-1.957693170980995268e-02,-5.683826398358485243e-02,-3.235287983238608472e-02,-7.539694177020300758e-02,8.843527276673286697e-02,-7.714003654642541223e-04,8.782258315161592388e-02,4.942398660419879131e-02,-8.255181769348139340e-03,5.109012442279054628e-02
2.896488901138248237e-02,-3.881802305016203436e-02,-5.492792092836767167e-04,4.242630028334577752e-02,-3.283323339726317014e-02,-9.520857740433881500e-02,-5.387893829823936498e-02,5.935742013366526737e-02,8.606289483691825781e-02,2.526093484338606809e-02
-7.065366107750702118e-02,5.245195620730903896e-02,2.018816489492586755e-03,5.110584726970265890e-02,7.727856336986653474e-02,9.161441401855235922e-02,2.082788039033344613e-02,7.125764997811863399e-02,4.900139896286512947e-02,4.625523563805199884e-02
7.487970006424954361e-02,8.541286141092874207e-02,7.641471048281359146e-02,-2.066178274247229552e-02,-7.499851457996505044e-02,6.907233732053744135e-02,-4.850033776334201040e-03,8.626626444967554208e-03,6.532768539539375585e-02,-9.294713374882299095e-02
7.740976739885539748e-02,-9.301457466217123715e-02,3.592090942773733947e-02,1.717948641297522422e-02,3.034175413646153160e-02,-2.355691795630237076e-02,-4.673771799879913869e-02,1.707006124990600613e-03,7.694522477595173993e-02,1.282230673383718926e-02
2.977300316726624180e-02,-1.218119671122192861e-02,9.818331234396315832e-02,4.851907847820528807e-02,-3.375555391865254357e-02,2.823955273104317501e-02,1.541751102144126549e-02,7.685564736898209404e-02,-4.496675525827531494e-02,-7.860112604403783620e-02
-6.606710312031606469e-02,-2.321054101472514244e-02,7.638306778249456808e-02,-4.579238140063586482e-02,1.634666463874545964e-02,2.182932191077719894e-02,-6.964177940778969698e-03,-8.992757813023281865e-02,4.891541085609916323e-02,-4.109762961453049257e-02
-1.762115080872450265e-02,-2.406488870877213082e-02,2.964274658511540858e-02,-8.265232315491245763e-02,1.551977734572045249e-02,-9.466911968555392909e-02,8.819837804828953298e-02,1.962446894768104730e-02,-2.308445522324279256e-02,-7.023867533916339223e-02
3.721113610908165226e-02,8.071982955937384574e-02,-3.182618463138801174e-02,5.329034811374776942e-02,-4.760710516523043723e-02,8.960314374838487805e-02,4.572641464668959072e-02,2.493931188264151069e-02,8.608340842614323196e-02,-4.631639209944779512e-02
8.766023710064729801e-02,3.578906051831715757e-02,5.036438787602046802e-02,1.433094684839255999e-02,7.128799579231485939e-02,4.200296538387552486e-02,-7.687867040446796918e-02,2.244628572952706708e-02,-4.406881487889522525e-02,8.329598403044198573e-02
-5.697885350054993775e-02,-4.187141058591498793e-02,-9.549186144649698949e-02,-1.028364937472654207e-02,1.944343281359463965e-02,1.794471096778678387e-02,6.977143094126453393e-02,-3.040491928566077182e-02,-1.047262591921804299e-02,7.072152283052354771e-02
1.351023876524932478e-02,3.047677725138885421e-02,-4.177490742738668855e-02,-2.452817216198238497e-03,1.963630884271101718e-02,-7.552339593957219099e-02,-8.695888783109431697e-02,-7.728917244442064238e-02,-4.535477997168081178e-03,-9.532730269361722186e-02
2.119548004183837223e-02,-8.118979400394306378e-02,-4.245889793912208804e-02,-1.471327282263156302e-02,-8.314536169536922150e-02,-4.850544632420805691e-02,-8.887829417811113353e-02,9.684922486085313642e-02,2.225305775908349021e-02,-2.467120677996409439e-02
-9.681240170366477160e-02,-2.263296019471194853e-02,-8.927970745109283651e-03,8.611178937527565191e-02,-4.783737483900502019e-02,2.089503118319750719e-02,4.178655380928507357e-02,-6.294197638138830653e-02,9.511715411224965335e-04,5.672982171152412406e-02
-7.772426692806547188e-02,2.233116679942143482e-02,-9.311869598407639115e-02,-9.799924024998944716e-02,-8.556645793702842562e-02,-1.377776418405593419e-03,7.113844004689458267e-02,-1.831262774199944598e-02,-8.425323775275994631e-02,7.374202857276375422e-02
2.374063954995530180e-03,-3.692174086645372277e-02,9.139113471271824440e-02,8.745961693910292434e-02,-4.665271897555439695e-02,-6.127624687326685415e-02,2.267260613940622407e-02,6.822703007940034148e-02,-3.290762961413939980e-02,1.673704684424750719e-02
-6.907307413976464250e-02,-6.073145629653933786e-02,5.327345449486618062e-02,-6.960330228661656959e-02,-4.850212157710413058e-02,3.648419930341624540e-02,-9.505423194231231443e-02,-9.305377522723111416e-02,-4.222848314751582316e-02,-3.248977951630450944e-02
-2.538069142497163810e-02,6.160474316199408829e-02,-9.304299104040482382e-02,-2.840911408827867524e-02,2.933727908694238121e-02,-6.970236308237365286e-02,6.608023279634403502e-02,2.892521532816207108e-02,-7.691820110961831991e-02,-5.814231075249692154e-02
5.115388946932260955e-02,-1.816212629342230447e-02,-2.395146559208364417e-03,7.808814591227015989e-02,-6.981599574754911164e-02,9.476215603813824273e-02,-1.027255528197253825e-01,-7.960581871783893593e-02,-5.479011395898103487e-02,6.239854215026267165e-02
-5.735381079900971589e-03,3.137227016871978191e-02,-6.473288019414986938e-02,-6.651684773169203035e-02,7.014381160759396334e-03,5.047665354792867792e-02,-1.812025122541897210e-02,7.397248821218649351e-02,3.220151906456711344e-02,-4.935203804901695107e-02
-5.197255079891163060e-02,-2.526792447057961064e-02,5.146185523844464677e-02,8.737958264486783699e-02,7.292807849782405316e-02,-4.648167322528049678e-02,-1.936921255682239745e-02,2.192426053565184677e-02,9.020196401327080366e-03,-2.223223648040232453e-02
-8.147353484570735160e-02,4.195583245717902920e-02,-8.280163137430099352e-02,7.312701463617535258e-02,7.172222161657738904e-02,3.967542932612744266e-02,3.524442172668919120e-03,3.987021755611631219e-02,-2.113973139132940826e-02,5.910605785477514307e-02
5.445113686833638611e-02,-6.907614118437001294e-02,-3.561529977220020265e-02,-3.108210385710208704e-02,-2.950532823286229969e-02,1.082146251698780544e-02,-8.482923083218585347e-02,3.238246619985948871e-02,-5.970936776062936435e-02,-1.697484887675172402e-02
-8.864264173618964862e-03,-2.965271014560965854e-02,-2.131513020787422635e-02,-6.376048100212446113e-02,-8.612849039280891239e-02,1.169276310442209608e-02,1.283919444151370576e-02,-7.075338599533453898e-02,-5.367754354436012065e-02,-4.212433647382279878e-02
6.415284091461220806e-02,-6.949904796980790889e-02,1.264013529431299611e-02,1.371175916328217295e-02,-3.551362203271019730e-02,-3.169374637261674482e-02,9.765537172489592577e-02,1.078432865888960708e-02,3.055418266752801468e-02,-1.909122037940364251e-03
3.096638894828982955e-02,2.117639995357513752e-02,-7.065274067275785497e-02,-3.310389986321627537e-02,-6.948967976233019241e-03,-7.261391819430540462e-02,-3.250915935681987501e-02,-5.462906011630962871e-02,6.966862095552088519e-02,-3.131328603014782441e-02
-5.269266375123720508e-02,-1.768110736971095082e-02,3.735610944159627189e-02,-8.671777204694799956e-02,-6.253917743906234339e-02,4.108305108557265550e-02,4.215701574144566782e-02,2.374559148962530897e-02,7.618526610129464083e-02,-6.555580172111857840e-02
3.970703015194552293e-02,8.327521001272902845e-02,-7.080964828465034777e-02,-5.110836197471866488e-02,9.191549967653941597e-03,-3.259427858905358105e-02,4.162560177938202932e-02,-8.834570862363352872e-02,-6.780579697065856892e-02,4.312931950261628816e-02
9.153494455394642348e-02,8.535534643243425368e-02,8.170400705700743560e-02,-7.450997962452204915e-02,-7.561504956042321146e-02,-8.774975694042513874e-02,1.788206384755714265e-02,7.657244553401740261e-02,6.174807841301972570e-03,5.579250059293787423e-02
-6.340739653881782845e-02,7.177916002060895362e-02,-6.592341252903423376e-02,-8.912095743028382311e-02,-1.543505581958198349e-02,9.735405877004499331e-03,1.013856039843664264e-01,-8.164854159302414871e-02,-4.531819267468185919e-02,-7.967253538051592698e-02
-1.977039814812963855e-02,-4.059276427400894394e-02,7.401973401019190137e-03,-2.937694934829732443e-02,8.654281381686590446e-02,6.044207711803996352e-02,5.594067765800421477e-02,-7.329237023317432265e-02,1.599480937040532666e-02,-5.538015271919911886e-02
7.277515782586220505e-02,-9.813618157890537097e-02,-8.341320000592980510e-02,-2.509221898861681982e-02,-2.128270595027709905e-02,-4.608610722723319175e-02,-6.955195813935211024e-02,-7.648974065493611973e-02,-3.672548078740713040e-02,8.958328845502439020e-02
-5.859598441531279484e-02,4.999738608720165345e-02,-4.980590231443598331e-02,-9.188934777346413618e-02,-9.600258080992545018e-02,-7.015801621824843681e-02,-8.768531305324867367e-03,5.180429339609542161e-02,4.617456596780285250e-02,-2.914316045262985155e-02
-3.610169015066504346e-03,6.303091048839701283e-02,6.995363201915631712e-02,-3.613723909566324971e-02,-1.003321938504213168e-01,-8.935429842151416946e-02,4.441676802125168327e-02,-4.567875018096285294e-02,-3.700198344676045546e-03,-6.125141412786618000e-02
7.104936325969851696e-02,1.818491576950279640e-03,7.513272802278478553e-03,-4.158011207234370288e-02,2.673962400258629839e-03,-9.804356159874660914e-02,-5.440129937608266519e-02,-2.959794067306064508e-02,-4.249985608133505233e-02,-8.180145957335631379e-02
6.001558447673563737e-03,5.850866140598841303e-02,9.262872740678569639e-02,-5.722759521832893742e-04,1.782874542011268423e-02,-3.987415225301318977e-02,-7.875649634451704906e-02,-7.371314207311398248e-02,4.663425581108470580e-02,4.783887360447160869e-02
-6.380660666158959049e-02,-1.750081961553381221e-02,2.090316827020406026e-02,-7.537031747133823845e-02,5.827739109244452903e-02,2.504273538140109820e-02,2.001361601495865034e-02,3.972628463595044568e-02,9.710403215319991788e-02,1.235154522627540316e-02
7.190022385851024822e-02,-1.692554351025051668e-02,2.788296444683793784e-02,8.493737399723497172e-02,3.241728417425910475e-02,-4.072396664526722193e-02,3.115504154392293931e-02,-2.972460143855274600e-02,-3.573002729211056938e-02,2.159579397130902134e-02
-6.872399594643531506e-02,-2.750696881516530735e-03,8.632767801698959520e-02,-2.297335548493747645e-02,-6.301711369082756142e-02,-8.005736352489216043e-03,7.409854294665038643e-02,6.895759947437166137e-02,6.553324850592105733e-02,-9.799286184519373499e-02
-4.580644341206376730e-02,1.006225079271799994e-01,-7.211998161681634767e-02,-1.766654150123506389e-03,5.853002810945611561e-02,-7.395566891918074759e-02,2.404975824261011003e-02,-2.415647400587667571e-03,-6.092029431846938958e-02,7.625010881013465081e-02
-6.430547119701750247e-02,2.783202881200293188e-02,4.701466611416164898e-02,1.263939963370498513e-02,2.700635449194565066e-02,-7.733585472546206097e-02,-3.695134395074878980e-02,1.758675673840843015e-02,-2.087037164861127447e-02,3.263503150909201345e-02
7.116517822659131076e-02,-6.174451997184272206e-02,8.359625936611048136e-02,-2.354957481297277264e-02,8.822782863337141901e-02,2.493176635349232673e-02,5.298062909734634757e-02,2.670541289046996208e-03,6.362763632737632701e-03,-3.409257744397378026e-02
-7.306585789440508960e-02,-2.256080263515310158e-02,-5.266453472602776464e-02,-9.322799877938757473e-02,-4.596451498633429694e-02,-6.230877345392538125e-02,6.721929054208962417e-02,-8.371844053770369221e-02,-6.306989733043004420e-02,4.159841186952433628e-02
8.334318588275881068e-02,-4.999689400840130055e-02,-9.852277960154219583e-02,9.224569517420122544e-02,3.733055941765325153e-02,-3.898478293044383564e-02,-2.084121721044582525e-03,2.003206486137690256e-02,-2.511204305476583132e-02,7.482090973761117148e-02
4.405867265717226117e-02,9.030297540969968451e-02,-3.185957332817253296e-02,8.737177873008436513e-02,-4.038479340934239374e-03,2.690356348506377226e-02,5.286534963859653574e-02,6.186698031820990484e-02,-2.074165610041666524e-02,-1.065628408248713715e-02
6.243905019386741806e-02,4.233531036273639053e-02,8.362549933482359144e-02,9.577055529455755223e-02,-6.597602909264645155e-02,-5.571083698307060378e-02,5.407380155037963543e-02,4.942204692246254111e-02,2.031900051319833825e-02,7.489411361611529594e-02
-4.732726394916558083e-02,-2.991610908415436379e-02,4.717531239404939951e-03,-3.566114989673790231e-02,1.080842239652954340e-02,3.874546435696075292e-02,-7.499772113656916206e-02,-1.971917494264955033e-03,9.953046111070386337e-02,-3.354452192999799603e-02
-9.379899328981039508e-02,6.177460820294648075e-02,-3.751430175125454111e-03,-8.975275345139070715e-02,7.622583523461456956e-02,-2.023966885373608068e-02,9.750133492471825536e-02,-1.985237785517692671e-02,-8.495962847508310711e-02,-5.172523015519837203e-02
-2.955522082063057401e-02,5.022146790101565672e-02,-6.472481401618310204e-02,-1.330845041215449054e-02,7.473580430877455050e-02,6.181266867172997836e-03,-7.918876589396763033e-02,-9.451762072054843700e-02,4.137520914526388038e-02,9.604744649111597588e-02
5.723169865303008585e-02,5.358902538968078610e-02,3.855722684101287739e-02,5.889558284839496033e-02,-9.214895720454234496e-02,-4.606933149337977956e-02,3.410555244394219976e-02,7.310045066864864771e-02,3.497880688893301171e-02,-6.447806132702857407e-02
8.874258866722804784e-02,8.202826390993586680e-02,-7.830354860721418231e-02,-6.062226827688454306e-02,-4.487735030718258827e-02,4.904113644900970348e-02,6.030715776053990895e-02,1.644143634789838743e-02,-5.953572494895827127e-02,-1.614128319207774193e-02
-7.133199708107622328e-02,8.504929345450971956e-02,5.873076856800427126e-02,2.314204568296121794e-03,-9.033659572059515516e-03,-7.918747239514624392e-02,-4.779303694058192886e-02,-7.573611266187446622e-02,5.672039417044855147e-02,9.857058799814209793e-03
-5.497454893910194013e-02,-5.522426114793730495e-02,-4.509854318075637997e-02,-3.894880451670586913e-02,-2.411275666078328828e-02,-3.981418533224213852e-02,3.652530198660980387e-02,-9.374464669343916812e-02,-3.472148079068476667e-02,4.892131253292056337e-02
8.780915818739885859e-02,5.965456737417084571e-02,-5.670912343411545903e-02,-5.347980964303798712e-02,-6.325478202184620091e-02,7.522126125500190608e-02,-4.287648508276336451e-02,5.174945544873690850e-02,-4.795164770486787242e-02,-9.370570873256359179e-02
4.619363723898521623e-02,4.463772668606515170e-02,-8.629155574459544675e-02,-3.430825819795182280e-02,8.902471511975415530e-02,-6.887616482508385207e-02,-7.570824248071365836e-02,1.933311262908786465e-02,8.613018102702726941e-02,-7.360141117668930755e-02
3.334332703408228547e-03,3.779380227387859476e-02,-6.163714026573351851e-02,-9.762441498194450451e-02,7.920000771363876202e-02,-9.192951390656628474e-02,-5.767897307294742731e-02,3.037571759488300743e-02,-4.276305134113891904e-02,-9.754108521987853164e-02
1.513844948324651746e-02,-3.854743225885817054e-02,-7.204249399596293624e-02,9.439049940486285428e-02,-6.524363342357622497e-02,4.468358192012844565e-02,7.909565576500794670e-02,7.208496452289732404e-02,-6.309084235592905820e-02,-5.271792836186224573e-02
-9.571766846056289912e-02,8.682076193985739654e-02,8.043891264236222027e-02,1.888901629868708701e-02,-7.814929272239251601e-02,-6.409549938570481553e-02,9.805874975067596991e-03,-4.994803260245374299e-02,-3.972370567304866346e-02,-6.531191134072081295e-02
-6.100314594607985502e-02,-5.743960189132908331e-03,6.729074820676033027e-03,2.831947515037080282e-03,1.011130794241697356e-01,-7.242264844631436660e-02,3.821275561667769605e-02,5.920762940476290148e-02,1.744408412865692745e-02,-6.619062919269465446e-03
7.852983993763006099e-02,6.517869659742446531e-02,-9.325711409857542766e-02,9.280627710349842463e-02,-9.815418025395870882e-02,1.380171812702043858e-02,1.841455704870782403e-02,6.717679780071153517e-02,-2.291911809931697352e-02,-8.199326202984306977e-02
1.567600822076557071e-02,-9.603498397200553593e-02,-3.158892856472475530e-02,9.689436610598767263e-02,7.285458409472034269e-02,-7.065775496789111765e-02,6.837409551331630198e-02,6.199487895306768359e-02,8.548716322526905831e-02,-5.553226907047797284e-02
-1.308175265836278734e-03,6.453952004356486305e-02,2.895246484478125257e-02,1.857442464133297194e-02,2.890354002889531856e-02,-5.331364626251756944e-02,-8.464333692962265621e-02,4.705871332409589797e-02,-3.499503516224715394e-02,-2.506459277522533891e-02
2.490269137635308175e-02,3.328823017597788703e-02,-5.386903043513166511e-02,6.596903336475976043e-02,-2.098386472017792562e-02,2.833730243742467458e-02,7.483638848022319823e-02,1.373872443677545511e-02,-2.725981765522204545e-02,2.498863257424728535e-02
-7.724842989286959637e-04,-1.058679748776932515e-02,4.246443806917537395e-02,8.466759496755654757e-02,-5.754893743705620165e-03,-8.338391150130881890e-02,2.401890775783131066e-02,-5.140167163482969870e-02,-9.227527916818831222e-02,5.717896639677487458e-02
-4.451802025353364389e-02,5.555457522334004972e-02,-3.768751340695028918e-03,-3.555556087084477124e-02,-3.765960766738892657e-02,-9.167842041073498427e-02,5.055493713790773329e-03,6.557203600726133064e-02,-8.265820497055581528e-02,-7.785569444725706778e-02
6.104015812769752504e-03,3.242410101969069730e-02,4.173972504342667728e-02,-3.751103490521556783e-02,-9.059096738075383959e-02,-1.636458782871359069e-02,-6.070242823163059243e-02,-1.000173777762618094e-01,3.726495452213221538e-02,9.058243810083037306e-02
-1.970207290672715966e-02,-3.881270066611852698e-02,1.537185841306679124e-02,7.108517650391819875e-02,6.117736374372968744e-02,3.821615814425283891e-02,-2.783931842277231200e-02,3.872790943639216332e-02,-5.611374429599789299e-02,-4.222817184873550733e-02
5.703013652370381159e-02,8.722985316855233484e-02,-5.660361920693442878e-02,-4.069958901245602362e-02,-9.600460162981551415e-02,-1.204455107744825323e-02,-7.191988216940112255e-02,2.859057727433274645e-02,4.231969962384370121e-02,-7.554345606729825913e-02
-8.452256317114444084e-02,8.117327903545452916e-02,-2.030938691763729126e-02,5.954236090481999401e-03,9.312583068027485700e-02,5.194972794869374272e-02,-3.392137474651962803e-02,-8.352799710306611780e-02,6.709629269881831233e-03,-3.324018926756396736e-02
-9.661647700256048577e-02,5.321172185927275367e-02,-2.720926743766467065e-02,1.421446460769245843e-02,4.905840717372432491e-02,8.711544471706707260e-02,3.272224427325502727e-02,-3.693493480676990348e-02,-7.833363248596736383e-02,-8.575352957546301946e-02
-3.693263907212808450e-02,3.148993081769883851e-02,3.493820355287247797e-02,-5.821392554023586269e-02,-8.565175525810676815e-02,-4.026285664305186834e-02,1.901999343567625095e-02,5.123027017207333611e-02,5.645644789172466968e-03,-4.314448122590156670e-02
2.557411353224296746e-02,-4.633249615491658729e-02,3.412410648908169308e-02,6.831800041874641627e-02,2.876163315098076434e-02,1.405678293357889852e-02,-4.567034993155133504e-02,7.523506233202391369e-02,9.787036789961432726e-02,5.574419034671827117e-02
1.467234083042659107e-02,-7.226400675003827323e-02,-3.907219709870004415e-02,-2.650647781012908585e-02,-4.259098476850176063e-02,-1.148550818046180540e-02,2.620856258954193732e-02,-5.718270512332151306e-02,-5.009294208304147095e-02,-7.768269923333254168e-02
-3.767096273384630545e-02,1.336406117813607507e-05,7.654554515112014287e-04,9.903519354747954140e-02,9.818202353847285679e-02,-1.170140338139799216e-02,8.682090169749595576e-02,-5.730955369390375309e-02,8.535084114050546858e-03,-8.856517479937028869e-03
9.486512481534471741e-02,6.849209556675103783e-02,-5.294545312395480124e-02,-1.168665136826131483e-02,-6.472355639953995821e-02,7.083105701347333638e-03,4.700611244273904255e-02,-9.241852139590935045e-02,-6.115039120525553318e-02,9.612085391624314301e-02
9.217832706400476417e-02,1.099958139755347758e-02,2.682792485821567166e-02,-4.517291054552574625e-02,8.968050267087351868e-02,3.350429040949175208e-02,3.617801318665068294e-02,-9.729305009692139350e-02,7.067379442889733243e-02,5.575272462488364833e-02
3.561511733861952994e-02,4.704180128692575513e-02,-7.280324917696892606e-02,4.354509012485446862e-02,-8.277161538821849185e-02,4.025114405660099037e-02,-8.844907133692589407e-02,5.501864364445663985e-02,-1.956655542025768305e-03,-5.957064885360822959e-02
4.409417483043516495e-02,-3.783690601108110479e-02,7.288749599166885473e-02,-6.417135400313975224e-02,8.625166659591278207e-02,9.233619219654801147e-02,-2.780239046868603070e-02,7.223279190162835983e-02,6.798298263854912760e-02,-1.557142636869156792e-02
-2.470702298883124814e-02,-4.211517588470409246e-02,1.037496790089150328e-01,-4.842481439310410141e-02,8.632712287084813585e-02,-1.141240959018337449e-02,7.059650558211806592e-02,6.822360740670671553e-02,-6.820864897905223878e-02,1.566176307330866685e-02
3.259404612948889335e-02,-1.967654158486989435e-02,-1.019682144382436512e-01,-3.511992315582947166e-02,6.628559880851050967e-02,-8.991935036104832524e-02,-6.790313446621136506e-02,4.014006346769696809e-02,2.492490662987773171e-03,-7.584532968072111572e-04
-2.469515592885284175e-02,2.081157157071857056e-02,6.956652360662117507e-02,-4.401633105542199914e-02,6.859699132260109466e-02,-1.713826794802088271e-02,-1.147430634099038099e-03,4.661719053755998543e-02,-4.772160944091585061e-02,8.469885546668566578e-02
4.134365615072560507e-02,2.431061934804552502e-02,-4.330520471801623666e-02,3.911028854236136415e-02,-4.736867833792710036e-02,6.454847796332388588e-02,-1.037971498290772704e-01,-6.685440203650637458e-02,1.168188217625222916e-02,4.265944809634602403e-02
6.961960585931624944e-04,7.685404510358304075e-02,9.918518317729552169e-02,-6.575046175237972759e-03,5.545538578673593622e-02,9.198987894642656014e-04,1.902263273235663479e-02,-5.429466441839313207e-02,-7.738065792214768313e-02,9.646116424978935788e-02
6.510522520411658742e-02,-4.206489981997835192e-02,2.139719934499471204e-02,-2.391502276243345423e-02,-6.328921001620552156e-02,-1.380079186740983989e-02,-5.241839225222718474e-02,-9.649596203688716456e-02,-2.234693998969198431e-02,8.453762963927803631e-02
6.464715290678833826e-02,1.435149075899451628e-02,-3.565128388349434602e-02,-5.453929938432285768e-02,9.139891631448956999e-02,1.323922244081659691e-02,-5.308286771508643337e-02,-5.110840886140911865e-02,9.132144345897372228e-02,-5.291365668484521168e-02
-7.998642709283176888e-02,-6.365595190966485961e-02,4.978204607687661959e-02,4.181370274287959238e-02,-1.376843666504116125e-02,5.715567099153738562e-02,1.186930203245460148e-02,-1.718499773155005364e-02,-7.670506913694020990e-02,7.665523634960026700e-02
-4.604226421540196651e-02,2.273542111841054744e-02,9.333526576302780819e-02,-6.185692198303915229e-02,9.197956156502558323e-02,2.901550637282147155e-02,-6.661190592096347118e-02,5.474518385708644630e-02,9.009364709934307436e-02,1.240054185958811353e-02
3.970391723375348708e-02,-9.459805591233919064e-02,9.976189457988628162e-02,-3.651533862346398318e-02,-9.420285788231477775e-02,6.341378743151247777e-02,8.805708958069620451e-02,4.746355725653824548e-02,-9.940795659996953804e-02,-8.730779848558875567e-02
1.667131476822650282e-02,-3.309502923050025580e-02,7.420491475385572466e-02,7.495885103832053420e-02,9.671795513871916938e-02,4.264267112792939629e-02,7.891190794219753168e-02,-3.585507206284765241e-02,-7.777345645378488936e-02,7.299856502625286236e-02
-3.807799624728151755e-02,-1.539870317284159837e-02,3.193105742597871638e-02,2.108702480702820403e-02,-1.455434464549484885e-02,-2.125998922020802887e-02,-8.371405123555256123e-02,6.633339662608119663e-03,-5.291162065671489029e-02,5.130783493204860157e-02
3.690514575965508914e-02,-8.476821063513953480e-02,1.014410034304769614e-01,5.635454688654556454e-02,-5.295978170479171548e-02,-9.181740774375651837e-02,-1.563545801568947194e-02,-2.909014808639089414e-02,9.633909741605842236e-03,3.241191994469937859e-02
5.870599561942156652e-02,-9.738560968420580111e-02,4.132740327308440792e-02,-4.052932984512008785e-02,9.662155410820505441e-02,6.835322828537795936e-02,1.493491757148617330e-02,1.993664156665556422e-02,-6.142179013840164126e-02,-5.464059706508593572e-02
-7.103251560441389834e-02,-2.500732761793392211e-02,-8.134206125605374094e-02,2.102453750530994779e-03,2.594021268788132897e-02,-7.707102405515312005e-02,-2.075066606287815849e-02,-8.602750856522210776e-02,4.795590867009831733e-03,2.966096435769615888e-02
2.084289076585891382e-02,6.222897551250526627e-02,-5.558185481974956682e-02,2.343148866060775631e-02,-4.078199104086473875e-02,-8.494669572798846380e-02,-2.823962838705411718e-02,-8.590396208979335368e-02,9.133367976986175862e-02,4.502581741587032699e-02
-7.681674330759508118e-02,5.782994455821407337e-02,-2.601845525387629088e-02,8.267741706167476556e-02,1.238075351332930570e-03,7.758523135077498301e-02,-7.001017441282347820e-02,-2.610092015077321304e-02,-2.621984168170922100e-02,-7.992401696850622017e-02
-3.667874491459896524e-02,3.144778027535008458e-02,-9.136849821160549986e-03,7.576480056906412242e-02,-4.771484086887239906e-02,-3.204069320819035588e-02,-2.467476314943626778e-02,1.015562034912275910e-02,-6.260052089731515945e-02,-6.561281592965435838e-02
8.753485567508863252e-02,-2.440560326894391369e-02,1.719506117334448220e-02,-8.855778748777495823e-02,-7.232777493123986046e-02,-8.182027723491640259e-02,6.267116191904398281e-02,-7.891213854105991188e-02,3.619446129335497295e-03,-6.844640326677768616e-02
-4.276649444207179795e-02,7.666837800137479841e-02,2.778377194444968043e-02,9.267775851897223915e-02,2.111089394735301064e-02,-9.614069499907253180e-02,-2.308763397836995079e-02,-9.559957171004226928e-02,-3.710514333790827790e-02,-3.620997193636940181e-03
1.716693639185500400e-02,-5.169997869647995070e-02,1.461248977055638713e-02,-2.061644979432970121e-02,3.083693066839427854e-03,-5.807369604744111458e-02,-8.043595671193355667e-02,5.131951730951797574e-02,-3.354610718090854371e-02,2.925015141364934942e-02
1.531763602927428865e-02,8.042207542315565894e-02,7.937753150227341847e-02,-1.130162381729380404e-02,-5.724192633757504978e-02,2.945114684438083705e-02,1.602350242293800256e-02,3.853314898574203978e-02,8.159223206689947272e-02,5.682960728001384271e-02
2.513243992428242785e-02,1.996316900950133311e-02,-5.698808086212628354e-02,2.980162562833378603e-02,6.361620957314323421e-02,8.567207726970441084e-02,8.288291031128781905e-02,1.176371122170189777e-02,-4.848012673401813633e-02,-3.364714904836583337e-02
9.790293031276810221e-02,4.993152538869960640e-03,6.131963618268505833e-02,1.946518205419614164e-02,-2.399580970999991519e-04,-3.252545598978683061e-02,1.501249085370475432e-02,-9.855896379273906827e-02,7.535550349964767469e-02,1.216159051731777706e-02
-9.689691257377122668e-02,6.325112483923682472e-02,-7.554645995796989422e-02,-9.378716225504442339e-02,-9.584628511836529308e-03,9.015066028916575436e-02,-7.233138517370343856e-02,-8.674302112575298096e-02,7.574175178985387280e-02,6.413838095885092405e-02
6.642915170762853094e-02,-6.462769366998169854e-03,-1.303259693642472121e-02,-1.996524033193781966e-02,1.774670446823106360e-02,4.837181381151664517e-02,4.957133464738644468e-02,3.081531433672826323e-02,1.232719506552622940e-02,-1.750419852620567485e-02
-3.685661987031967068e-02,-4.293498802152356103e-02,-4.260165273945384912e-02,3.670427380004166046e-02,5.195449928193117406e-02,1.847479879137387676e-02,-5.121375525831562553e-02,-6.099515989680156375e-02,5.308988745045565422e-02,9.573716828085128416e-02
-9.559082615049507847e-02,-4.985484404688318022e-02,6.055904230542859257e-02,4.388469715775113883e-02,-4.951894045322737664e-02,1.347846326676061836e-02,9.155210930104590999e-03,4.411357426342834426e-02,-6.844907358295932755e-03,-1.885129683533178641e-02
-3.562116669578998390e-02,-5.193561739878025524e-02,-7.900104827941417662e-02,2.943118666092800831e-02,3.580715813710882295e-02,4.049710625700354144e-02,-1.112710143262798795e-01,-1.200978577638914420e-02,-7.516661249684522539e-02,5.705894089672557123e-03
9.425982487813171218e-02,-1.043359880146410855e-04,-2.627248698313576492e-02,6.306993573209114523e-02,9.250622528760120422e-02,-4.459148635773570873e-02,6.564935747833842983e-02,9.951312908461050488e-02,-7.740678147635519923e-02,6.345516495553205072e-03
6.118738284415242007e-02,-2.511412240199188683e-02,-1.357080883519484402e-02,5.002238510884909201e-02,-8.171249199605695734e-02,-3.020777108028057517e-02,2.191915781982591710e-02,-5.236309322336882982e-02,6.763750507122293087e-02,5.289528634625939585e-02
9.044836237816555879e-02,4.301099814136882110e-03,-8.035151937395011712e-02,8.715746294374396297e-02,6.485074025608426884e-02,5.419072052620981829e-03,7.799937220608901822e-02,7.612910679995074648e-02,5.520702751610457454e-02,1.397023486833319159e-02
2.496203106353186291e-02,6.909745757342244943e-02,2.647018104974464478e-02,-5.862215030288325801e-02,4.009233535301313933e-02,8.997139724195302168e-03,-5.653918630244635785e-02,-9.974610529041537388e-02,-5.269672050456595397e-02,3.498226422602909724e-02
7.410805190767350004e-02,6.586581788970038986e-02,-7.980014685995062695e-02,-8.579078156959361878e-02,5.062654242165830903e-02,-4.647909933687251194e-02,-3.706321168319422904e-02,-9.969985091968361357e-02,-8.027616951850700955e-02,-7.296710649760408673e-02
-6.874374059225479838e-02,-1.081517838289631876e-02,6.283813048195265039e-02,6.276833704069560704e-02,8.142716582444532725e-02,-1.273697132191324577e-02,4.291528217355793096e-02,-1.918288282881928149e-03,-8.978883405021464981e-02,-8.354429940866262005e-02
-4.959398411133229823e-02,9.644874679312291643e-02,3.933313092167288472e-02,-4.641376893702991308e-02,4.301960053399417339e-02,3.465610425069941963e-02,-9.782633034504453762e-02,-2.773100895973432470e-02,5.477479698406558656e-02,-8.424190759877624168e-02
7.861632576149300833e-02,8.648614808551305377e-02,7.248818219385043393e-02,-7.630447882488118616e-02,1.434397762124020072e-02,4.384759491843511631e-02,6.907474056340250079e-02,-8.058567198772580153e-02,6.333591835400537162e-02,-4.410433778263207760e-02
2.099966066995437655e-02,4.424832272223611779e-02,5.726342758755793155e-02,-4.106664619150216661e-02,2.414175657928499183e-02,-3.946268250992541332e-02,8.924295374515227308e-02,6.288490255342314705e-02,-1.724449043887823010e-02,7.590458864484660173e-02
4.666776554037223301e-02,8.563342177136261391e-02,-6.582563826872744883e-02,-4.132621892716168560e-02,-8.042647371051050986e-02,-3.536131735169407292e-02,-2.442371784317503430e-02,2.630591469606416433e-02,-5.952914402827184058e-03,4.320948354595367108e-02
-4.763868222972453964e-02,-6.554377402271782671e-02,-2.524461410873530404e-02,-1.228664433629456272e-02,-1.701435321142366619e-02,8.116809630145814525e-02,-4.064987604002527621e-02,-2.944329747262410674e-02,-5.690642557021936832e-02,-2.565570131485571739e-02
-2.431731788640776465e-02,1.495203025298228253e-02,-4.551174464116892332e-02,-4.801885157057882852e-02,4.221332660430655165e-02,7.872990645661429032e-02,-6.717995971566741165e-02,-6.343428689670257969e-02,-7.340852144030435289e-02,3.667200997616071323e-02
-5.598034176600308331e-02,2.095663104375441663e-02,-5.899507211224399444e-02,6.351965564640404960e-02,-3.618359370521433832e-02,3.540055202687492075e-02,-7.419461843740519924e-02,-3.887913866632267124e-02,-4.057234073149433573e-02,2.707658453958305261e-02
3.521530664011679468e-02,6.897708227723921282e-02,-6.401433360353429858e-02,5.218722413482865946e-02,4.126720649572163807e-02,9.877753043041335654e-03,3.408380853116133036e-02,-8.181445007777542189e-02,-7.056249638177351791e-02,-1.681814368963692463e-02
4.334867274783398006e-02,-6.625576281329287331e-02,-2.127703384920843002e-02,-3.917008398039430552e-04,8.855955569947433770e-02,-8.695843855737214745e-02,5.985178461264319127e-02,9.682207002164028298e-02,-4.641469827969222500e-02,7.808678620686398952e-02
-3.967228730913829188e-02,6.005128125578450271e-02,-6.796566451167254143e-03,1.973781982591482631e-02,-5.070453005516688261e-02,4.063604661029204118e-02,-7.986770075594669394e-02,1.203670894604807681e-02,-9.208340225309300702e-04,6.769251883241050871e-02
-4.578731137947465897e-03,5.695035306116016244e-02,-2.032863637074969893e-02,-3.827869180589965614e-02,5.623710438006270657e-02,-1.777532701798766046e-02,2.746781943978646341e-03,1.566598994686177471e-02,6.403064200340032042e-02,1.636359917109815598e-02
-2.024040674908643422e-02,-6.824814912140836354e-02,3.888482988732301637e-02,7.651673342519237087e-02,-8.038762777711470908e-02,-9.492776658237009682e-03,9.571271983917456483e-02,1.264013880182928047e-02,8.861620366738704249e-03,-8.755899039188957955e-02
6.206964116364846289e-03,3.084369211012015499e-02,-7.143213650020616146e-02,9.128383394522716909e-02,-6.178677734915410946e-02,3.345694663643813960e-02,-4.097973285608180055e-02,-7.832247761771843342e-02,-4.787083657292732358e-02,-3.325958257544558982e-02
-6.219206013806653430e-03,-5.304822037032182191e-02,4.578419407945462372e-02,6.143308856657873213e-02,5.921150258763419050e-02,4.493635761318268140e-02,-5.023497037922601549e-02,-5.790979576640414156e-02,-7.805755688973571582e-02,-2.061180930752086818e-02
-8.310970886267256275e-02,3.101136484854431774e-02,8.945656940777980959e-02,5.114012946305190183e-02,-7.722672696172273865e-02,-9.683845350588435319e-02,-3.024675919796180126e-02,9.856993519891572852e-02,-3.746625273489704450e-02,4.742910249152398200e-02
4.289092284878776029e-02,1.455176961877280295e-02,-2.630253139263558429e-02,-5.832164840737898148e-02,9.544216684269341000e-02,-8.777202357099585239e-02,-5.109430682689349718e-02,-3.821485503234604841e-02,8.190435178953983653e-02,4.269446440721239716e-02
-4.624155849357414888e-02,-6.711022071727086591e-02,7.626037000075465422e-02,5.872202296527614246e-02,-9.118747767112021785e-02,7.726010911619161925e-02,1.429307644947343248e-02,-8.539166901749457167e-03,3.481180257195420208e-02,-9.214623885523300084e-02
-3.299939464226923219e-02,-8.219346172076355539e-02,3.723230788526710883e-02,-2.027167793523145661e-02,-3.392608581069046694e-03,-4.045004610678052531e-02,5.297970068123749460e-02,-9.060065107470689771e-02,-4.362400581278214756e-02,1.838082585619582252e-02
5.903039249060265670e-02,2.038449570812466902e-02,4.685224742918679686e-02,-9.534572157502053946e-02,-4.731756722256273001e-02,-8.967860885590346609e-02,-5.360248317178155884e-03,9.778226804199270650e-02,-9.733967467439716414e-02,-1.174218060866291657e-02
-9.871225614711509611e-02,2.247784362895441368e-02,-6.368419892664869963e-02,4.241623076190977060e-02,-6.740825970198251194e-02,6.676648999066790713e-02,-5.980665340831677057e-02,-2.967847172742947223e-02,-5.389260694309900429e-02,6.125330577270640675e-02
-2.692661003889072497e-03,7.469749632822815510e-02,-7.444272475880994722e-02,-1.821286515367835787e-04,5.427367218567188262e-02,9.499168825284017015e-02,3.825673481080033717e-02,-6.335535019476694341e-02,5.191555417479722795e-02,-8.511059555032458868e-02
5.073135053861018567e-02,6.546129819782148251e-02,1.128728438364012820e-02,-1.467219825306123864e-03,8.562793700726475943e-02,-1.027747413673306687e-01,-9.099281297975375660e-02,-4.958577878283060292e-02,1.048033089309901569e-03,8.015458779791503549e-03
-2.522228502612772899e-02,-4.142831012319928702e-02,-5.950658920837250537e-02,6.004571949541989001e-02,-3.637785215766348168e-02,-7.280467582031711340e-04,6.043996606348391032e-02,2.245715851565938115e-02,-1.824914172980527521e-02,-6.458932248705259727e-02
-2.178988588088758699e-02,-2.991488018598184237e-03,9.770528185509454178e-02,-4.307586838434948606e-02,-6.841628957267631428e-02,-5.769754486786045355e-02,-5.283875338854653048e-02,-8.469710151557612032e-02,-2.699332858025239867e-02,-4.300174960588853262e-02
7.811434173424608440e-02,5.608192062063249717e-02,-7.761249898517490198e-02,7.011214226918344172e-02,-7.710892632579879891e-02,4.585548677878877738e-02,1.039421237930625644e-02,-8.265031233721305270e-02,8.123350710933821550e-02,7.493021498674658221e-02
7.006732702128222467e-02,-2.600723877689630967e-02,-5.466999726308554436e-02,9.950474330477203366e-02,6.485334277929200031e-02,-8.978772003294166471e-02,-3.110362499100125314e-02,6.253515703096472478e-02,5.764541695188580075e-03,-5.037071961598971193e-02
5.799387828154201757e-02,-4.761611445411404603e-02,-9.986337993004083813e-02,-5.364018921714221177e-02,9.826471967566781374e-02,3.016732760877569725e-02,-5.421150888499608883e-02,3.733701102192425042e-02,3.743360420816431444e-02,2.821762947654468667e-02
-8.705502136578865957e-02,-5.150146626390401244e-02,7.365028119209325597e-02,4.691384932187045442e-02,-6.730945213640002200e-02,-4.239596055847373590e-02,1.754492888480877616e-02,6.527944662831805522e-02,-5.996556971181311868e-02,-7.979193441536375220e-02
-2.401572921487090881e-02,8.244165101805156493e-02,-4.811682151924093903e-02,-7.834261855322602330e-02,-8.911570914338033667e-02,-3.018942503391302754e-02,-9.086184151367253381e-02,1.658889984183538335e-02,3.442789190125902093e-02,-7.945294030091474766e-03
4.849459635980622046e-02,3.010192556624916374e-04,4.040881260322493063e-02,-5.386834154385714002e-02,4.928915789065000524e-02,1.082377238667294947e-03,3.946790507042938906e-02,-1.064673167682056269e-02,1.315636789136165070e-03,-9.165895815810329306e-02
-2.273508754991124346e-03,-7.154172813029738287e-02,-7.152422470894934103e-02,-1.332295321432490180e-02,1.512841491426098958e-02,-3.166409681290643235e-02,-6.734509673617211645e-02,4.830062930491223899e-02,9.259249926865756319e-02,4.671854353795831111e-02
-8.468665554727052014e-02,6.820625869713041467e-02,-8.637166021236898639e-02,-1.271065429408809420e-02,8.549856878799623472e-02,-4.769308511332682327e-02,-7.395545094594375979e-02,5.246972993872299484e-02,8.573179238303201000e-02,-3.480686816385344245e-02
-5.332775729811599363e-02,-6.351793562453549036e-02,9.271770085554083274e-02,1.532908030381573312e-02,7.230886530594078654e-02,-3.778246479511976341e-02,-8.982471328554599010e-02,-9.252487973284095890e-03,-5.852596341050442935e-02,3.791848970550246514e-03
7.791032949898639599e-03,-4.105966053180585412e-02,-3.847543712891444978e-02,-9.513155039820647696e-02,-1.542861681063227401e-02,-3.462393059275509222e-02,2.225107793551347329e-02,7.198430071574062061e-02,-1.416211496229662515e-03,-8.337165151724822143e-02
8.696429466894080307e-02,6.170439788168981948e-02,-2.700268669985306930e-02,-3.387159236536541052e-02,8.807578212999341016e-02,-2.432298838051014447e-02,2.569602175242100689e-02,9.706101541556634571e-02,-9.256360122887156983e-02,-3.706046756266618419e-02
-5.373421870511727733e-02,8.438426748889124585e-02,1.025460826618841692e-02,-8.930972488689011002e-02,5.121143899692325030e-02,3.695925778064983874e-02,3.238236328367158356e-02,9.109076701138443810e-02,7.491545316799269605e-02,5.055367621734004058e-02
-5.560869134366025479e-02,-7.242994830161554598e-02,-5.594754259490981180e-02,-5.889813950546175098e-02,1.330166845480122532e-02,3.216990939819466128e-02,6.555518300110036410e-03,-8.872725203905112989e-02,-2.738017849417093488e-02,9.351353593166539246e-02
3.892531562251310556e-02,-2.607607559685660298e-02,3.415992774937835763e-02,-4.697215823626850473e-02,-8.485210289229465352e-02,4.972417257716062709e-03,-4.059133366090907774e-02,-3.663834716519891958e-03,8.029616942423845050e-02,3.033925176602151469e-02
4.469330290701031827e-02,-7.949451974487758976e-02,-4.121516375535126848e-03,-1.914703525748560550e-02,2.944872163860399322e-02,-4.233060005787762231e-02,-2.353157956381021765e-02,9.617112758298725084e-02,-7.699601553258050846e-02,-6.003229572501769112e-02
-5.241303437278799909e-02,3.934142791361684016e-02,4.262045586593510987e-02,5.698256894240961296e-02,-2.414658941889506055e-02,6.962875436893826986e-02,4.091372950990408014e-02,4.268071274310999280e-02,6.439933663567928845e-02,2.581475280992721194e-02
-1.536454569659666952e-02,-9.384990187414696261e-02,1.920149465154701030e-02,1.275867398590056247e-02,2.050504453616182679e-02,-3.505197537038513833e-02,9.876257556154855941e-03,-6.566854889478657142e-02,3.005202024162510754e-02,-8.566285152373862011e-02
7.521275077372467643e-02,-5.673220992817400860e-02,-4.104563362830700168e-02,7.696424952523846230e-02,7.696704236825065160e-02,6.765136606097793548e-02,-3.587252076057571848e-02,8.048689953283068299e-02,5.448798178005419962e-02,3.164435671849706588e-02
7.984766433915178874e-02,5.665541869340955106e-02,-1.501569763300350351e-02,-3.511166535465042732e-02,-2.141734629999161865e-02,-8.813969060348131324e-02,-2.677576788298107607e-02,-2.934486774863149378e-02,7.313473418909015311e-02,7.777295573761239256e-02
9.223091544370737305e-02,-3.441130835491943568e-02,3.842433454413465843e-02,2.660399482787608599e-02,-5.215477235369469361e-02,7.290570304991683681e-02,-5.462004022847093132e-02,4.953125737277090657e-02,-7.114542391084882622e-02,-7.869093233635214568e-02
4.406605957969721155e-02,5.218174442590051317e-03,-1.128495015108818555e-02,5.562972782677551298e-02,-2.825143312802231438e-02,7.066315952324118965e-02,9.245681998296871595e-02,9.581720869744728142e-02,-4.455823601467850253e-02,-1.700398956540785655e-02
4.499892664895014521e-02,7.897625421528091383e-02,4.212892526836479329e-02,5.164015057458185010e-02,7.668199756285064284e-02,-2.660095785363796039e-02,8.506316904492140785e-03,6.951877366662271261e-03,2.963221455786396036e-02,7.903479045263893388e-02
2.016059744019602779e-02,9.394566298284681705e-02,4.655785873370463929e-02,-1.694111553271002504e-02,1.622426958928074869e-02,8.445851941966958654e-02,2.368111556676354840e-02,4.197708829185493873e-02,3.222209267597409693e-02,-3.278213695108444375e-02
-5.933402575493517545e-02,-1.843153058954035903e-02,-6.981276260993510285e-02,6.526276534778986671e-02,4.209423157648401609e-02,-1.978983733200715203e-02,-6.573099748695131195e-02,7.516070146344953906e-02,2.778459504936995478e-02,9.932020763250404283e-02
-7.978179335625644464e-02,-5.104407052626901142e-02,-8.327472803210836383e-02,4.894827549852438092e-02,-6.808576927512333121e-02,7.633258792637473422e-02,-1.712996949685219837e-03,5.229843564711948722e-03,-9.145660024803889399e-02,2.280535455284294494e-02
-5.446901864574331398e-02,-5.723776012982537825e-02,7.886363523262493458e-02,7.761075148843189775e-02,-9.894407333126464810e-02,6.647240116497243889e-02,8.046184649308486814e-02,2.405125694115576793e-03,3.131016283295209174e-02,5.357211727516213162e-02
3.706924976821474732e-02,-8.143983601011744317e-03,1.467199412659361303e-02,1.479778868247309982e-02,6.841422539116079338e-02,-5.192178121992224032e-02,5.145429748658857799e-02,6.246640026148102959e-02,5.944422247434670570e-02,6.153639500463355810e-02
6.584565491523797220e-02,-1.658706025937162903e-02,2.375950475522160821e-02,5.104706691765640431e-02,5.394808778509140035e-02,9.171044906026591670e-02,9.500042706590799968e-02,1.292291510375939527e-02,-6.849584806049173295e-03,6.707703558883752748e-02
-5.600385403493159803e-02,5.327277821027377736e-02,-6.151841199388433101e-02,1.832158142780030557e-02,2.136962219427786247e-02,-1.163576910381464158e-02,7.290370401497811570e-02,8.697592526146775971e-03,-1.526315076276610122e-03,-1.636860347066212279e-02
-8.755480500190851445e-02,-2.757731006134229307e-02,-8.131733259457554763e-02,1.311617129695327733e-02,2.809900632934650075e-02,5.354532209747508292e-02,2.651807533293889033e-02,-6.258796178479450467e-02,4.994824395762349073e-02,9.772942046023283882e-03
-7.956293922540041974e-02,-9.501173057011029488e-02,-4.032947089933693052e-02,3.800356109789131825e-02,8.655905996258858592e-02,9.330382386889925217e-02,5.291694570700607170e-02,-4.134490771482015464e-02,2.444191678853532834e-02,-5.377492118600150917e-02
5.013913067377080701e-02,-6.682951382332549817e-02,5.141527958754923272e-02,7.370820970591297761e-02,3.901325394623823394e-03,-8.688086605724355815e-02,-1.023970163470251486e-02,6.756681516501733542e-02,-6.413532101387292572e-02,-9.228729314788830518e-02
4.654509484160800764e-02,1.262233001418229181e-02,-9.170208976256181976e-02,9.697888612756715154e-02,1.386849513906049901e-02,1.704118445661689102e-02,5.798419104337571017e-02,8.053107267412430714e-02,-8.777826265145674545e-02,-3.029600042696536238e-02
-5.996723929496086680e-02,-6.893517301419317504e-03,-8.192707878872959593e-02,-8.637951621470514596e-02,-3.981542054871901187e-02,8.088238746655512790e-02,9.510356308996184560e-02,5.276608389702067137e-02,-9.978440195254038858e-02,4.706519538723632351e-02
-9.558610336582029632e-02,-6.624830748186345819e-02,-9.797549345440426105e-02,-7.017302187542939773e-02,3.750804577487314856e-02,4.041083512781638853e-02,-2.576911276379494423e-02,4.625275437239108334e-02,6.942187185928973270e-02,-7.391115809652440416e-02
-8.252721838778473429e-02,-2.567690330929953135e-02,-1.902498017427336693e-02,-4.472094728018660009e-02,5.082741910215504005e-02,-3.565570587468119140e-02,6.001946484376739083e-02,8.224699094992499182e-02,2.562075760234051956e-03,-1.413125163044742609e-02
-8.168006381119538584e-02,-4.527834602108096046e-02,7.737740127956954650e-02,-5.081349250813180229e-02,2.423857994168267943e-02,-9.999369143696037847e-04,-8.113186614877644642e-02,7.987153180265094132e-02,-8.646742473351251568e-02,3.613867106543959540e-02
9.439532298270975064e-02,4.187267334304153876e-02,-3.482294979995415735e-02,-8.531016471859871608e-02,1.594525715982583747e-02,4.670292183202766345e-02,-2.823333425713648800e-02,3.074801774063442086e-02,1.333863636846363381e-02,-9.318233771249907760e-02
8.414179598667757831e-02,-2.399982743665483864e-02,-2.412127764482272993e-02,6.927398504716236749e-02,-3.142217562546797006e-03,-9.784247707324842183e-03,2.796809399528209228e-02,-5.764373408590799108e-02,5.650305508845098433e-03,3.371752305970805025e-02
7.758280475259022452e-03,4.177553110038467743e-02,1.966618661111643740e-02,6.828044262247225105e-02,7.583557955176543908e-02,-8.042944647784062984e-02,-4.827649311520826325e-02,-8.906301555616018273e-02,-5.422722467824298703e-02,4.418987022852603752e-02
-8.429153104626299631e-02,-6.898099331644638732e-02,5.414895772647815991e-02,-1.113498404061604233e-02,-4.197605812564253469e-02,2.879687223295638795e-02,7.738720919054119241e-02,-9.248027656557088194e-02,3.863278268279256994e-02,3.370854221275203233e-02
7.360212604271078318e-02,-6.070907443094036848e-02,4.250007016347111949e-02,-7.921814882497642263e-02,-8.867510595882885371e-02,3.616143866684447955e-02,-9.546793544613117743e-02,-9.113749090723623214e-02,-9.258168687328882651e-02,-6.914672050693566711e-03
5.157057558444771289e-02,9.844298600041535841e-02,-5.470873279156957675e-02,5.847668285321429293e-02,5.904681338842105581e-02,7.444866882674733288e-02,-3.714316405294598722e-02,-7.341681974801823884e-02,5.937295761066951200e-02,1.348825760175942703e-02
-1.707444001341432149e-02,-8.830222485208875927e-02,-9.862726277376288042e-02,-3.679698953741763340e-02,-4.571113348731103282e-02,-4.859829376159351469e-03,8.471771734206311188e-02,-1.667187005990928075e-02,-4.241641636443255203e-02,6.903947116432058995e-02
